{"learner":{"attributes":{"best_iteration":"34","best_ntree_limit":"35","best_score":"0.4709621929205381","scikit_learn":"{\"use_label_encoder\": false, \"n_estimators\": 35, \"objective\": \"binary:logistic\", \"max_depth\": 4, \"max_leaves\": null, \"max_bin\": null, \"grow_policy\": null, \"learning_rate\": 0.05, \"verbosity\": null, \"booster\": null, \"tree_method\": null, \"gamma\": 0.6, \"min_child_weight\": 4, \"max_delta_step\": null, \"subsample\": 0.8, \"sampling_method\": null, \"colsample_bytree\": 0.8, \"colsample_bylevel\": null, \"colsample_bynode\": null, \"reg_alpha\": 5e-05, \"reg_lambda\": null, \"scale_pos_weight\": 1, \"base_score\": null, \"missing\": NaN, \"num_parallel_tree\": null, \"random_state\": null, \"n_jobs\": null, \"monotone_constraints\": null, \"interaction_constraints\": null, \"importance_type\": null, \"gpu_id\": null, \"validate_parameters\": null, \"predictor\": null, \"enable_categorical\": false, \"feature_types\": null, \"max_cat_to_onehot\": null, \"max_cat_threshold\": null, \"eval_metric\": null, \"early_stopping_rounds\": null, \"callbacks\": null, \"kwargs\": {\"nthread\": 20, \"seed\": 92}, \"classes_\": [0, 1], \"n_classes_\": 2, \"evals_result_\": {\"validation_0\": {\"auc\": [0.7779914741746803, 0.8428967978586299, 0.855457519579657, 0.8688807375830276, 0.8697729751164865, 0.8725389114702092, 0.8741845940319223, 0.8751759690690989, 0.8799841379994052, 0.8811837017943888, 0.8827996431049866, 0.8874194507782294, 0.8904233171408744, 0.8937444235154158, 0.893952612273223, 0.8948547635570536, 0.8961336373550114, 0.8968077723802914, 0.896996133637355, 0.9012094775453554, 0.9014969763061366, 0.9020323188262119, 0.9029542976107862, 0.9035491226330921, 0.903509467631605, 0.9056805789630217, 0.9060275602260335, 0.9070585902646972, 0.9077128977892337, 0.908882720333102, 0.9096361653613562, 0.9105878853970457, 0.911043917914147, 0.9123822742143353, 0.9117081391890552], \"error\": [0.21511627906976744, 0.1744186046511628, 0.1569767441860465, 0.1569767441860465, 0.15503875968992248, 0.1569767441860465, 0.15891472868217055, 0.15891472868217055, 0.1569767441860465, 0.15310077519379844, 0.15310077519379844, 0.14728682170542637, 0.14922480620155038, 0.15310077519379844, 0.1569767441860465, 0.1569767441860465, 0.15891472868217055, 0.15503875968992248, 0.15503875968992248, 0.1511627906976744, 0.14728682170542637, 0.14922480620155038, 0.1511627906976744, 0.14534883720930233, 0.1434108527131783, 0.14534883720930233, 0.14534883720930233, 0.1434108527131783, 0.14534883720930233, 0.14534883720930233, 0.14728682170542637, 0.1434108527131783, 0.14534883720930233, 0.14534883720930233, 0.1434108527131783], \"logloss\": [0.6746238843184109, 0.6527399332948434, 0.6339332907236823, 0.6159806402847748, 0.5996824774400208, 0.5852405175335648, 0.570283024117004, 0.5558668714045554, 0.5448962142763212, 0.5330157214703486, 0.5229254550943079, 0.5129128551875898, 0.502569630857586, 0.494513243263544, 0.4875598905044933, 0.4786295857309371, 0.47102553645769757, 0.46536526892536373, 0.45885723511608995, 0.4525910865717618, 0.44657205521713855, 0.44001274365325305, 0.43522083918138066, 0.4301124327462311, 0.4249956629477268, 0.4201149898328522, 0.415856357028549, 0.4117148874919544, 0.40798434112654175, 0.40416772952375485, 0.40085157581655556, 0.3973936577464721, 0.3942544655802176, 0.3905452353836492, 0.38802437013549396]}, \"validation_1\": {\"auc\": [0.7224304904717276, 0.7616369884411122, 0.7875663855045298, 0.7741330834114339, 0.7708528584817245, 0.7858481724461106, 0.7889721961886911, 0.7855357700718526, 0.7844423617619494, 0.7785067166510465, 0.7721024679787566, 0.7777257107154014, 0.7828803498906591, 0.7860043736332396, 0.788347391440175, 0.7844423617619494, 0.7860043736332396, 0.7863167760074976, 0.7847547641362075, 0.7794439237738207, 0.7753826929084661, 0.7753826929084661, 0.7713214620431116, 0.7703842549203374, 0.7685098406747891, 0.767885035926273, 0.7713214620431116, 0.7688222430490472, 0.7747578881599501, 0.7760074976569822, 0.7741330834114339, 0.7741330834114339, 0.7756950952827242, 0.7725710715401437, 0.7750702905342081], \"error\": [0.2076923076923077, 0.18461538461538463, 0.19230769230769232, 0.2, 0.2230769230769231, 0.19230769230769232, 0.2230769230769231, 0.23076923076923078, 0.2, 0.23076923076923078, 0.23076923076923078, 0.2153846153846154, 0.19230769230769232, 0.19230769230769232, 0.19230769230769232, 0.19230769230769232, 0.18461538461538463, 0.2, 0.2, 0.2, 0.2, 0.2, 0.2, 0.2, 0.2, 0.2, 0.2, 0.2, 0.2, 0.2, 0.2, 0.2, 0.2, 0.19230769230769232, 0.2], \"logloss\": [0.6755229500623849, 0.6561544069877038, 0.6396987658280593, 0.6250464443977063, 0.6110621718259958, 0.5972188825790699, 0.5840770022227214, 0.5739569709851191, 0.5643412695481227, 0.5569162206007884, 0.5493954147283847, 0.5423495744283383, 0.5344233506000959, 0.526695569891196, 0.5206912680314137, 0.5150139632133337, 0.5095737441227987, 0.504997385923679, 0.5022510507932076, 0.49999171059865216, 0.49677282652029625, 0.4923674215491001, 0.4911060698903524, 0.48755929779547913, 0.4858917771623685, 0.48364550184745053, 0.48111798889361895, 0.48011746601416516, 0.47680449130443425, 0.47625246254297404, 0.474490873171733, 0.47423118364352446, 0.47253058552742006, 0.472427977506931, 0.4709621929205381]}}, \"_estimator_type\": \"classifier\"}"},"feature_names":["percent_cu_dl","percent_ac_dl","percent_cc_dl","area_ta_dl","area_cu_dl","area_ac_dl","area_cc_dl","sigmoid_prob"],"feature_types":["float","float","float","float","float","float","float","float"],"gradient_booster":{"model":{"gbtree_model_param":{"num_parallel_tree":"1","num_trees":"35","size_leaf_vector":"0"},"tree_info":[0,0,0,0,0,0,0,0,0,0,0,0,0,0,0,0,0,0,0,0,0,0,0,0,0,0,0,0,0,0,0,0,0,0,0],"trees":[{"base_weights":[-9.261079E-1,-1.3925918E0,-0E0,-1.6149722E0,-8.505724E-1,8.148074E-1,-1.8803248E-1,-1.6923065E0,-7.272636E-1,-2.39992E-1,-1.0303E0,-4.2552978E-1,6.6665924E-1,-1.4782522E0,-7.234E-1,-3.1742856E-2,-1.0857086E0],"categories":[],"categories_nodes":[],"categories_segments":[],"categories_sizes":[],"default_left":[1,1,1,1,1,0,1,0,0,0,1,1,0,0,0,0,0],"id":0,"left_children":[1,3,5,7,9,-1,11,-1,-1,-1,13,15,-1,-1,-1,-1,-1],"loss_changes":[4.3849472E1,6.762314E0,5.515569E0,1.9785156E0,2.1394758E0,0E0,6.2210407E0,0E0,0E0,0E0,1.1988869E0,6.07477E0,0E0,0E0,0E0,0E0,0E0],"parents":[2147483647,0,0,1,1,2,2,3,3,4,4,6,6,10,10,11,11],"right_children":[2,4,6,8,10,-1,12,-1,-1,-1,14,16,-1,-1,-1,-1,-1],"split_conditions":[3.234634E-1,1.5133966E1,1.3649136E1,1.719035E1,5.8537383E-2,4.074037E-2,8.935149E-1,-8.461533E-2,-3.636318E-2,-1.19996E-2,4.004759E0,6.287662E-1,3.3332963E-2,-7.391261E-2,-3.6170002E-2,-1.5871428E-3,-5.4285433E-2],"split_indices":[6,0,0,4,6,0,6,0,0,0,1,6,0,0,0,0,0],"split_type":[0,0,0,0,0,0,0,0,0,0,0,0,0,0,0,0,0],"sum_hessian":[1.005E2,6.65E1,3.4E1,4.575E1,2.075E1,5.75E0,2.825E1,4.125E1,4.5E0,5.25E0,1.55E1,2.25E1,5.75E0,4.75E0,1.075E1,1.475E1,7.75E0],"tree_param":{"num_deleted":"0","num_feature":"8","num_nodes":"17","size_leaf_vector":"0"}},{"base_weights":[-9.4935E-1,-1.4455118E0,-1.3735457E-1,-1.5433203E0,-4.8684415E-1,-9.349267E-1,9.0811765E-1,-1.6569262E0,-7.052794E-1,-1.314301E0,-3.9658836E-1,1.6867833E-1,1.2564455E0,-9.03869E-1,-1.7147084E0,-8.2836676E-1,8.142201E-2],"categories":[],"categories_nodes":[],"categories_segments":[],"categories_sizes":[],"default_left":[1,1,1,1,0,1,1,1,0,0,1,0,0,0,0,0,0],"id":1,"left_children":[1,3,5,7,-1,9,11,13,-1,-1,15,-1,-1,-1,-1,-1,-1],"loss_changes":[4.2164406E1,5.358658E0,3.5025368E1,4.4170074E0,0E0,4.3276653E0,4.4870834E0,6.659088E-1,0E0,0E0,2.3888412E0,0E0,0E0,0E0,0E0,0E0,0E0],"parents":[2147483647,0,0,1,1,2,2,3,3,5,5,6,6,7,7,10,10],"right_children":[2,4,6,8,-1,10,12,14,-1,-1,16,-1,-1,-1,-1,-1,-1],"split_conditions":[2.9489198E-1,3.7934107E-1,2.4429692E-1,3.7874177E0,-2.4342207E-2,2.081414E-1,7.664107E1,4.228572E-2,-3.526397E-2,-6.571505E-2,5.9440196E-1,8.433917E-3,6.2822275E-2,-4.519345E-2,-8.5735425E-2,-4.141834E-2,4.0711006E-3],"split_indices":[2,7,7,1,0,7,3,2,0,0,2,0,0,0,0,0,0],"split_type":[0,0,0,0,0,0,0,0,0,0,0,0,0,0,0,0,0],"sum_hessian":[1.04150185E2,6.416347E1,3.9986713E1,5.7669777E1,6.4936905E0,2.2742586E1,1.7244127E1,4.9924717E1,7.7450614E0,1.2495407E1,1.0247179E1,5.9973006E0,1.1246827E1,4.7438035E0,4.5180912E1,4.998909E0,5.2482696E0],"tree_param":{"num_deleted":"0","num_feature":"8","num_nodes":"17","size_leaf_vector":"0"}},{"base_weights":[-8.1011575E-1,-1.2739254E0,1.2068898E-1,-1.348391E0,-4.681156E-1,-9.3649507E-1,7.58533E-1,-1.5106782E0,-8.9966977E-1,-1.2540271E0,-3.4171656E-1,2.9454425E-1,1.2832834E0,-1.5676419E0,-7.736782E-1,-5.4193354E-1,-1.4939003E0,-4.880249E-1,1.2125279E0],"categories":[],"categories_nodes":[],"categories_segments":[],"categories_sizes":[],"default_left":[1,1,1,1,0,1,1,1,1,0,0,1,0,0,0,0,0,0,0],"id":2,"left_children":[1,3,5,7,-1,9,11,13,15,-1,-1,17,-1,-1,-1,-1,-1,-1,-1],"loss_changes":[4.5648468E1,3.594307E0,2.4958963E1,3.2963943E0,0E0,2.211564E0,5.2172585E0,6.963272E-1,3.3256102E0,0E0,0E0,1.0286011E1,0E0,0E0,0E0,0E0,0E0,0E0,0E0],"parents":[2147483647,0,0,1,1,2,2,3,3,5,5,6,6,7,7,8,8,11,11],"right_children":[2,4,6,8,-1,10,12,14,16,-1,-1,18,-1,-1,-1,-1,-1,-1,-1],"split_conditions":[3.6693704E-1,3.7934107E-1,2.193031E-1,2.999819E0,-2.3405781E-2,9.7288666E1,9.92105E1,1.7830929E1,5.89478E0,-6.270136E-2,-1.7085828E-2,2.8406465E-1,6.416417E-2,-7.83821E-2,-3.868391E-2,-2.7096678E-2,-7.469501E-2,-2.4401246E-2,6.0626395E-2],"split_indices":[2,7,7,1,0,3,3,4,1,0,0,7,0,0,0,0,0,0,0],"split_type":[0,0,0,0,0,0,0,0,0,0,0,0,0,0,0,0,0,0,0],"sum_hessian":[1.04380936E2,6.942076E1,3.496017E1,6.2931786E1,6.488978E0,1.2979393E1,2.198078E1,4.4478638E1,1.8453148E1,7.739212E0,5.240181E0,1.2494466E1,9.486313E0,4.0241215E1,4.23742E0,1.2712248E1,5.7409005E0,6.9975038E0,5.496962E0],"tree_param":{"num_deleted":"0","num_feature":"8","num_nodes":"19","size_leaf_vector":"0"}},{"base_weights":[-8.797623E-1,-1.3069899E0,-2.2620781E-1,-1.3814468E0,-3.4026146E-1,-9.416023E-1,7.689764E-1,-6.370119E-1,-1.4481187E0,-1.2217261E0,-3.4107864E-1,8.6085014E-2,9.741907E-1,-9.6348894E-1,-1.5365326E0,-6.1413074E-1,-1.4501343E0,5.156828E-1,1.3426529E0],"categories":[],"categories_nodes":[],"categories_segments":[],"categories_sizes":[],"default_left":[1,1,1,1,0,1,1,0,1,1,0,0,1,0,0,0,0,0,0],"id":3,"left_children":[1,3,5,7,-1,9,11,-1,13,15,-1,-1,17,-1,-1,-1,-1,-1,-1],"loss_changes":[2.8247337E1,3.9643173E0,3.0354408E1,1.9002609E0,0E0,3.731968E0,2.4324303E0,0E0,7.224426E-1,1.3895206E0,0E0,0E0,1.6237268E0,0E0,0E0,0E0,0E0,0E0,0E0],"parents":[2147483647,0,0,1,1,2,2,3,3,5,5,6,6,8,8,9,9,12,12],"right_children":[2,4,6,8,-1,10,12,-1,14,16,-1,-1,18,-1,-1,-1,-1,-1,-1],"split_conditions":[2.9761583E-1,1.8949871E1,2.4429692E-1,4.228572E-2,-1.7013073E-2,9.991028E1,7.472981E1,-3.1850595E-2,8.366022E0,7.2485085E1,-1.7053932E-2,4.3042507E-3,2.9438007E-1,-4.817445E-2,-7.682663E-2,-3.0706538E-2,-7.250672E-2,2.578414E-2,6.7132644E-2],"split_indices":[2,0,7,2,0,3,3,0,0,3,0,0,7,0,0,0,0,0,0],"split_type":[0,0,0,0,0,0,0,0,0,0,0,0,0,0,0,0,0,0,0],"sum_hessian":[1.01225586E2,6.060699E1,4.06186E1,5.5874523E1,4.7324677E0,2.3662529E1,1.6956068E1,5.4604273E0,5.0414097E1,1.5430303E1,8.232226E0,4.2460904E0,1.2709977E1,9.614041E0,4.0800056E1,5.2236595E0,1.0206643E1,6.7322154E0,5.9777617E0],"tree_param":{"num_deleted":"0","num_feature":"8","num_nodes":"19","size_leaf_vector":"0"}},{"base_weights":[-8.386004E-1,-1.2677083E0,-1.5982208E-1,-1.3392161E0,-3.1339562E-1,-9.668527E-1,3.825737E-1,-1.4070109E0,-4.6493798E-1,-1.1137767E0,-4.5863318E-1,7.081539E-3,8.055237E-1,-1.5074712E0,-9.972256E-1,-1.3810855E0,-7.2777635E-1,-5.576873E-1,5.0278324E-1,4.4945505E-1,1.1448318E0],"categories":[],"categories_nodes":[],"categories_segments":[],"categories_sizes":[],"default_left":[1,1,1,1,0,1,1,1,0,1,0,1,1,0,0,1,1,0,0,0,0],"id":4,"left_children":[1,3,5,7,-1,9,11,13,-1,-1,-1,17,19,-1,-1,-1,-1,-1,-1,-1,-1],"loss_changes":[2.9973701E1,3.9019775E0,1.8435902E1,2.8196716E0,0E0,7.489767E-1,4.028037E0,7.15477E-1,0E0,2.730465E-1,0E0,4.3295345E0,9.274287E-1,0E0,0E0,0E0,0E0,0E0,0E0,0E0,0E0],"parents":[2147483647,0,0,1,1,2,2,3,3,5,5,6,6,7,7,9,9,11,11,12,12],"right_children":[2,4,6,8,-1,10,12,14,-1,-1,-1,18,20,-1,-1,-1,-1,-1,-1,-1,-1],"split_conditions":[2.9849797E-1,1.8314226E1,2.193031E-1,3.9402568E-1,-1.5669782E-2,1.1380013E2,9.570413E1,1.5353394E1,-2.32469E-2,-5.5688836E-2,-2.293166E-2,2.6723048E-1,9.0132254E-1,-7.537356E-2,-4.986128E-2,-6.9054276E-2,-3.638882E-2,-2.7884364E-2,2.5139162E-2,2.2472752E-2,5.724159E-2],"split_indices":[2,0,7,7,0,3,3,4,0,4,0,7,6,0,0,2147483647,2147483647,0,0,0,0],"split_type":[0,0,0,0,0,0,0,0,0,0,0,0,0,0,0,0,0,0,0,0,0],"sum_hessian":[1.0260305E2,6.2331078E1,4.027197E1,5.7610844E1,4.720233E0,1.5872624E1,2.4399345E1,5.2899433E1,4.7114134E0,1.1388605E1,4.4840193E0,1.3463448E1,1.0935897E1,4.0332874E1,1.2566557E1,5.205606E0,6.182999E0,6.234797E0,7.2286506E0,6.470524E0,4.465373E0],"tree_param":{"num_deleted":"2","num_feature":"8","num_nodes":"21","size_leaf_vector":"0"}},{"base_weights":[-7.7939147E-1,-1.3173527E0,-2.9344344E-1,-1.5239015E0,-9.98988E-1,-1.0965396E0,1.6806021E-1,-5.1860327E-1,-1.093069E0,-5.530953E-1,-1.3017321E0,-6.9886285E-1,3.9634138E-1,-3.962507E-1,-1.2847998E0,1.687633E-2,8.648358E-1],"categories":[],"categories_nodes":[],"categories_segments":[],"categories_sizes":[],"default_left":[1,1,1,0,1,1,1,0,1,0,0,0,1,0,0,0,0],"id":5,"left_children":[1,3,5,-1,7,9,11,-1,13,-1,-1,-1,15,-1,-1,-1,-1],"loss_changes":[2.568937E1,1.5716476E0,2.0084936E1,0E0,4.0105247E-1,1.4798012E0,7.196779E0,0E0,1.7630825E0,0E0,0E0,0E0,5.019262E0,0E0,0E0,0E0,0E0],"parents":[2147483647,0,0,1,1,2,2,4,4,5,5,6,6,8,8,12,12],"right_children":[2,4,6,-1,8,10,12,-1,14,-1,-1,-1,16,-1,-1,-1,-1],"split_conditions":[3.0020075E0,1.9669019E0,2.0779493E-1,-7.6195076E-2,8.397596E-2,1.7677635E1,3.8945806E0,-2.5930164E-2,2.2743979E0,-2.7654765E-2,-6.50866E-2,-3.4943145E-2,9.570413E1,-1.9812535E-2,-6.423999E-2,8.4381655E-4,4.324179E-2],"split_indices":[1,5,7,0,6,0,1,0,5,0,0,0,3,0,0,0,0],"split_type":[0,0,0,0,0,0,0,0,0,0,0,0,0,0,0,0,0],"sum_hessian":[9.874717E1,4.605344E1,5.2693733E1,2.5635088E1,2.041835E1,1.8727951E1,3.3965782E1,4.4105535E0,1.6007797E1,6.146068E0,1.2581883E1,6.650008E0,2.7315773E1,4.1159477E0,1.1891849E1,1.5664319E1,1.1651454E1],"tree_param":{"num_deleted":"0","num_feature":"8","num_nodes":"17","size_leaf_vector":"0"}},{"base_weights":[-7.4886113E-1,-1.2075359E0,-3.9061323E-2,-1.3846397E0,-6.6955507E-1,-9.3087405E-1,6.024629E-1,-1.4670036E0,-9.467495E-1,1.2201882E-1,-1.0210329E0,-1.1486712E0,-4.8026764E-1,2.9400638E-1,1.1494466E0,-5.1145875E-1,-1.2235676E0,-1.3226246E0,-4.9078372E-1,-1.3582879E0,-6.7780155E-1,-2.5090212E-1,6.152981E-1],"categories":[],"categories_nodes":[],"categories_segments":[],"categories_sizes":[],"default_left":[1,1,1,1,1,1,1,1,1,0,1,1,0,1,0,1,1,0,0,1,1,0,0],"id":6,"left_children":[1,3,5,-1,9,11,13,-1,-1,-1,17,-1,-1,21,-1,-1,-1,-1,-1,-1,-1,-1,-1],"loss_changes":[3.289587E1,4.926079E0,2.3876688E1,2.4414825E-1,4.896531E0,1.1601725E0,3.763568E0,0E0,5.777054E-1,0E0,1.2673101E0,1.6902256E-1,0E0,3.1110473E0,0E0,0E0,0E0,0E0,0E0,0E0,0E0,0E0,0E0],"parents":[2147483647,0,0,1,1,2,2,3,3,4,4,5,5,6,6,8,8,10,10,11,11,13,13],"right_children":[2,4,6,-1,10,12,14,-1,-1,-1,18,-1,-1,22,-1,-1,-1,-1,-1,-1,-1,-1,-1],"split_conditions":[2.9761583E-1,1.5133966E1,2.2033995E-1,-6.923199E-2,6.776203E-2,5.703816E-1,2.9880044E-1,-7.335018E-2,-4.7337476E-2,6.100941E-3,4.0482903E0,-5.7433557E-2,-2.4013383E-2,4.7318697E-1,5.747233E-2,-2.5572939E-2,-6.1178382E-2,-6.613123E-2,-2.4539186E-2,-6.79144E-2,-3.389008E-2,-1.2545106E-2,3.0764906E-2],"split_indices":[2,0,7,4,2,6,7,2147483647,2147483647,0,1,0,0,6,0,2147483647,2147483647,0,0,2147483647,2147483647,0,0],"split_type":[0,0,0,0,0,0,0,0,0,0,0,0,0,0,0,0,0,0,0,0,0,0,0],"sum_hessian":[1.00186775E2,6.04333E1,3.975347E1,4.4281807E1,1.6151493E1,1.6443558E1,2.3309914E1,3.529315E1,8.988653E0,5.1671343E0,1.098436E1,1.0041026E1,6.402532E0,1.5887941E1,7.421973E0,4.6011906E0,4.3874626E0,6.049262E0,4.935097E0,5.643825E0,4.397201E0,5.9743733E0,9.913568E0],"tree_param":{"num_deleted":"6","num_feature":"8","num_nodes":"23","size_leaf_vector":"0"}},{"base_weights":[-7.274659E-1,-1.1784413E0,-1.2446885E-1,-4.7905776E-1,-1.3040464E0,-7.366262E-1,6.3008434E-1,-1.3400226E0,4.3738854E-1,-1.3868427E0,-5.8580303E-1,-9.342343E-1,-3.25327E-3,1.2661086E-1,1.0669882E0,-1.4333115E0,-7.7217025E-1,-1.0645185E0,-3.7973318E-1,-4.7498646E-1,7.645992E-1],"categories":[],"categories_nodes":[],"categories_segments":[],"categories_sizes":[],"default_left":[1,1,1,1,1,1,1,0,0,1,0,1,0,1,0,1,1,0,0,0,0],"id":7,"left_children":[1,3,5,7,9,11,13,-1,-1,-1,-1,17,-1,19,-1,-1,-1,-1,-1,-1,-1],"loss_changes":[2.6796719E1,4.3444214E0,2.0562841E1,8.628839E0,2.0047302E0,3.5451622E0,4.2705035E0,0E0,0E0,8.552551E-2,0E0,9.887943E-1,0E0,4.3701944E0,0E0,0E0,0E0,0E0,0E0,0E0,0E0],"parents":[2147483647,0,0,1,1,2,2,3,3,4,4,5,5,6,6,9,9,11,11,13,13],"right_children":[2,4,6,8,10,12,14,-1,-1,-1,-1,18,-1,20,-1,-1,-1,-1,-1,-1,-1],"split_conditions":[2.9927897E-1,6.0545936E-2,2.3802707E-1,1.2956687E1,3.9620457E0,1.1462894E2,9.111329E1,-6.700113E-2,2.1869427E-2,-6.934214E-2,-2.9290153E-2,2.1897322E-1,-1.626635E-4,2.941118E-1,5.3349413E-2,-7.166558E-2,-3.8608514E-2,-5.3225923E-2,-1.898666E-2,-2.3749324E-2,3.822996E-2],"split_indices":[2,6,7,4,1,3,3,0,0,7,0,7,0,7,0,2147483647,2147483647,0,0,0,0],"split_type":[0,0,0,0,0,0,0,0,0,0,0,0,0,0,0,0,0,0,0,0,0],"sum_hessian":[9.807989E1,5.556729E1,4.2512596E1,9.193153E0,4.6374138E1,2.348412E1,1.9028479E1,4.5017753E0,4.6913786E0,4.0746124E1,5.6280136E0,1.8283623E1,5.2004967E0,9.44002E0,9.588458E0,3.6643963E1,4.1021643E0,1.4060205E1,4.223417E0,4.9900336E0,4.449986E0],"tree_param":{"num_deleted":"2","num_feature":"8","num_nodes":"21","size_leaf_vector":"0"}},{"base_weights":[-6.3679177E-1,-9.8416024E-1,6.993345E-2,-1.3356552E0,-7.821322E-1,-2.8122056E-1,6.091074E-1,1.9653225E-1,-9.142633E-1,-7.208741E-2,-9.260104E-1,9.556477E-1,6.332845E-2,2.7987036E-1,-1.0613205E0,-6.263374E-1,2.7160248E-1],"categories":[],"categories_nodes":[],"categories_segments":[],"categories_sizes":[],"default_left":[1,1,1,0,1,1,1,0,1,1,0,0,0,0,0,0,0],"id":8,"left_children":[1,3,5,-1,7,9,11,-1,13,15,-1,-1,-1,-1,-1,-1,-1],"loss_changes":[2.4738888E1,3.7443848E0,6.6180525E0,0E0,6.029724E0,2.806012E0,2.5391698E0,0E0,7.3274765E0,3.4410672E0,0E0,0E0,0E0,0E0,0E0,0E0,0E0],"parents":[2147483647,0,0,1,1,2,2,4,4,5,5,6,6,8,8,9,9],"right_children":[2,4,6,-1,8,10,12,-1,14,16,-1,-1,-1,-1,-1,-1,-1],"split_conditions":[3.6693704E-1,1.7486842E0,9.984146E1,-6.6782765E-2,1.0047424E1,6.310681E-1,1.2526044E2,9.826613E-3,4.4029634E-2,2.3149025E1,-4.630052E-2,4.7782388E-2,3.1664227E-3,1.3993518E-2,-5.3066026E-2,-3.1316873E-2,1.3580124E-2],"split_indices":[2,1,3,0,0,6,3,0,2,0,0,0,0,0,0,0,0],"split_type":[0,0,0,0,0,0,0,0,0,0,0,0,0,0,0,0,0],"sum_hessian":[9.94913E1,6.644156E1,3.3049744E1,2.220211E1,4.423945E1,2.0304276E1,1.2745468E1,5.2043376E0,3.903511E1,1.617115E1,4.1331244E0,7.336263E0,5.4092054E0,4.1810107E0,3.48541E1,5.8748517E0,1.0296299E1],"tree_param":{"num_deleted":"0","num_feature":"8","num_nodes":"17","size_leaf_vector":"0"}},{"base_weights":[-6.682199E-1,-1.1083988E0,-4.588357E-2,-3.411347E-1,-1.2023381E0,-9.214032E-1,5.5910635E-1,-1.2888618E0,-1.567686E-1,-4.5634755E-1,-1.0828862E0,2.7195928E-1,1.0326217E0,1.0063031E0,-6.035124E-2],"categories":[],"categories_nodes":[],"categories_segments":[],"categories_sizes":[],"default_left":[1,1,1,0,1,1,1,0,0,0,0,1,0,0,0],"id":9,"left_children":[1,3,5,-1,7,9,11,-1,-1,-1,-1,13,-1,-1,-1],"loss_changes":[2.716777E1,3.7812881E0,2.2870983E1,0E0,4.4491653E0,8.293381E-1,3.1973877E0,0E0,0E0,0E0,0E0,4.278158E0,0E0,0E0,0E0],"parents":[2147483647,0,0,1,1,2,2,4,4,5,5,6,6,11,11],"right_children":[2,4,6,-1,8,10,12,-1,-1,-1,-1,14,-1,-1,-1],"split_conditions":[2.9849797E-1,4.278774E-2,2.193031E-1,-1.7056735E-2,3.7922817E-1,4.2164633E-1,2.9880044E-1,-6.444309E-2,-7.838431E-3,-2.2817379E-2,-5.414431E-2,1.8212797E1,5.163109E-2,5.0315153E-2,-3.0175622E-3],"split_indices":[2,2,7,0,7,2,7,0,0,0,0,0,0,0,0],"split_type":[0,0,0,0,0,0,0,0,0,0,0,0,0,0,0],"sum_hessian":[9.836026E1,5.7154057E1,4.12062E1,6.7395716E0,5.0414486E1,1.6624662E1,2.4581537E1,4.634646E1,4.0680265E0,5.270994E0,1.1353668E1,1.6282204E1,8.299335E0,4.440806E0,1.1841397E1],"tree_param":{"num_deleted":"0","num_feature":"8","num_nodes":"15","size_leaf_vector":"0"}},{"base_weights":[-6.7291677E-1,-9.7694683E-1,1.6731955E-2,-4.5806646E-1,-1.0551245E0,9.2319524E-1,-1.680055E-1,-1.0051256E0,3.175108E-1,-1.2291954E0,-7.379375E-1,-3.8900143E-1,5.263971E-1,-5.860808E-1,-1.3391066E0,9.591997E-2,-1.0107965E0,-9.832731E-2,-9.055099E-1],"categories":[],"categories_nodes":[],"categories_segments":[],"categories_sizes":[],"default_left":[1,1,1,1,1,0,1,0,0,1,1,1,0,0,0,0,0,0,0],"id":10,"left_children":[1,3,5,7,9,-1,11,-1,-1,13,15,17,-1,-1,-1,-1,-1,-1,-1],"loss_changes":[2.0456207E1,2.261795E0,5.314454E0,4.8286676E0,2.2977142E0,0E0,4.262195E0,0E0,0E0,1.7580452E0,5.346016E0,3.0084639E0,0E0,0E0,0E0,0E0,0E0,0E0,0E0],"parents":[2147483647,0,0,1,1,2,2,3,3,4,4,6,6,9,9,10,10,11,11],"right_children":[2,4,6,8,10,-1,12,-1,-1,14,16,18,-1,-1,-1,-1,-1,-1,-1],"split_conditions":[6.4318533E0,6.0545936E-2,7.075222E0,1.2565776E1,1.9295521E-1,4.6159763E-2,8.912596E-1,-5.0256282E-2,1.587554E-2,8.083347E0,7.261771E1,6.045615E-1,2.6319856E-2,-2.930404E-2,-6.695533E-2,4.7959983E-3,-5.053983E-2,-4.9163657E-3,-4.5275494E-2],"split_indices":[5,6,1,4,6,0,6,0,0,0,3,6,0,0,0,0,0,0,0],"split_type":[0,0,0,0,0,0,0,0,0,0,0,0,0,0,0,0,0,0,0],"sum_hessian":[9.6483795E1,6.667414E1,2.9809652E1,9.628415E0,5.7045727E1,4.3700037E0,2.543965E1,5.4724646E0,4.1559505E0,3.497573E1,2.2069996E1,1.9631678E1,5.8079705E0,6.0293665E0,2.8946363E1,5.6011524E0,1.6468843E1,1.3323893E1,6.307786E0],"tree_param":{"num_deleted":"0","num_feature":"8","num_nodes":"19","size_leaf_vector":"0"}},{"base_weights":[-6.3215834E-1,-1.051054E0,-2.699198E-1,-1.249821E0,-7.0883393E-1,-9.4011813E-1,1.23093955E-1,-6.0483977E-2,-8.860758E-1,-3.1227586E-1,-1.1269149E0,-2.3525083E-1,4.55525E-1,-1.277275E0,-4.4663867E-1,4.7711316E-1,-8.762395E-1,-2.2336872E-1,7.638989E-1],"categories":[],"categories_nodes":[],"categories_segments":[],"categories_sizes":[],"default_left":[1,1,1,0,1,1,1,0,1,0,0,1,1,0,0,0,0,0,0],"id":11,"left_children":[1,3,5,-1,7,9,11,-1,13,-1,-1,15,17,-1,-1,-1,-1,-1,-1],"loss_changes":[1.4285648E1,2.1192055E0,1.4032482E1,0E0,2.0772E0,1.9521179E0,4.1799555E0,0E0,1.9201345E0,0E0,0E0,8.232022E0,3.9550295E0,0E0,0E0,0E0,0E0,0E0,0E0],"parents":[2147483647,0,0,1,1,2,2,4,4,5,5,6,6,8,8,11,11,12,12],"right_children":[2,4,6,-1,8,10,12,-1,14,-1,-1,16,18,-1,-1,-1,-1,-1,-1],"split_conditions":[2.9615293E0,1.9669019E0,2.0779493E-1,-6.2491048E-2,1.1671675E1,1.6335218E1,6.3588915E0,-3.0241988E-3,1.5341467E1,-1.5613793E-2,-5.6345742E-2,1.4711161E1,2.3829904E-1,-6.386375E-2,-2.2331934E-2,2.3855658E-2,-4.3811973E-2,-1.1168436E-2,3.8194947E-2],"split_indices":[1,5,7,0,4,0,5,0,4,0,0,4,7,0,0,0,0,0,0],"split_type":[0,0,0,0,0,0,0,0,0,0,0,0,0,0,0,0,0,0,0],"sum_hessian":[9.501557E1,4.318008E1,5.1835495E1,2.5637283E1,1.7542795E1,1.8646336E1,3.318916E1,4.0541744E0,1.3488621E1,4.888295E0,1.375804E1,1.6112661E1,1.7076498E1,6.127246E0,7.361375E0,7.7524943E0,8.3601675E0,5.41991E0,1.1656589E1],"tree_param":{"num_deleted":"0","num_feature":"8","num_nodes":"19","size_leaf_vector":"0"}},{"base_weights":[-6.060289E-1,-8.791808E-1,2.9961126E-2,-1.2614143E0,-6.663909E-1,-8.1238294E-1,4.1707286E-1,-9.269561E-1,-3.7413433E-1,-8.3762616E-2,1.0410529E0,-1.1189198E-1,-1.1098047E0,2.3457633E-1,-8.0617946E-1,-6.573451E-1,8.3928585E-1],"categories":[],"categories_nodes":[],"categories_segments":[],"categories_sizes":[],"default_left":[1,1,1,0,1,0,1,1,1,1,0,0,0,0,0,0,0],"id":12,"left_children":[1,3,5,-1,7,-1,9,11,13,15,-1,-1,-1,-1,-1,-1,-1],"loss_changes":[1.6209034E1,4.4622116E0,9.7803955E0,0E0,3.003975E0,0E0,6.493332E0,3.241743E0,6.0845127E0,7.0622416E0,0E0,0E0,0E0,0E0,0E0,0E0,0E0],"parents":[2147483647,0,0,1,1,2,2,4,4,6,6,7,7,8,8,9,9],"right_children":[2,4,6,-1,8,-1,10,12,14,16,-1,-1,-1,-1,-1,-1,-1],"split_conditions":[6.4318533E0,1.8787444E0,2.0779493E-1,-6.3070714E-2,2.4657995E-1,-4.0619146E-2,9.927931E1,9.223217E0,1.4711161E1,2.682514E-1,5.2052647E-2,-5.594599E-3,-5.5490237E-2,1.1728817E-2,-4.0308975E-2,-3.2867257E-2,4.1964293E-2],"split_indices":[5,5,7,0,7,0,3,0,4,7,0,0,0,0,0,0,0],"split_type":[0,0,0,0,0,0,0,0,0,0,0,0,0,0,0,0,0],"sum_hessian":[9.215265E1,6.419793E1,2.7954721E1,2.1195795E1,4.3002132E1,8.456001E0,1.949872E1,2.1585447E1,2.1416685E1,1.1296947E1,8.201775E0,4.250531E0,1.7334917E1,9.0803175E0,1.2336368E1,7.1449695E0,4.151977E0],"tree_param":{"num_deleted":"0","num_feature":"8","num_nodes":"17","size_leaf_vector":"0"}},{"base_weights":[-5.495746E-1,-7.555492E-1,2.1700327E-1,-9.891717E-1,-4.458714E-1,8.044453E-1,-1.2394084E-1,-1.1083549E0,-4.7298387E-1,-1.2939453E-1,-6.853132E-1,-6.459541E-1,6.0336E-1,-6.911747E-1,-1.2252413E0,1.4485013E-1,-1.0383952E0,1.322083E-1,-5.3694206E-1,-9.163367E-1,3.525346E-2],"categories":[],"categories_nodes":[],"categories_segments":[],"categories_sizes":[],"default_left":[1,1,1,1,1,0,1,1,1,1,1,0,0,0,0,0,0,0,0,0,0],"id":13,"left_children":[1,3,5,7,9,-1,11,13,15,17,19,-1,-1,-1,-1,-1,-1,-1,-1,-1,-1],"loss_changes":[1.5484871E1,5.1082993E0,4.371203E0,2.1149673E0,2.5486774E0,0E0,5.8421273E0,8.1627655E-1,3.5710282E0,1.8006909E0,3.291916E0,0E0,0E0,0E0,0E0,0E0,0E0,0E0,0E0,0E0,0E0],"parents":[2147483647,0,0,1,1,2,2,3,3,4,4,6,6,7,7,8,8,9,9,10,10],"right_children":[2,4,6,8,10,-1,12,14,16,18,20,-1,-1,-1,-1,-1,-1,-1,-1,-1,-1],"split_conditions":[4.9603152E-1,2.9615293E0,6.306261E-1,1.5289576E1,4.8352575E0,4.022227E-2,8.935149E-1,8.316227E0,3.0325274E0,9.6404495E1,1.107327E2,-3.2297704E-2,3.0168E-2,-3.4558736E-2,-6.1262067E-2,7.242507E-3,-5.191976E-2,6.6104154E-3,-2.6847104E-2,-4.5816835E-2,1.7626731E-3],"split_indices":[6,1,6,4,5,0,6,0,5,3,3,0,0,0,0,0,0,0,0,0,0],"split_type":[0,0,0,0,0,0,0,0,0,0,0,0,0,0,0,0,0,0,0,0,0],"sum_hessian":[9.603175E1,7.57048E1,2.0326946E1,4.1900497E1,3.3804306E1,6.9657454E0,1.3361201E1,3.31087E1,8.791797E0,1.522354E1,1.8580767E1,7.8435116E0,5.517689E0,8.759332E0,2.434937E1,4.55653E0,4.235267E0,9.683332E0,5.5402083E0,1.3864121E1,4.716646E0],"tree_param":{"num_deleted":"0","num_feature":"8","num_nodes":"21","size_leaf_vector":"0"}},{"base_weights":[-5.4444915E-1,-9.354684E-1,-1.01701215E-1,-1.001134E0,-2.3016834E-1,-2.1837692E-1,5.561015E-1,-1.0721222E0,-5.1164836E-1,-3.975341E-2,-8.3623E-1,-3.9759496E-1,-1.141585E0,-3.706061E-1,7.299366E-1],"categories":[],"categories_nodes":[],"categories_segments":[],"categories_sizes":[],"default_left":[1,1,1,1,0,1,0,1,0,1,0,0,0,0,0],"id":14,"left_children":[1,3,5,7,-1,9,-1,11,-1,13,-1,-1,-1,-1,-1],"loss_changes":[1.6380272E1,2.104351E0,3.6329477E0,1.0435333E0,0E0,4.334705E0,0E0,1.3782501E0,0E0,8.356332E0,0E0,0E0,0E0,0E0,0E0],"parents":[2147483647,0,0,1,1,2,2,3,3,5,5,7,7,9,9],"right_children":[2,4,6,8,-1,10,-1,12,-1,14,-1,-1,-1,-1,-1],"split_conditions":[2.4455166E-1,1.8276127E1,8.935149E-1,3.7874177E0,-1.1508417E-2,6.287662E-1,2.7805075E-2,7.8294497E0,-2.5582418E-2,4.7305644E-1,-4.18115E-2,-1.9879749E-2,-5.707925E-2,-1.8530305E-2,3.649683E-2],"split_indices":[6,4,6,1,0,6,0,4,0,6,0,0,0,0,0],"split_type":[0,0,0,0,0,0,0,0,0,0,0,0,0,0,0],"sum_hessian":[9.416625E1,4.9413246E1,4.4753006E1,4.4820774E1,4.5924697E0,3.857838E1,6.1746235E0,3.810426E1,6.716517E0,3.0752228E1,7.826155E0,4.1854515E0,3.3918808E1,2.1869951E1,8.882275E0],"tree_param":{"num_deleted":"0","num_feature":"8","num_nodes":"15","size_leaf_vector":"0"}},{"base_weights":[-5.780429E-1,-9.5327914E-1,-7.5516485E-2,-3.885478E-1,-1.107171E0,-3.7764874E-1,1.1586542E0,-7.7332467E-1,2.5993553E-1,-5.915118E-1,-1.1934143E0,-7.513989E-1,2.5621003E-2,-1.2977278E0,-5.306287E-1,-1.0151963E0,-4.5338547E-1,-2.6837224E-1,7.6505256E-1],"categories":[],"categories_nodes":[],"categories_segments":[],"categories_sizes":[],"default_left":[1,1,1,1,1,1,0,0,0,0,1,1,1,0,0,0,0,0,0],"id":15,"left_children":[1,3,5,7,9,11,-1,-1,-1,-1,13,15,17,-1,-1,-1,-1,-1,-1],"loss_changes":[1.7197605E1,4.119049E0,1.5441397E1,3.382605E0,1.0993767E0,5.004955E0,0E0,0E0,0E0,0E0,1.6478844E0,8.9188385E-1,3.8743927E0,0E0,0E0,0E0,0E0,0E0,0E0],"parents":[2147483647,0,0,1,1,2,2,3,3,4,4,5,5,10,10,11,11,12,12],"right_children":[2,4,6,8,10,12,-1,-1,-1,-1,14,16,18,-1,-1,-1,-1,-1,-1],"split_conditions":[2.9761583E-1,6.189361E-2,2.9880044E-1,1.505258E1,8.386183E0,2.193031E-1,5.7932712E-2,-3.8666233E-2,1.2996777E-2,-2.957559E-2,3.9620457E0,1.7186135E-1,7.557111E-1,-6.488639E-2,-2.6531434E-2,-5.075982E-2,-2.2669274E-2,-1.3418612E-2,3.825263E-2],"split_indices":[2,2,7,0,0,7,0,0,0,0,1,7,6,0,0,0,0,0,0],"split_type":[0,0,0,0,0,0,0,0,0,0,0,0,0,0,0,0,0,0,0],"sum_hessian":[9.058403E1,5.1346527E1,3.92375E1,1.17506695E1,3.959586E1,3.2078533E1,7.1589675E0,7.2540507E0,4.4966187E0,6.7995744E0,3.2796284E1,1.6200644E1,1.587789E1,2.7508718E1,5.2875657E0,7.3170114E0,8.883631E0,1.1816653E1,4.061237E0],"tree_param":{"num_deleted":"0","num_feature":"8","num_nodes":"19","size_leaf_vector":"0"}},{"base_weights":[-5.094614E-1,-7.5335085E-1,2.6769793E-2,-9.2248464E-1,-4.4508454E-1,-6.6440487E-1,3.891887E-1,-1.0269881E0,-4.508668E-1,-7.632576E-2,-8.7923074E-1,-3.6149105E-1,-8.3103245E-1,-3.3863902E-2,9.692395E-1,-7.316261E-1,-1.2854706E0,-4.8824805E-1,5.0076896E-1,-3.308754E-1,-1.2790267E0,-6.606276E-1,7.60324E-1],"categories":[],"categories_nodes":[],"categories_segments":[],"categories_sizes":[],"default_left":[1,1,1,1,1,1,1,1,0,1,1,1,1,1,0,0,0,0,0,0,0,0,0],"id":16,"left_children":[1,3,5,7,9,-1,13,15,-1,17,19,-1,-1,21,-1,-1,-1,-1,-1,-1,-1,-1,-1],"loss_changes":[1.2065695E1,2.8919907E0,7.713336E0,1.5068398E0,3.8350034E0,2.3487282E-1,4.9784555E0,1.4976845E0,0E0,3.6378326E0,2.0100412E0,0E0,0E0,6.784253E0,0E0,0E0,0E0,0E0,0E0,0E0,0E0,0E0,0E0],"parents":[2147483647,0,0,1,1,2,2,3,3,4,4,5,5,6,6,7,7,9,9,10,10,13,13],"right_children":[2,4,6,8,10,-1,14,16,-1,18,20,-1,-1,22,-1,-1,-1,-1,-1,-1,-1,-1,-1],"split_conditions":[6.4318533E0,2.999819E0,2.0733449E-1,1.5289576E1,1.4981249E1,-3.3220243E-2,9.92105E1,1.0950197E1,-2.2543339E-2,1.3161919E1,2.5764006E-1,-1.8074553E-2,-4.1551623E-2,2.682514E-1,4.8461974E-2,-3.6581304E-2,-6.427353E-2,-2.4412403E-2,2.503845E-2,-1.654377E-2,-6.3951336E-2,-3.303138E-2,3.80162E-2],"split_indices":[5,1,7,4,4,4,3,4,0,4,7,2147483647,2147483647,7,0,0,0,0,0,0,0,0,0],"split_type":[0,0,0,0,0,0,0,0,0,0,0,0,0,0,0,0,0,0,0,0,0,0,0],"sum_hessian":[9.110417E1,6.2343983E1,2.8760187E1,3.8969997E1,2.3373987E1,9.60636E0,1.9153826E1,3.0937101E1,8.032894E0,1.327461E1,1.0099379E1,4.5338984E0,5.0724616E0,1.1620267E1,7.53356E0,1.6226318E1,1.4710783E1,7.8356624E0,5.4389467E0,5.0291686E0,5.07021E0,6.588743E0,5.031523E0],"tree_param":{"num_deleted":"2","num_feature":"8","num_nodes":"23","size_leaf_vector":"0"}},{"base_weights":[-5.182714E-1,-8.255905E-1,-1.6821568E-1,-7.580038E-2,-8.9192593E-1,-2.929074E-1,8.210552E-1,-4.7189325E-1,-1.004519E0,3.842068E-2,-5.7607454E-1,-3.629802E-2,-9.389432E-1,-1.1046038E0,-3.5989857E-1,3.875363E-1,-2.610029E-1,-1.1095448E0,-3.3564678E-1],"categories":[],"categories_nodes":[],"categories_segments":[],"categories_sizes":[],"default_left":[1,1,1,0,1,1,0,1,1,1,1,0,0,0,0,0,0,0,0],"id":17,"left_children":[1,3,5,-1,7,9,-1,11,13,15,17,-1,-1,-1,-1,-1,-1,-1,-1],"loss_changes":[9.645885E0,2.328598E0,5.6405115E0,0E0,1.6147804E0,3.738774E0,0E0,2.2491465E0,1.7924652E0,2.1073525E0,2.3751025E0,0E0,0E0,0E0,0E0,0E0,0E0,0E0,0E0],"parents":[2147483647,0,0,1,1,2,2,4,4,5,5,7,7,8,8,9,9,10,10],"right_children":[2,4,6,-1,8,10,-1,12,14,16,18,-1,-1,-1,-1,-1,-1,-1,-1],"split_conditions":[2.4455166E-1,3.4411106E-2,9.312645E-1,-3.790019E-3,8.856993E0,1.8963028E1,4.105276E-2,1.4716739E2,4.5990095E0,5.1708193E0,2.1323446E1,-1.8149011E-3,-4.6947163E-2,-5.523019E-2,-1.799493E-2,1.9376814E-2,-1.30501455E-2,-5.547724E-2,-1.678234E-2],"split_indices":[6,6,6,0,0,4,0,3,1,1,4,0,0,0,0,0,0,0,0],"split_type":[0,0,0,0,0,0,0,0,0,0,0,0,0,0,0,0,0,0,0],"sum_hessian":[8.995484E1,4.7177982E1,4.2776855E1,4.008889E0,4.3169094E1,3.8613785E1,4.163071E0,1.0223082E1,3.294601E1,1.8191927E1,2.0421858E1,5.8473563E0,4.3757257E0,2.7900486E1,5.0455256E0,8.263231E0,9.928697E0,5.2213798E0,1.5200478E1],"tree_param":{"num_deleted":"0","num_feature":"8","num_nodes":"19","size_leaf_vector":"0"}},{"base_weights":[-5.1874703E-1,-8.367665E-1,-1.04956955E-1,-9.020966E-1,-1.4239001E-1,-5.2431405E-1,4.370992E-1,-5.088554E-1,-9.893702E-1,-3.546143E-3,-6.6781694E-1,7.076903E-1,-9.4710715E-2,-8.7033135E-1,7.569927E-2,-1.0449367E0,-4.1408876E-1,-8.9357924E-1,-1.20316304E-1,1.4859754E-1,1.1446435E0],"categories":[],"categories_nodes":[],"categories_segments":[],"categories_sizes":[],"default_left":[1,1,1,1,0,1,1,1,1,0,1,1,0,0,0,0,0,0,0,0,0],"id":18,"left_children":[1,3,5,7,-1,9,11,13,15,-1,17,19,-1,-1,-1,-1,-1,-1,-1,-1,-1],"loss_changes":[1.2153374E1,2.2510529E0,9.678273E0,1.1354675E0,0E0,1.78304E0,2.7547176E0,2.3338141E0,7.8271484E-1,0E0,2.2069035E0,2.882739E0,0E0,0E0,0E0,0E0,0E0,0E0,0E0,0E0,0E0],"parents":[2147483647,0,0,1,1,2,2,3,3,5,5,6,6,7,7,8,8,10,10,11,11],"right_children":[2,4,6,8,-1,10,12,14,16,-1,18,20,-1,-1,-1,-1,-1,-1,-1,-1,-1],"split_conditions":[2.9849797E-1,1.8949871E1,2.4429692E-1,8.371742E0,-7.1195005E-3,7.0587606E0,2.6764904E1,6.9474087E0,3.8292747E0,-1.7730716E-4,1.3837636E1,6.3588915E0,-4.735536E-3,-4.351657E-2,3.7849636E-3,-5.2246835E-2,-2.0704439E-2,-4.4678964E-2,-6.0158153E-3,7.429877E-3,5.723218E-2],"split_indices":[2,0,7,0,0,1,0,0,1,0,1,5,0,0,0,0,0,0,0,0,0],"split_type":[0,0,0,0,0,0,0,0,0,0,0,0,0,0,0,0,0,0,0,0,0],"sum_hessian":[9.202332E1,5.1455067E1,4.0568256E1,4.675676E1,4.698307E0,2.2891369E1,1.7676888E1,9.732914E0,3.7023846E1,5.1666827E0,1.7724686E1,1.1496637E1,6.1802506E0,5.7119646E0,4.0209494E0,3.3018147E1,4.0057E0,1.2102154E1,5.622532E0,5.6313596E0,5.8652773E0],"tree_param":{"num_deleted":"0","num_feature":"8","num_nodes":"21","size_leaf_vector":"0"}},{"base_weights":[-5.04358E-1,-9.5003873E-1,-2.2284028E-1,-4.6246517E-1,-1.1107887E0,-5.5029005E-1,8.101546E-2,-9.011139E-1,6.4325375E-3,4.3044603E-1,-8.341907E-1,8.724784E-1,-1.531622E-1,-5.9307504E-1,-1.0421567E0,-4.302822E-1,3.1559888E-1],"categories":[],"categories_nodes":[],"categories_segments":[],"categories_sizes":[],"default_left":[1,1,1,1,0,1,1,0,0,0,1,0,1,1,1,0,0],"id":19,"left_children":[1,3,5,7,-1,9,11,-1,-1,-1,-1,-1,15,-1,-1,-1,-1],"loss_changes":[1.0842836E1,2.135559E0,5.5473504E0,2.0821102E0,0E0,7.8064785E0,5.6119876E0,0E0,0E0,0E0,4.3904495E-1,0E0,3.2092628E0,0E0,0E0,0E0,0E0],"parents":[2147483647,0,0,1,1,2,2,3,3,5,5,6,6,10,10,12,12],"right_children":[2,4,6,8,-1,10,12,-1,-1,-1,-1,-1,16,-1,-1,-1,-1],"split_conditions":[1.3215809E1,8.371742E0,3.6693704E-1,1.2962146E0,-5.5539437E-2,6.0131162E-2,4.553846E-1,-4.50557E-2,3.2162687E-4,2.1522302E-2,-4.170954E-2,4.362392E-2,9.984146E1,-2.9653752E-2,-5.2107837E-2,-2.151411E-2,1.5779944E-2],"split_indices":[4,0,2,5,0,2,2,0,0,0,4,0,3,2147483647,2147483647,0,0],"split_type":[0,0,0,0,0,0,0,0,0,0,0,0,0,0,0,0,0],"sum_hessian":[8.710766E1,3.2802296E1,5.4305367E1,9.094585E0,2.3707708E1,2.5747618E1,2.855775E1,4.222664E0,4.871921E0,5.6642118E0,2.0083405E1,5.898105E0,2.2659645E1,1.1084299E1,8.999106E0,1.4292478E1,8.367167E0],"tree_param":{"num_deleted":"2","num_feature":"8","num_nodes":"17","size_leaf_vector":"0"}},{"base_weights":[-4.5552856E-1,-8.0386055E-1,-1.7849512E-2,-9.100284E-1,1.8935136E-2,9.24877E-1,-2.0491806E-1,-3.6489752E-1,-1.0401672E0,-8.16141E-1,3.4810215E-2,-7.5245965E-1,1.350464E-1,-4.9626917E-1,-1.0971096E0,-2.4900608E-1,-1.2138628E0,2.9089582E-1,-2.5757605E-1],"categories":[],"categories_nodes":[],"categories_segments":[],"categories_sizes":[],"default_left":[1,1,1,1,0,0,1,1,1,1,1,0,0,1,1,0,0,0,0],"id":20,"left_children":[1,3,5,7,-1,-1,9,11,-1,15,17,-1,-1,-1,-1,-1,-1,-1,-1],"loss_changes":[1.3222553E1,4.238571E0,7.155482E0,2.658245E0,0E0,0E0,4.9778986E0,1.9991437E0,5.093498E-1,1.8533459E0,1.963404E0,0E0,0E0,0E0,0E0,0E0,0E0,0E0,0E0],"parents":[2147483647,0,0,1,1,2,2,3,3,6,6,7,7,8,8,9,9,10,10],"right_children":[2,4,6,8,-1,-1,10,12,-1,16,18,-1,-1,-1,-1,-1,-1,-1,-1],"split_conditions":[2.9761583E-1,1.8311018E1,1.4383865E1,6.237957E-2,9.4675686E-4,4.624385E-2,6.411502E0,1.2694494E1,-5.200836E-2,4.960873E0,2.7454926E1,-3.7622984E-2,6.7523196E-3,-2.4813458E-2,-5.4855477E-2,-1.2450304E-2,-6.069314E-2,1.4544792E-2,-1.2878803E-2],"split_indices":[2,0,0,2,0,0,5,4,0,5,0,0,0,2147483647,2147483647,0,0,0,0],"split_type":[0,0,0,0,0,0,0,0,0,0,0,0,0,0,0,0,0,0,0],"sum_hessian":[8.5823746E1,4.732379E1,3.8499954E1,4.182148E1,5.5023136E0,5.7216325E0,3.277832E1,8.793057E0,3.3028423E1,8.556928E0,2.4221394E1,4.6687794E0,4.124278E0,4.0509515E0,2.897747E1,4.197571E0,4.359357E0,1.2915052E1,1.1306341E1],"tree_param":{"num_deleted":"2","num_feature":"8","num_nodes":"19","size_leaf_vector":"0"}},{"base_weights":[-4.1011366E-1,-7.705798E-1,4.6662007E-2,-1.9728638E-1,-9.227278E-1,-7.464923E-1,4.4059694E-1,-7.907699E-1,3.851808E-1,-1.0224552E0,-6.076334E-1,-3.4117466E-1,-9.085221E-1,7.750229E-2,9.934868E-1,-2.1107414E-1,-7.9950464E-1,-3.739087E-1,5.4173625E-1],"categories":[],"categories_nodes":[],"categories_segments":[],"categories_sizes":[],"default_left":[1,1,1,1,1,1,1,0,0,0,1,1,1,1,0,0,0,0,0],"id":21,"left_children":[1,3,5,7,9,-1,13,-1,-1,-1,15,-1,-1,17,-1,-1,-1,-1,-1],"loss_changes":[1.4383693E1,4.0711384E0,1.2632592E1,4.279581E0,5.8098984E-1,5.7253885E-1,5.3310533E0,0E0,0E0,0E0,7.1866226E-1,0E0,0E0,3.8374515E0,0E0,0E0,0E0,0E0,0E0],"parents":[2147483647,0,0,1,1,2,2,3,3,4,4,5,5,6,6,10,10,13,13],"right_children":[2,4,6,8,10,-1,14,-1,-1,-1,16,-1,-1,18,-1,-1,-1,-1,-1],"split_conditions":[2.9761583E-1,6.1896473E-2,2.0779493E-1,1.7465286E0,1.5353394E1,-3.732462E-2,9.92105E1,-3.9538495E-2,1.9259041E-2,-5.1122762E-2,2.7012074E-1,-1.7058734E-2,-4.5426108E-2,2.6723048E-1,4.9674343E-2,-1.0553707E-2,-3.9975233E-2,-1.8695435E-2,2.7086813E-2],"split_indices":[2,2,7,5,4,2,3,0,0,0,7,2147483647,2147483647,7,0,0,0,0,0],"split_type":[0,0,0,0,0,0,0,0,0,0,0,0,0,0,0,0,0,0,0],"sum_hessian":[8.613945E1,4.7761444E1,3.8378006E1,1.0498836E1,3.7262608E1,1.2438685E1,2.593932E1,5.0231485E0,5.4756875E0,2.6598955E1,1.0663652E1,4.439418E0,7.9992676E0,1.6345287E1,9.594033E0,4.161992E0,6.5016603E0,8.385687E0,7.9595995E0],"tree_param":{"num_deleted":"2","num_feature":"8","num_nodes":"19","size_leaf_vector":"0"}},{"base_weights":[-4.2010283E-1,-8.310152E-1,-1.8388036E-1,-9.782616E-1,-1.3664295E-1,8.0506444E-1,-2.7629176E-1,-1.1155319E0,-5.7865256E-1,-6.664886E-1,-1.3075364E-3,-1.2490916E-1,-7.8887343E-1,9.8452973E-1,-2.0963667E-1],"categories":[],"categories_nodes":[],"categories_segments":[],"categories_sizes":[],"default_left":[1,1,1,1,0,0,1,0,0,1,1,0,0,0,0],"id":22,"left_children":[1,3,5,7,-1,-1,9,-1,-1,11,13,-1,-1,-1,-1],"loss_changes":[8.232039E0,3.0611763E0,5.352559E0,7.597008E-1,0E0,0E0,5.587407E0,0E0,0E0,1.3283577E0,6.686785E0,0E0,0E0,0E0,0E0],"parents":[2147483647,0,0,1,1,2,2,3,3,6,6,9,9,10,10],"right_children":[2,4,6,8,-1,-1,10,-1,-1,12,14,-1,-1,-1,-1],"split_conditions":[1.3215809E1,2.8643972E-1,6.0545936E-2,1.17400826E2,-6.8321475E-3,4.0253222E-2,3.565998E-1,-5.5776596E-2,-2.893263E-2,8.265875E-2,4.177906E-1,-6.245458E-3,-3.944367E-2,4.922649E-2,-1.04818335E-2],"split_indices":[4,2,6,3,0,0,2,0,0,2,2,0,0,0,0],"split_type":[0,0,0,0,0,0,0,0,0,0,0,0,0,0,0],"sum_hessian":[8.538279E1,3.0247932E1,5.5134857E1,2.4618498E1,5.629435E0,4.052676E0,5.108218E1,1.699041E1,7.6280875E0,2.0528606E1,3.0553576E1,4.15645E0,1.6372156E1,4.6802096E0,2.5873367E1],"tree_param":{"num_deleted":"0","num_feature":"8","num_nodes":"15","size_leaf_vector":"0"}},{"base_weights":[-4.0968242E-1,-7.701557E-1,-1.4782576E-3,-2.5597042E-1,-9.10357E-1,9.209224E-1,-1.5706211E-1,-5.845688E-1,1.0814502E-1,-1.029126E0,-5.8769584E-1,-2.9651767E-1,5.1866996E-1,-4.429351E-1,-1.161841E0,-2.1967467E-2,-9.4028854E-1,-1.03530765E-1,-8.410521E-1],"categories":[],"categories_nodes":[],"categories_segments":[],"categories_sizes":[],"default_left":[1,1,1,1,1,0,1,0,0,1,1,1,0,0,0,0,0,0,0],"id":23,"left_children":[1,3,5,7,9,-1,11,-1,-1,13,15,17,-1,-1,-1,-1,-1,-1,-1],"loss_changes":[1.2444614E1,3.004774E0,5.9806633E0,1.3810523E0,7.32563E-1,0E0,3.5133798E0,0E0,0E0,1.3663177E0,2.3174186E0,3.0853577E0,0E0,0E0,0E0,0E0,0E0,0E0,0E0],"parents":[2147483647,0,0,1,1,2,2,3,3,4,4,6,6,9,9,10,10,11,11],"right_children":[2,4,6,8,10,-1,12,-1,-1,14,16,18,-1,-1,-1,-1,-1,-1,-1],"split_conditions":[2.9761583E-1,6.1896473E-2,1.3630339E1,1.3078341E1,1.5231186E1,4.604612E-2,8.935149E-1,-2.922844E-2,5.407251E-3,8.386183E0,1.7235235E1,6.550529E-1,2.5933499E-2,-2.2146756E-2,-5.8092054E-2,-1.0983733E-3,-4.7014426E-2,-5.176538E-3,-4.2052608E-2],"split_indices":[2,2,0,4,4,0,6,0,0,0,4,6,0,0,0,0,0,0,0],"split_type":[0,0,0,0,0,0,0,0,0,0,0,0,0,0,0,0,0,0,0],"sum_hessian":[8.358082E1,4.3914433E1,3.9666386E1,1.0014083E1,3.390035E1,5.014971E0,3.4651413E1,4.94559E0,5.068493E0,2.3178776E1,1.0721574E1,2.9188784E1,5.462629E0,5.0797606E0,1.8099016E1,4.524517E0,6.197057E0,2.2429743E1,6.7590423E0],"tree_param":{"num_deleted":"0","num_feature":"8","num_nodes":"19","size_leaf_vector":"0"}},{"base_weights":[-3.519555E-1,-6.99579E-1,1.0298275E-2,-7.9287875E-1,3.9641555E-2,-2.2387658E-1,8.532604E-1,-9.4395965E-2,-8.939076E-1,7.3759604E-1,-3.8408086E-1,4.9716997E-1,1.0479225E0,-1.0549742E0,-5.163134E-1,-5.526567E-1,4.6595174E-1],"categories":[],"categories_nodes":[],"categories_segments":[],"categories_sizes":[],"default_left":[1,1,1,1,0,1,1,0,1,0,1,1,1,0,0,0,0],"id":24,"left_children":[1,3,5,7,-1,9,-1,-1,13,-1,15,-1,-1,-1,-1,-1,-1],"loss_changes":[1.0354106E1,2.9242897E0,8.328149E0,2.5470715E0,0E0,5.37429E0,1.14537716E-1,0E0,1.4294014E0,0E0,4.411442E0,0E0,0E0,0E0,0E0,0E0,0E0],"parents":[2147483647,0,0,1,1,2,2,3,3,5,5,6,6,8,8,10,10],"right_children":[2,4,6,8,-1,10,-1,-1,14,-1,16,-1,-1,-1,-1,-1,-1],"split_conditions":[2.9489198E-1,3.7934107E-1,2.9438007E-1,4.278774E-2,1.9820777E-3,1.4487619E1,4.266302E-2,-4.7197985E-3,1.3064256E2,3.6879804E-2,9.1261697E-1,2.4858499E-2,5.2396126E-2,-5.274871E-2,-2.581567E-2,-2.7632836E-2,2.3297587E-2],"split_indices":[2,7,7,2,0,0,6,0,3,0,6,2147483647,2147483647,0,0,0,0],"split_type":[0,0,0,0,0,0,0,0,0,0,0,0,0,0,0,0,0],"sum_hessian":[8.116499E1,4.0943768E1,4.0221226E1,3.6290848E1,4.652922E0,3.205164E1,8.169586E0,4.8303194E0,3.1460527E1,4.0629954E0,2.7988642E1,4.143769E0,4.025818E0,2.0795801E1,1.0664726E1,2.364862E1,4.3400216E0],"tree_param":{"num_deleted":"2","num_feature":"8","num_nodes":"17","size_leaf_vector":"0"}},{"base_weights":[-4.3916744E-1,-7.0494676E-1,-5.685088E-3,-9.931564E-1,-5.2307683E-1,-6.1582214E-1,3.6586487E-1,-4.034761E-1,-1.1792865E0,1.2293624E-1,-6.9594413E-1,-1.0275311E0,-2.2190863E-1,9.403658E-1,1.1733606E-1,-9.862106E-1,-4.704263E-1,-2.9391855E-1,4.881815E-1],"categories":[],"categories_nodes":[],"categories_segments":[],"categories_sizes":[],"default_left":[1,1,1,1,1,1,1,0,0,0,1,0,0,0,1,0,0,0,0],"id":25,"left_children":[1,3,5,7,9,11,13,-1,-1,-1,15,-1,-1,-1,17,-1,-1,-1,-1],"loss_changes":[9.445127E0,2.145031E0,7.520749E0,1.5606308E0,3.8021364E0,1.8077073E0,2.8349705E0,0E0,0E0,0E0,1.2644577E0,0E0,0E0,0E0,2.5138485E0,0E0,0E0,0E0,0E0],"parents":[2147483647,0,0,1,1,2,2,3,3,4,4,5,5,6,6,10,10,14,14],"right_children":[2,4,6,8,10,12,14,-1,-1,-1,16,-1,-1,-1,18,-1,-1,-1,-1],"split_conditions":[3.6693704E-1,1.7486842E0,2.193031E-1,9.942785E-1,1.1242714E1,1.7053193E-1,4.7513902E-1,-2.0173805E-2,-5.8964323E-2,6.1468123E-3,8.072435E1,-5.137656E-2,-1.1095432E-2,4.701829E-2,9.111329E1,-4.931053E-2,-2.3521315E-2,-1.46959275E-2,2.4409076E-2],"split_indices":[2,1,7,1,0,7,2,0,0,0,3,0,0,0,3,0,0,0,0],"split_type":[0,0,0,0,0,0,0,0,0,0,0,0,0,0,0,0,0,0,0],"sum_hessian":[8.1016495E1,4.9835003E1,3.118149E1,1.7554798E1,3.2280205E1,1.1552826E1,1.9628664E1,4.9717455E0,1.2583052E1,6.87533E0,2.5404873E1,4.8622613E0,6.690565E0,5.086574E0,1.454209E1,9.632921E0,1.5771953E1,6.993664E0,7.5484266E0],"tree_param":{"num_deleted":"0","num_feature":"8","num_nodes":"19","size_leaf_vector":"0"}},{"base_weights":[-3.8451916E-1,-9.4959337E-1,-1.9139014E-1,-1.0881329E0,-4.9112132E-1,-4.7315028E-1,1.447916E-1,-6.575814E-1,1.09649934E-1,-3.061421E-1,5.302163E-1,-3.5780594E-1,-8.063333E-1,2.0932709E-1,-6.3435304E-1,7.6078194E-1,1.7143762E-1],"categories":[],"categories_nodes":[],"categories_segments":[],"categories_sizes":[],"default_left":[1,1,1,0,0,1,1,1,0,1,1,0,0,0,0,0,0],"id":26,"left_children":[1,3,5,-1,-1,7,9,11,-1,13,15,-1,-1,-1,-1,-1,-1],"loss_changes":[8.383187E0,7.192421E-1,5.7276425E0,0E0,0E0,3.5909424E0,5.02995E0,8.267126E-1,0E0,2.423623E0,1.1489363E0,0E0,0E0,0E0,0E0,0E0,0E0],"parents":[2147483647,0,0,1,1,2,2,5,5,6,6,7,7,9,9,10,10],"right_children":[2,4,6,-1,-1,8,10,12,-1,14,16,-1,-1,-1,-1,-1,-1],"split_conditions":[2.041944E0,1.9822137E0,2.4725348E-1,-5.4406643E-2,-2.4556067E-2,1.1426901E2,3.9021049E0,4.7939644E0,5.4824967E-3,1.31080265E1,2.5310528E1,-1.7890297E-2,-4.0316667E-2,1.0466355E-2,-3.1717654E-2,3.80391E-2,8.571881E-3],"split_indices":[1,5,7,0,0,3,1,5,0,0,0,0,0,0,0,0,0],"split_type":[0,0,0,0,0,0,0,0,0,0,0,0,0,0,0,0,0],"sum_hessian":[7.748266E1,1.873856E1,5.8744102E1,1.333541E1,5.4031487E0,3.173725E1,2.7006851E1,2.401068E1,7.726571E0,1.2540484E1,1.4466367E1,9.092516E0,1.4918162E1,5.019388E0,7.5210958E0,8.124572E0,6.3417954E0],"tree_param":{"num_deleted":"0","num_feature":"8","num_nodes":"17","size_leaf_vector":"0"}},{"base_weights":[-3.2238382E-1,-5.6439537E-1,7.869751E-2,-1.6822679E-2,-6.832178E-1,4.0144256E-1,-3.1092513E-1,-4.996458E-1,4.4123375E-1,-9.786929E-1,-5.1951844E-1,4.8902825E-2,9.9006647E-1,-8.5786384E-1,1.4563093E-1,-3.427557E-2,-6.5662116E-1,-4.6463242E-1,5.296348E-1],"categories":[],"categories_nodes":[],"categories_segments":[],"categories_sizes":[],"default_left":[1,1,1,1,1,1,1,0,0,0,1,1,0,0,0,0,0,0,0],"id":27,"left_children":[1,3,5,7,9,11,13,-1,-1,-1,15,17,-1,-1,-1,-1,-1,-1,-1],"loss_changes":[7.7108927E0,3.201418E0,3.9727674E0,2.39454E0,1.4528923E0,3.515168E0,3.7275574E0,0E0,0E0,0E0,1.855268E0,3.1573136E0,0E0,0E0,0E0,0E0,0E0,0E0,0E0],"parents":[2147483647,0,0,1,1,2,2,3,3,4,4,5,5,6,6,10,10,11,11],"right_children":[2,4,6,8,10,12,14,-1,-1,-1,16,18,-1,-1,-1,-1,-1,-1,-1],"split_conditions":[3.6693704E-1,6.189361E-2,2.6422981E1,1.3686649E1,2.0411E0,1.1380013E2,1.3837636E1,-2.498229E-2,2.2061689E-2,-4.8934646E-2,1.12244215E1,2.0648796E1,4.9503323E-2,-4.2893194E-2,7.2815465E-3,-1.7137785E-3,-3.2831058E-2,-2.3231622E-2,2.6481738E-2],"split_indices":[2,2,0,4,5,3,1,0,0,0,4,0,0,0,0,0,0,0,0],"split_type":[0,0,0,0,0,0,0,0,0,0,0,0,0,0,0,0,0,0,0],"sum_hessian":[7.7981606E1,4.838135E1,2.9600254E1,8.830324E0,3.9551025E1,1.6173052E1,1.3427202E1,4.2547927E0,4.5755315E0,1.232524E1,2.7225786E1,1.0792408E1,5.380644E0,5.7090607E0,7.7181416E0,6.2732964E0,2.095249E1,5.234312E0,5.558096E0],"tree_param":{"num_deleted":"0","num_feature":"8","num_nodes":"19","size_leaf_vector":"0"}},{"base_weights":[-3.0777577E-1,-7.1295965E-1,-5.6322746E-2,-8.2687235E-1,2.7643071E-2,-5.7922226E-1,2.1686377E-1,-9.9030864E-1,-5.121111E-1,-2.0659048E-2,-7.958521E-1,3.1430412E-2,5.9994227E-1,-4.161258E-1,-1.1424187E0,-8.306872E-1,-2.0024695E-1,-1.1289958E0,-4.8260772E-1,-5.001596E-1,1.6113347E-1,3.0525294E-1,8.335951E-1],"categories":[],"categories_nodes":[],"categories_segments":[],"categories_sizes":[],"default_left":[1,1,1,1,0,1,1,1,1,0,1,1,1,0,0,0,0,0,0,0,0,1,1],"id":28,"left_children":[1,3,5,7,-1,9,11,13,15,-1,17,19,-1,-1,-1,-1,-1,-1,-1,-1,-1,-1,-1],"loss_changes":[8.328619E0,2.6693048E0,7.521087E0,8.9304733E-1,0E0,2.166185E0,2.448372E0,9.9581146E-1,9.6364427E-1,0E0,8.086271E-1,1.7670116E0,5.217242E-1,0E0,0E0,0E0,0E0,0E0,0E0,0E0,0E0,0E0,0E0],"parents":[2147483647,0,0,1,1,2,2,3,3,5,5,6,6,7,7,8,8,10,10,11,11,12,12],"right_children":[2,4,6,8,-1,10,12,14,16,-1,18,20,-1,-1,-1,-1,-1,-1,-1,-1,-1,-1,-1],"split_conditions":[2.9797413E0,3.7639934E-1,2.0779493E-1,2.6286852E-1,1.3821536E-3,3.1556222E-1,2.9880044E-1,1.573933E-1,1.7877593E0,-1.0329525E-3,7.962422E1,4.343774E0,2.9997114E-2,-2.080629E-2,-5.7120938E-2,-4.153436E-2,-1.0012347E-2,-5.644979E-2,-2.4130387E-2,-2.5007982E-2,8.056673E-3,1.52626475E-2,4.1679755E-2],"split_indices":[1,7,7,7,0,2,7,7,1,0,3,1,1,0,0,0,0,0,0,0,0,2147483647,2147483647],"split_type":[0,0,0,0,0,0,0,0,0,0,0,0,0,0,0,0,0,0,0,0,0,0,0],"sum_hessian":[8.114002E1,3.036891E1,5.077111E1,2.6219631E1,4.14928E0,1.7038355E1,3.3732758E1,1.5845597E1,1.0374033E1,5.067583E0,1.1970773E1,2.3459234E1,1.0273522E1,4.1010466E0,1.1744551E1,4.3087606E0,6.0652723E0,4.5390325E0,7.43174E0,4.040913E0,1.9418322E1,5.5634284E0,4.710094E0],"tree_param":{"num_deleted":"2","num_feature":"8","num_nodes":"23","size_leaf_vector":"0"}},{"base_weights":[-3.940013E-1,-7.706254E-1,-1.8416518E-1,-1.0408732E0,-2.096377E-1,5.317287E-1,-2.6796946E-1,-6.6817266E-1,2.942915E-1,-6.287886E-1,-1.8002002E-2,-2.713379E-1,-7.9387486E-1,6.5776765E-1,-2.1890818E-1],"categories":[],"categories_nodes":[],"categories_segments":[],"categories_sizes":[],"default_left":[1,1,1,0,1,0,1,0,0,1,1,0,0,0,0],"id":29,"left_children":[1,3,5,-1,7,-1,9,-1,-1,11,13,-1,-1,-1,-1],"loss_changes":[6.013011E0,3.958805E0,3.222014E0,0E0,2.555855E0,0E0,4.1930714E0,0E0,0E0,9.085779E-1,4.02249E0,0E0,0E0,0E0,0E0],"parents":[2147483647,0,0,1,1,2,2,4,4,6,6,9,9,10,10],"right_children":[2,4,6,-1,8,-1,10,-1,-1,12,14,-1,-1,-1,-1],"split_conditions":[1.3211254E1,2.5938326E-1,6.0814448E-2,-5.2043658E-2,2.148672E0,2.6586434E-2,3.6693704E-1,-3.3408634E-2,1.4714575E-2,2.3024946E-1,4.538259E-1,-1.3566895E-2,-3.9693743E-2,3.2888383E-2,-1.0945409E-2],"split_indices":[4,7,6,0,1,0,2,0,0,7,2,0,0,0,0],"split_type":[0,0,0,0,0,0,0,0,0,0,0,0,0,0,0],"sum_hessian":[7.688221E1,2.6552229E1,5.032998E1,1.7342306E1,9.209924E0,4.7141457E0,4.5615837E1,4.651556E0,4.5583677E0,1.8048208E1,2.7567627E1,6.5373096E0,1.1510898E1,5.796436E0,2.1771193E1],"tree_param":{"num_deleted":"0","num_feature":"8","num_nodes":"15","size_leaf_vector":"0"}},{"base_weights":[-2.0643301E-1,-8.3925873E-1,-4.7677007E-2,-9.7367966E-1,-5.1992524E-1,-3.4528747E-1,3.1247067E-1,-7.0162517E-1,2.5438247E-3,4.8130998E-1,-3.0317694E-1,-1.3918152E-1,-8.6598253E-1,-3.9833787E-1,4.5871815E-1,2.4298688E-3,6.252624E-1],"categories":[],"categories_nodes":[],"categories_segments":[],"categories_sizes":[],"default_left":[1,1,1,1,1,1,1,1,1,1,0,0,0,0,0,0,0],"id":30,"left_children":[1,-1,5,-1,-1,7,9,11,13,15,-1,-1,-1,-1,-1,-1,-1],"loss_changes":[7.772436E0,1.6055107E-1,6.884889E0,0E0,0E0,4.351657E0,3.174182E0,1.4822788E0,3.6126163E0,1.6011753E0,0E0,0E0,0E0,0E0,0E0,0E0,0E0],"parents":[2147483647,0,0,1,1,2,2,5,5,6,6,7,7,8,8,9,9],"right_children":[2,-1,6,-1,-1,8,10,12,14,16,-1,-1,-1,-1,-1,-1,-1],"split_conditions":[1.8787444E0,-4.1962937E-2,2.4657995E-1,-4.8683982E-2,-2.5996262E-2,1.751435E1,1.3524811E2,1.0351898E1,9.984146E1,6.861482E1,-1.5158847E-2,-6.9590765E-3,-4.3299127E-2,-1.9916894E-2,2.2935908E-2,1.2149344E-4,3.126312E-2],"split_indices":[5,7,7,2147483647,2147483647,4,3,4,3,3,0,0,0,0,0,0,0],"split_type":[0,0,0,0,0,0,0,0,0,0,0,0,0,0,0,0,0],"sum_hessian":[7.676343E1,1.45355835E1,6.2227844E1,8.787358E0,5.748225E0,3.4094788E1,2.8133057E1,1.6339104E1,1.7755684E1,2.2249495E1,5.8835635E0,4.112598E0,1.2226505E1,9.518017E0,8.237667E0,5.3775296E0,1.6871964E1],"tree_param":{"num_deleted":"2","num_feature":"8","num_nodes":"17","size_leaf_vector":"0"}},{"base_weights":[-2.704812E-1,-4.3111378E-1,1.9530652E-1,-5.779083E-1,-5.6086093E-2,7.2421795E-1,-2.7167034E-1,1.07295595E-1,-6.6909915E-1,-3.6560723E-1,6.97592E-1,9.0914375E-1,3.8903323E-1,-7.1298885E-1,1.4002557E-1,-7.503315E-1,-1.8652871E-1,-6.3377105E-2,-7.5933903E-1],"categories":[],"categories_nodes":[],"categories_segments":[],"categories_sizes":[],"default_left":[1,1,1,1,1,1,1,0,1,1,0,1,1,0,0,0,0,0,0],"id":31,"left_children":[1,3,5,7,9,-1,13,-1,15,17,-1,-1,-1,-1,-1,-1,-1,-1,-1],"loss_changes":[5.590278E0,2.9971428E0,5.0275927E0,2.5363798E0,4.124787E0,2.3163271E-1,2.1192942E0,0E0,1.2299814E0,1.4292377E0,0E0,0E0,0E0,0E0,0E0,0E0,0E0,0E0,0E0],"parents":[2147483647,0,0,1,1,2,2,3,3,4,4,5,5,6,6,8,8,9,9],"right_children":[2,4,6,8,10,-1,14,-1,16,18,-1,-1,-1,-1,-1,-1,-1,-1,-1],"split_conditions":[4.7305644E-1,2.987706E-1,1.0161029E1,5.174326E-2,2.4418327E-1,3.62109E-2,1.3507679E1,5.36478E-3,6.5580516E0,2.6542468E0,3.4879602E-2,4.5457188E-2,1.9451661E-2,-3.5649445E-2,7.0012785E-3,-3.7516575E-2,-9.326436E-3,-3.1688553E-3,-3.796695E-2],"split_indices":[6,7,5,2,2,2,1,0,5,5,0,2147483647,2147483647,0,0,0,0,0,0],"split_type":[0,0,0,0,0,0,0,0,0,0,0,0,0,0,0,0,0,0,0],"sum_hessian":[7.259019E1,5.403136E1,1.8558823E1,3.8442837E1,1.5588523E1,8.44407E0,1.0114754E1,4.4944687E0,3.3948368E1,1.1415404E1,4.1731186E0,4.3381433E0,4.105926E0,4.5285983E0,5.5861554E0,2.8582102E1,5.366268E0,7.114996E0,4.3004084E0],"tree_param":{"num_deleted":"2","num_feature":"8","num_nodes":"19","size_leaf_vector":"0"}},{"base_weights":[-2.5526327E-1,-7.779206E-1,-1.23636894E-1,-9.103642E-1,-3.7764388E-1,-4.9470803E-1,4.3309838E-2,1.4988202E-1,-7.2305226E-1,-2.4740072E-1,2.3915553E-1,-1.0093714E0,-4.1079196E-1,4.5782858E-1,-5.4379904E-1,5.0703096E-1,-1.56903E-1],"categories":[],"categories_nodes":[],"categories_segments":[],"categories_sizes":[],"default_left":[1,1,1,1,1,1,1,0,1,1,1,0,0,0,0,0,0],"id":32,"left_children":[1,-1,5,-1,-1,7,9,-1,11,13,15,-1,-1,-1,-1,-1,-1],"loss_changes":[5.428591E0,5.0261784E-1,4.069255E0,0E0,0E0,3.1045432E0,2.6772962E0,0E0,9.445157E-1,4.2207336E0,3.048514E0,0E0,0E0,0E0,0E0,0E0,0E0],"parents":[2147483647,0,0,1,1,2,2,5,5,6,6,8,8,9,9,10,10],"right_children":[2,-1,6,-1,-1,8,10,-1,12,14,16,-1,-1,-1,-1,-1,-1],"split_conditions":[1.8787444E0,-3.889603E-2,2.0733449E-1,-4.5518212E-2,-1.8882195E-2,4.0638995E0,2.5134635E-1,7.494101E-3,7.5160894E0,6.776203E-2,2.6657701E1,-5.046857E-2,-2.0539599E-2,2.289143E-2,-2.7189953E-2,2.5351549E-2,-7.84515E-3],"split_indices":[5,7,7,2147483647,2147483647,1,2,0,5,2,0,0,0,0,0,0,0],"split_type":[0,0,0,0,0,0,0,0,0,0,0,0,0,0,0,0,0],"sum_hessian":[7.930782E1,1.4966989E1,6.434083E1,1.0288324E1,4.6786637E0,1.9355825E1,4.4985004E1,5.1529694E0,1.4202856E1,1.8001032E1,2.6983974E1,6.2444973E0,7.9583592E0,5.1655874E0,1.2835444E1,1.5929763E1,1.1054211E1],"tree_param":{"num_deleted":"2","num_feature":"8","num_nodes":"17","size_leaf_vector":"0"}},{"base_weights":[-3.1511915E-1,-5.3066415E-1,7.992851E-2,-6.255197E-1,2.5980368E-1,-2.2778155E-1,7.9199284E-1,-8.1622005E-1,-3.5338432E-1,1.3553657E-1,-7.962579E-1,-5.0499785E-1,-1.0757812E0,4.6287394E-1,-6.5391576E-1,-2.3121773E-1,6.555136E-1],"categories":[],"categories_nodes":[],"categories_segments":[],"categories_sizes":[],"default_left":[1,1,1,1,0,1,0,1,1,1,0,0,0,0,0,0,0],"id":33,"left_children":[1,3,5,7,-1,9,-1,11,13,15,-1,-1,-1,-1,-1,-1,-1],"loss_changes":[6.3393025E0,3.7597685E0,6.0906844E0,1.9497414E0,0E0,4.1584415E0,0E0,1.4434814E0,5.094583E0,2.596246E0,0E0,0E0,0E0,0E0,0E0,0E0,0E0],"parents":[2147483647,0,0,1,1,2,2,3,3,5,5,7,7,8,8,9,9],"right_children":[2,4,6,8,-1,10,-1,12,14,16,-1,-1,-1,-1,-1,-1,-1],"split_conditions":[6.4318533E0,3.85325E-1,2.6062512E-1,3.3538108E0,1.2990184E-2,2.806886E1,3.9599642E-2,1.1009162E1,3.9562867E0,1.1380013E2,-3.9812896E-2,-2.5249893E-2,-5.378906E-2,2.3143698E-2,-3.269579E-2,-1.1560886E-2,3.277568E-2],"split_indices":[5,7,7,5,0,0,0,4,5,3,0,0,0,0,0,0,0],"split_type":[0,0,0,0,0,0,0,0,0,0,0,0,0,0,0,0,0],"sum_hessian":[7.294979E1,4.69758E1,2.5973993E1,4.2129074E1,4.846723E0,1.8611359E1,7.362635E0,2.3595148E1,1.8533928E1,1.1819138E1,6.792221E0,1.2069365E1,1.1525783E1,4.842126E0,1.3691802E1,7.2563014E0,4.5628366E0],"tree_param":{"num_deleted":"0","num_feature":"8","num_nodes":"17","size_leaf_vector":"0"}},{"base_weights":[-2.615068E-1,-8.352712E-1,-1.2712187E-1,-9.8046166E-1,-3.7568495E-1,3.4758985E-1,-1.8696764E-1,-5.529144E-1,7.2187185E-3,-6.979063E-1,-6.805269E-2,7.9765534E-1,-1.3118999E-1],"categories":[],"categories_nodes":[],"categories_segments":[],"categories_sizes":[],"default_left":[1,1,1,1,1,0,1,1,1,0,0,0,0],"id":34,"left_children":[1,-1,5,-1,-1,-1,7,9,11,-1,-1,-1,-1],"loss_changes":[5.843223E0,5.966692E-1,1.8745822E0,0E0,0E0,0E0,4.069915E0,1.3478484E0,4.302223E0,0E0,0E0,0E0,0E0],"parents":[2147483647,0,0,1,1,2,2,6,6,7,7,8,8],"right_children":[2,-1,6,-1,-1,-1,8,10,12,-1,-1,-1,-1],"split_conditions":[1.8787444E0,-4.176356E-2,6.801814E-2,-4.9023084E-2,-1.8784247E-2,1.7379493E-2,2.9761583E-1,3.9620457E0,1.4383865E1,-3.4895316E-2,-3.4026343E-3,3.9882768E-2,-6.5594995E-3],"split_indices":[5,3,2,2147483647,2147483647,0,2,1,0,0,0,0,0],"split_type":[0,0,0,0,0,0,0,0,0,0,0,0,0],"sum_hessian":[7.6160126E1,1.346303E1,6.2697094E1,9.369571E0,4.0934587E0,6.4808035E0,5.621629E1,1.8848661E1,3.736763E1,1.4171387E1,4.6772747E0,4.8585143E0,3.2509113E1],"tree_param":{"num_deleted":"2","num_feature":"8","num_nodes":"13","size_leaf_vector":"0"}}]},"name":"gbtree"},"learner_model_param":{"base_score":"5E-1","boost_from_average":"1","num_class":"0","num_feature":"8","num_target":"1"},"objective":{"name":"binary:logistic","reg_loss_param":{"scale_pos_weight":"1"}}},"version":[1,7,1]}