{"learner":{"attributes":{"best_iteration":"40","best_ntree_limit":"41","best_score":"0.46644990891218185","scikit_learn":"{\"use_label_encoder\": false, \"n_estimators\": 41, \"objective\": \"binary:logistic\", \"max_depth\": 4, \"max_leaves\": null, \"max_bin\": null, \"grow_policy\": null, \"learning_rate\": 0.05, \"verbosity\": null, \"booster\": null, \"tree_method\": null, \"gamma\": 0.6, \"min_child_weight\": 4, \"max_delta_step\": null, \"subsample\": 0.8, \"sampling_method\": null, \"colsample_bytree\": 0.8, \"colsample_bylevel\": null, \"colsample_bynode\": null, \"reg_alpha\": 5e-05, \"reg_lambda\": null, \"scale_pos_weight\": 1, \"base_score\": null, \"missing\": NaN, \"num_parallel_tree\": null, \"random_state\": null, \"n_jobs\": null, \"monotone_constraints\": null, \"interaction_constraints\": null, \"importance_type\": null, \"gpu_id\": null, \"validate_parameters\": null, \"predictor\": null, \"enable_categorical\": false, \"feature_types\": null, \"max_cat_to_onehot\": null, \"max_cat_threshold\": null, \"eval_metric\": null, \"early_stopping_rounds\": null, \"callbacks\": null, \"kwargs\": {\"nthread\": 20, \"seed\": 92}, \"classes_\": [0, 1], \"n_classes_\": 2, \"evals_result_\": {\"validation_0\": {\"auc\": [0.8002379300089224, 0.837602855160107, 0.8438286903935759, 0.8574898384058689, 0.8577079409140478, 0.8591751759690691, 0.8649350649350649, 0.8735104590066423, 0.8712996926737385, 0.8742341627837811, 0.8740854565282046, 0.874660454049767, 0.8758104490928919, 0.8758302765936353, 0.8778130266679885, 0.8793397442252404, 0.8825617130960642, 0.8827401606027561, 0.8835035193813819, 0.8829979181124219, 0.8829186081094478, 0.8826410230990384, 0.8834737781302667, 0.8854267869535045, 0.886041439476554, 0.8853177356994151, 0.8856746307127986, 0.8852582531971845, 0.8864082482403093, 0.8875978982849212, 0.8873996232774859, 0.8882323783087142, 0.8890651333399425, 0.8909487459105779, 0.8910677109150391, 0.8917815009418063, 0.8938039060176465, 0.8935461485079805, 0.8940021810250818, 0.8951720035689501, 0.896361653613562], \"error\": [0.1937984496124031, 0.17829457364341086, 0.18410852713178294, 0.18023255813953487, 0.1744186046511628, 0.17635658914728683, 0.17635658914728683, 0.17829457364341086, 0.17829457364341086, 0.17635658914728683, 0.17248062015503876, 0.17054263565891473, 0.17054263565891473, 0.17248062015503876, 0.17054263565891473, 0.1686046511627907, 0.17054263565891473, 0.1744186046511628, 0.1744186046511628, 0.17248062015503876, 0.17054263565891473, 0.17248062015503876, 0.1744186046511628, 0.1744186046511628, 0.17054263565891473, 0.17054263565891473, 0.17054263565891473, 0.17054263565891473, 0.17054263565891473, 0.17054263565891473, 0.17054263565891473, 0.17054263565891473, 0.1744186046511628, 0.16472868217054262, 0.1686046511627907, 0.16666666666666666, 0.16279069767441862, 0.16666666666666666, 0.1686046511627907, 0.16472868217054262, 0.16472868217054262], \"logloss\": [0.6722685273072516, 0.6527304658594058, 0.6358406334653381, 0.6195752754691959, 0.6050840107969535, 0.5897951421234034, 0.576230513726094, 0.5630254208348519, 0.5525576608010041, 0.5412103268065194, 0.5308759723638379, 0.5227081866342892, 0.5135457262165787, 0.5054398939128995, 0.49832418139359747, 0.49084847518639974, 0.4839485458047815, 0.4775044965998147, 0.47195138458826746, 0.4663184846556464, 0.46147738301823304, 0.4568936142117478, 0.452343013801778, 0.4471390831262566, 0.442513889553704, 0.43865307735264764, 0.4347362524374973, 0.4312408786238164, 0.4280824470947417, 0.424996739152328, 0.42285976044891416, 0.42015162777415543, 0.4170527721849061, 0.413187186125406, 0.410570613000282, 0.4084933958514485, 0.40499130281251533, 0.4027801587773386, 0.400271555221127, 0.39772001538396806, 0.39504554886515286]}, \"validation_1\": {\"auc\": [0.738987816307404, 0.7692908466104342, 0.7841299593876914, 0.7799125273352078, 0.7713214620431116, 0.7878787878787878, 0.7686660418619181, 0.7622617931896283, 0.7708528584817245, 0.774445485785692, 0.7664792252421119, 0.7738206810371758, 0.7794439237738207, 0.7833489534520462, 0.7828803498906591, 0.7835051546391752, 0.7803811308965948, 0.781630740393627, 0.7800687285223368, 0.7803811308965948, 0.7788191190253045, 0.781630740393627, 0.7760074976569822, 0.7788191190253045, 0.7788191190253045, 0.781630740393627, 0.7813183380193689, 0.7844423617619494, 0.7850671665104655, 0.7841299593876914, 0.7838175570134333, 0.7838175570134333, 0.7806935332708529, 0.781943142767885, 0.7828803498906591, 0.7835051546391752, 0.7813183380193689, 0.7806935332708529, 0.7822555451421431, 0.7822555451421431, 0.7803811308965948], \"error\": [0.2153846153846154, 0.23076923076923078, 0.23076923076923078, 0.23076923076923078, 0.19230769230769232, 0.19230769230769232, 0.19230769230769232, 0.19230769230769232, 0.18461538461538463, 0.19230769230769232, 0.2, 0.2, 0.2, 0.19230769230769232, 0.19230769230769232, 0.18461538461538463, 0.18461538461538463, 0.2, 0.2, 0.2, 0.2, 0.19230769230769232, 0.19230769230769232, 0.19230769230769232, 0.2076923076923077, 0.2076923076923077, 0.2153846153846154, 0.2153846153846154, 0.2153846153846154, 0.2153846153846154, 0.2153846153846154, 0.2153846153846154, 0.2153846153846154, 0.2153846153846154, 0.2076923076923077, 0.2076923076923077, 0.2076923076923077, 0.2076923076923077, 0.2076923076923077, 0.2076923076923077, 0.2076923076923077], \"logloss\": [0.6738097809828245, 0.6572041410666246, 0.6416521567564745, 0.6283547461032868, 0.615028425363394, 0.6021932954971607, 0.592028263440499, 0.5833944680599066, 0.5731635646178173, 0.5638957638006944, 0.5572142701882582, 0.5489829560885062, 0.540643296104211, 0.5337255241779181, 0.5274191203025671, 0.5226078262695899, 0.5181092876654405, 0.5126306100533559, 0.5098373960990172, 0.5049915993442902, 0.5024741603777959, 0.4977110666724352, 0.4958964550724396, 0.4924120454834058, 0.48893966800891436, 0.4850198362882321, 0.48376437437075837, 0.4818127081944392, 0.47932400061534003, 0.4783355868779696, 0.47651028289244723, 0.4751091992625823, 0.4735869401922593, 0.472770719574048, 0.4719141475283183, 0.47148085981607435, 0.4704938160112271, 0.4691521501311889, 0.46801873760727736, 0.4675532108889176, 0.46644990891218185]}}, \"_estimator_type\": \"classifier\"}"},"feature_names":["area_cu_dl","area_ac_dl","area_cc_dl","sigmoid_prob"],"feature_types":["float","float","float","float"],"gradient_booster":{"model":{"gbtree_model_param":{"num_parallel_tree":"1","num_trees":"41","size_leaf_vector":"0"},"tree_info":[0,0,0,0,0,0,0,0,0,0,0,0,0,0,0,0,0,0,0,0,0,0,0,0,0,0,0,0,0,0,0,0,0,0,0,0,0,0,0,0,0],"trees":[{"base_weights":[-9.261079E-1,-1.519999E0,-3.428562E-1,-1.6201106E0,-5.59992E-1,-1.0909069E0,1.904746E-1,-1.7333318E0,-1.1666625E0,-3.9999E-1,-1.2222195E0,-5.161258E-1,8.2352644E-1,-5.9999E-1,-1.3749938E0,3.9999428E-1,-1.4838645E0,9.522857E-2,1.0588197E0],"categories":[],"categories_nodes":[],"categories_segments":[],"categories_sizes":[],"default_left":[1,1,1,1,0,1,1,1,1,0,0,1,1,1,1,0,0,0,0],"id":0,"left_children":[1,3,5,-1,-1,9,11,-1,-1,-1,-1,15,17,-1,-1,-1,-1,-1,-1],"loss_changes":[3.4637146E1,3.8980408E0,2.1153152E1,2.751007E-1,0E0,1.5070171E0,1.4515471E1,0E0,5.9158707E-1,0E0,0E0,1.4335348E1,2.812292E0,0E0,0E0,0E0,0E0,0E0,0E0],"parents":[2147483647,0,0,1,1,2,2,3,3,5,5,6,6,8,8,11,11,12,12],"right_children":[2,4,6,-1,-1,10,12,-1,-1,-1,-1,16,18,-1,-1,-1,-1,-1,-1],"split_conditions":[3.3353553E0,1.5231186E1,2.1991096E-1,-8.1005536E-2,-2.79996E-2,4.7678185E0,6.3588915E0,-8.666659E-2,-5.8333125E-2,-1.99995E-2,-6.1110973E-2,1.636304E1,2.4429692E-1,-2.99995E-2,-6.874969E-2,1.9999715E-2,-7.419323E-2,4.7614286E-3,5.2940983E-2],"split_indices":[1,0,3,3,0,1,1,2147483647,2147483647,0,0,0,3,2147483647,2147483647,0,0,0,0],"split_type":[0,0,0,0,0,0,0,0,0,0,0,0,0,0,0,0,0,0,0],"sum_hessian":[1.005E2,4.9E1,5.15E1,4.375E1,5.25E0,2.1E1,3.05E1,3.275E1,1.1E1,4E0,1.7E1,1.45E1,1.6E1,4E0,7E0,7.75E0,6.75E0,4.25E0,1.175E1],"tree_param":{"num_deleted":"4","num_feature":"4","num_nodes":"19","size_leaf_vector":"0"}},{"base_weights":[-9.499758E-1,-1.2287562E0,1.1452625E-1,-1.3485056E0,-1.216993E-1,-6.5261614E-1,1.1578975E0,-1.5044631E0,-8.741375E-1,-9.9119675E-1,-1.2246959E-1,-1.5767305E0,-6.857785E-1,-1.275244E0,1.7950542E-2],"categories":[],"categories_nodes":[],"categories_segments":[],"categories_sizes":[],"default_left":[1,1,1,1,0,1,0,1,1,0,0,0,0,0,0],"id":1,"left_children":[1,3,5,7,-1,9,-1,11,13,-1,-1,-1,-1,-1,-1],"loss_changes":[3.1342804E1,1.0892883E1,1.8953432E1,4.2456055E0,0E0,2.34513E0,0E0,2.1833267E0,7.531708E0,0E0,0E0,0E0,0E0,0E0,0E0],"parents":[2147483647,0,0,1,1,2,2,3,3,5,5,7,7,8,8],"right_children":[2,4,6,8,-1,10,-1,12,14,-1,-1,-1,-1,-1,-1],"split_conditions":[4.6818146E-1,3.7934107E-1,2.4429692E-1,2.409634E-1,-6.084965E-3,7.7049124E-1,5.7894874E-2,1.8960749E1,2.714668E-1,-4.955984E-2,-6.1234795E-3,-7.883652E-2,-3.4288924E-2,-6.37622E-2,8.9752715E-4],"split_indices":[2,3,3,2,0,2,0,0,3,0,0,0,0,0,0],"split_type":[0,0,0,0,0,0,0,0,0,0,0,0,0,0,0],"sum_hessian":[1.0414141E2,8.2406006E1,2.1735409E1,7.416545E1,8.240557E0,1.2741581E1,8.993829E0,5.418086E1,1.9984589E1,7.244858E0,5.4967227E0,4.8935226E1,5.2456326E0,1.3489778E1,6.494811E0],"tree_param":{"num_deleted":"0","num_feature":"4","num_nodes":"15","size_leaf_vector":"0"}},{"base_weights":[-8.085111E-1,-1.1426187E0,3.1425184E-1,-1.248072E0,-1.2290409E-1,-4.608944E-1,1.2285149E0,-1.4850589E0,-9.4982064E-1,-8.5498947E-1,-2.0379184E-2,8.140165E-1,1.5510375E0,-1.5928686E0,-6.942428E-1,-2.4483351E-1,-1.0572823E0],"categories":[],"categories_nodes":[],"categories_segments":[],"categories_sizes":[],"default_left":[1,1,1,1,0,1,1,1,1,0,0,1,1,0,0,0,0],"id":2,"left_children":[1,3,5,7,-1,9,-1,13,15,-1,-1,-1,-1,-1,-1,-1,-1],"loss_changes":[3.9884438E1,8.601608E0,1.8246683E1,3.79702E0,0E0,2.4526546E0,3.040619E-1,2.2430649E0,2.42272E0,0E0,0E0,0E0,0E0,0E0,0E0,0E0,0E0],"parents":[2147483647,0,0,1,1,2,2,3,3,5,5,6,6,7,7,8,8],"right_children":[2,4,6,8,-1,10,-1,14,16,-1,-1,-1,-1,-1,-1,-1,-1],"split_conditions":[4.6818146E-1,3.7934107E-1,2.4429692E-1,1.3215809E1,-6.145205E-3,2.0451033E-1,6.1425745E-2,2.4791987E-1,6.6724405E-2,-4.2749476E-2,-1.0189592E-3,4.0700827E-2,7.755188E-2,-7.964343E-2,-3.471214E-2,-1.22416755E-2,-5.2864116E-2],"split_indices":[2,3,3,0,0,3,3,2,2,0,0,2147483647,2147483647,0,0,0,0],"split_type":[0,0,0,0,0,0,0,0,0,0,0,0,0,0,0,0,0],"sum_hessian":[1.0436615E2,8.0418015E1,2.394813E1,7.2678055E1,7.739961E0,1.3228416E1,1.0719714E1,3.828103E1,3.4397026E1,6.4854155E0,6.7430005E0,6.2331185E0,4.4865956E0,3.27958E1,5.485231E0,4.98334E0,2.9413689E1],"tree_param":{"num_deleted":"2","num_feature":"4","num_nodes":"17","size_leaf_vector":"0"}},{"base_weights":[-8.782819E-1,-1.1649582E0,-1.446132E-1,-1.5302181E0,-9.5978135E-1,-7.718476E-1,8.2832974E-1,-3.8867396E-1,-1.0923283E0,-1.0413655E0,-1.05753906E-1,1.3486981E0,3.821219E-1,-1.0598738E0,4.713549E-1,-1.4754518E0,-9.626814E-1],"categories":[],"categories_nodes":[],"categories_segments":[],"categories_sizes":[],"default_left":[1,1,1,0,1,1,1,1,1,0,0,0,0,0,0,1,1],"id":3,"left_children":[1,3,5,-1,7,9,11,13,-1,-1,-1,-1,-1,-1,-1,-1,-1],"loss_changes":[2.1331825E1,4.029114E0,1.886346E1,0E0,3.3343391E0,3.242403E0,2.3144732E0,6.7952957E0,5.5394745E-1,0E0,0E0,0E0,0E0,0E0,0E0,0E0,0E0],"parents":[2147483647,0,0,1,1,2,2,4,4,5,5,6,6,7,7,8,8],"right_children":[2,4,6,-1,8,10,12,14,-1,-1,-1,-1,-1,-1,-1,-1,-1],"split_conditions":[6.4318533E0,1.8787444E0,2.4429692E-1,-7.6510906E-2,1.0972958E1,2.193031E-1,2.3266882E1,2.3560202E-1,-5.4616418E-2,-5.2068274E-2,-5.287695E-3,6.743491E-2,1.9106096E-2,-5.2993692E-2,2.3567745E-2,-7.3772594E-2,-4.813407E-2],"split_indices":[1,1,3,0,0,3,0,3,0,0,0,0,0,0,0,2147483647,2147483647],"split_type":[0,0,0,0,0,0,0,0,0,0,0,0,0,0,0,0,0],"sum_hessian":[1.012242E2,7.236148E1,2.8862713E1,2.370432E1,4.8657166E1,1.7674864E1,1.1187849E1,9.906325E0,3.875084E1,1.2182187E1,5.492678E0,4.230981E0,6.9568677E0,5.4335E0,4.4728255E0,7.172937E0,3.1577902E1],"tree_param":{"num_deleted":"2","num_feature":"4","num_nodes":"17","size_leaf_vector":"0"}},{"base_weights":[-8.361453E-1,-1.3083705E0,-3.2050204E-1,-1.3808254E0,-3.7203822E-1,-8.878466E-1,5.4345682E-2,-8.4959835E-1,-1.4713964E0,-1.0262474E0,-6.397748E-1,-3.5081396E-1,6.289675E-1,-1.2316912E0,-2.880978E-1,-6.060046E-1,-1.2306827E0,-1.24899454E-1,-9.9692273E-1,-5.652529E-1,1.5522298E-1,1.1748816E0,2.2532248E-1],"categories":[],"categories_nodes":[],"categories_segments":[],"categories_sizes":[],"default_left":[1,1,1,1,0,1,1,1,0,1,1,1,1,0,0,1,1,0,0,0,0,0,0],"id":4,"left_children":[1,3,5,7,-1,9,11,13,-1,-1,17,19,21,-1,-1,-1,-1,-1,-1,-1,-1,-1,-1],"loss_changes":[2.4812523E1,3.1336212E0,1.0864222E1,1.1330185E0,0E0,4.0024757E-2,7.569844E0,1.7007332E0,0E0,2.3087597E-1,1.6999903E0,2.1663666E0,2.6905274E0,0E0,0E0,0E0,0E0,0E0,0E0,0E0,0E0,0E0,0E0],"parents":[2147483647,0,0,1,1,2,2,3,3,5,5,6,6,7,7,9,9,10,10,11,11,12,12],"right_children":[2,4,6,8,-1,10,12,14,-1,-1,18,20,22,-1,-1,-1,-1,-1,-1,-1,-1,-1,-1],"split_conditions":[3.5014737E0,3.9158666E-1,2.193031E-1,6.0545936E-2,-1.8601911E-2,4.354254E-1,4.9603152E-1,2.4410231E-1,-7.356983E-2,-5.131237E-2,7.0160556E-1,6.3588915E0,6.306261E-1,-6.1584562E-2,-1.440489E-2,-3.030023E-2,-6.1534137E-2,-6.244973E-3,-4.984614E-2,-2.8262645E-2,7.761149E-3,5.874408E-2,1.1266124E-2],"split_indices":[1,3,3,2,0,2,2,3,0,2,2,1,2,0,0,2147483647,2147483647,0,0,0,0,0,0],"split_type":[0,0,0,0,0,0,0,0,0,0,0,0,0,0,0,0,0,0,0,0,0,0,0],"sum_hessian":[1.02622E2,5.2763668E1,4.985833E1,4.853331E1,4.2303576E0,1.9291533E1,3.05668E1,8.581453E0,3.995186E1,1.0369325E1,8.922208E0,1.815518E1,1.241162E1,4.396226E0,4.185227E0,4.6909704E0,5.6783543E0,4.2070494E0,4.715158E0,1.2669439E1,5.4857397E0,4.4637585E0,7.9478617E0],"tree_param":{"num_deleted":"2","num_feature":"4","num_nodes":"23","size_leaf_vector":"0"}},{"base_weights":[-7.755683E-1,-1.2046431E0,-2.211878E-1,-1.2831167E0,-2.4531049E-1,-1.1315907E0,2.3110725E-1,-7.0692825E-1,-1.3929347E0,-2.6537704E-1,5.376201E-1,-1.4236916E0,2.6833713E-1,-1.4538001E0,-6.7677474E-1,1.1761066E-1,-7.7404535E-1,-5.3918608E-2,9.5629793E-1],"categories":[],"categories_nodes":[],"categories_segments":[],"categories_sizes":[],"default_left":[1,1,1,1,0,0,1,1,1,1,1,0,0,0,0,0,0,0,0],"id":5,"left_children":[1,3,5,7,-1,-1,9,11,13,15,17,-1,-1,-1,-1,-1,-1,-1,-1],"loss_changes":[2.347902E1,3.9045334E0,1.869988E1,2.278511E0,0E0,0E0,4.8215933E0,7.5727186E0,8.5923004E-1,2.507847E0,4.8415613E0,0E0,0E0,0E0,0E0,0E0,0E0,0E0,0E0],"parents":[2147483647,0,0,1,1,2,2,3,3,6,6,7,7,8,8,9,9,10,10],"right_children":[2,4,6,8,-1,-1,10,12,14,16,18,-1,-1,-1,-1,-1,-1,-1,-1],"split_conditions":[2.3472485E-1,3.9158666E-1,2.0779493E-1,6.0545936E-2,-1.2265525E-2,-5.6579538E-2,6.363122E0,1.8275969E0,4.5157046E0,4.8402014E0,2.4564451E-1,-7.118458E-2,1.34168565E-2,-7.269E-2,-3.3838738E-2,5.8805333E-3,-3.870227E-2,-2.6959304E-3,4.78149E-2],"split_indices":[2,3,3,2,0,0,1,1,1,1,3,0,0,0,0,0,0,0,0],"split_type":[0,0,0,0,0,0,0,0,0,0,0,0,0,0,0,0,0,0,0],"sum_hessian":[9.882543E1,5.504732E1,4.377811E1,5.0572887E1,4.474431E0,1.4032E1,2.974611E1,9.286518E0,4.128637E1,1.1405584E1,1.8340527E1,5.0876465E0,4.198872E0,3.710298E1,4.18339E0,6.94513E0,4.4604545E0,7.9621353E0,1.0378392E1],"tree_param":{"num_deleted":"0","num_feature":"4","num_nodes":"19","size_leaf_vector":"0"}},{"base_weights":[-7.4527514E-1,-1.1170715E0,3.0100957E-2,-1.3396716E0,-8.101952E-1,-8.774232E-1,5.884247E-1,-1.4007919E0,-6.8001616E-1,3.4196314E-1,-1.0141125E0,-1.2038541E0,-4.5529E-1,2.6975363E-1,1.0546819E0,-1.4813E0,-8.39519E-1,-6.6122633E-1,-1.2154477E0,6.313523E-1,-1.9751586E-1],"categories":[],"categories_nodes":[],"categories_segments":[],"categories_sizes":[],"default_left":[1,1,1,1,1,1,1,1,1,0,1,0,0,1,0,1,1,0,0,0,0],"id":6,"left_children":[1,3,5,-1,9,11,13,-1,-1,-1,17,-1,-1,19,-1,-1,-1,-1,-1,-1,-1],"loss_changes":[2.9212498E1,3.5895844E0,1.7631184E1,5.848999E-1,7.7012806E0,1.2799597E0,2.91156E0,2.907791E-1,0E0,0E0,1.1037235E0,0E0,0E0,2.5107343E0,0E0,0E0,0E0,0E0,0E0,0E0,0E0],"parents":[2147483647,0,0,1,1,2,2,3,3,4,4,5,5,6,6,7,7,10,10,13,13],"right_children":[2,4,6,-1,10,12,14,-1,-1,-1,18,-1,-1,20,-1,-1,-1,-1,-1,-1,-1],"split_conditions":[3.3789527E-1,1.3196506E1,2.2033995E-1,-6.698358E-2,6.0545936E-2,5.703816E-1,2.9357338E-1,-7.003959E-2,-3.400081E-2,1.7098157E-2,2.3024946E-1,-6.0192704E-2,-2.27645E-2,2.5361872E-1,5.2734096E-2,-7.4065E-2,-4.1975953E-2,-3.3061318E-2,-6.0772385E-2,3.1567615E-2,-9.875793E-3],"split_indices":[2,0,3,3,2,2,3,2147483647,2147483647,0,3,0,0,3,0,2147483647,2147483647,0,0,0,0],"split_type":[0,0,0,0,0,0,0,0,0,0,0,0,0,0,0,0,0,0,0,0,0],"sum_hessian":[1.0021622E2,6.7438515E1,3.2777702E1,3.7135628E1,3.0302887E1,1.2266906E1,2.0510796E1,3.295829E1,4.1773396E0,4.454904E0,2.5847984E1,5.8732424E0,6.3936634E0,1.3121412E1,7.389383E0,2.739021E1,5.5680804E0,1.09463825E1,1.4901602E1,7.1992183E0,5.9221935E0],"tree_param":{"num_deleted":"4","num_feature":"4","num_nodes":"21","size_leaf_vector":"0"}},{"base_weights":[-7.2482526E-1,-1.0932701E0,-7.164718E-2,-1.3148036E0,-7.514003E-1,-8.464556E-1,4.0709364E-1,-1.5083044E0,-7.965435E-1,4.0170586E-1,-1.0104392E0,-1.2086934E0,-5.539235E-1,3.547817E-2,1.0440453E0,-1.16065726E-1,-1.1159602E0,-6.03494E-1,-1.2233956E0,5.046041E-2,-1.056049E0,-2.7044025E-1,3.04444E-1],"categories":[],"categories_nodes":[],"categories_segments":[],"categories_sizes":[],"default_left":[1,1,1,1,1,1,1,0,1,0,1,0,1,1,0,0,0,0,0,0,0,0,0],"id":7,"left_children":[1,3,5,7,9,11,13,-1,15,-1,17,-1,19,21,-1,-1,-1,-1,-1,-1,-1,-1,-1],"loss_changes":[2.380222E1,3.8115082E0,1.4016063E1,2.5210266E0,8.546162E0,8.563843E-1,5.5150166E0,0E0,2.5245056E0,0E0,1.2147503E0,0E0,3.031352E0,1.3863994E0,0E0,0E0,0E0,0E0,0E0,0E0,0E0,0E0,0E0],"parents":[2147483647,0,0,1,1,2,2,3,3,4,4,5,5,6,6,8,8,10,10,12,12,13,13],"right_children":[2,4,6,8,10,12,14,-1,16,-1,18,-1,20,22,-1,-1,-1,-1,-1,-1,-1,-1,-1],"split_conditions":[3.231038E-1,1.3215809E1,2.193031E-1,2.6808485E-1,6.0545936E-2,4.7305644E-1,2.9438007E-1,-7.541522E-2,3.1108892E-1,2.0085294E-2,2.3257917E-1,-6.043467E-2,2.3835678E1,4.9603152E-1,5.2202266E-2,-5.8032866E-3,-5.5798013E-2,-3.01747E-2,-6.116978E-2,2.5230206E-3,-5.280245E-2,-1.3522013E-2,1.5222199E-2],"split_indices":[2,0,3,3,2,2,3,0,3,0,3,0,0,2,0,0,0,0,0,0,0,0,0],"split_type":[0,0,0,0,0,0,0,0,0,0,0,0,0,0,0,0,0,0,0,0,0,0,0],"sum_hessian":[9.822961E1,6.237261E1,3.5857E1,3.612035E1,2.625226E1,1.3400785E1,2.2456213E1,2.4909546E1,1.1210804E1,4.7145576E0,2.1537703E1,4.587792E0,8.812993E0,1.484879E1,7.607422E0,4.0168753E0,7.193929E0,8.716045E0,1.2821656E1,4.407413E0,4.4055805E0,6.9445157E0,7.9042745E0],"tree_param":{"num_deleted":"0","num_feature":"4","num_nodes":"23","size_leaf_vector":"0"}},{"base_weights":[-6.352574E-1,-9.108274E-1,1.2397563E-1,-9.902566E-1,1.7291227E-1,-9.4914794E-1,5.005682E-1,-1.0448387E0,-3.187825E-1,2.2989555E-1,1.2509649E0,-1.1482728E0,-5.901599E-1,-9.43467E-3,7.645357E-1],"categories":[],"categories_nodes":[],"categories_segments":[],"categories_sizes":[],"default_left":[1,1,1,1,0,0,1,1,0,1,0,0,0,0,0],"id":8,"left_children":[1,3,5,7,-1,-1,9,11,-1,13,-1,-1,-1,-1,-1],"loss_changes":[2.1191399E1,6.5444794E0,1.167323E1,2.2005234E0,0E0,0E0,4.0113916E0,2.308342E0,0E0,2.1543865E0,0E0,0E0,0E0,0E0,0E0],"parents":[2147483647,0,0,1,1,2,2,3,3,6,6,7,7,9,9],"right_children":[2,4,6,8,-1,-1,10,12,-1,14,-1,-1,-1,-1,-1],"split_conditions":[4.0371573E-1,2.1547916E1,2.0733449E-1,3.7934107E-1,8.645614E-3,-4.7457397E-2,3.0180842E-1,2.5550577E-1,-1.5939126E-2,9.1036165E-1,6.254824E-2,-5.7413638E-2,-2.9507995E-2,-4.717335E-4,3.8226787E-2],"split_indices":[2,0,3,3,0,0,3,2,0,2,0,0,0,0,0],"split_type":[0,0,0,0,0,0,0,0,0,0,0,0,0,0,0],"sum_hessian":[9.9746864E1,7.303764E1,2.6709225E1,6.813054E1,4.9071026E0,6.5432744E0,2.016595E1,6.2494442E1,5.636096E0,1.5780323E1,4.385627E0,4.966962E1,1.2824822E1,1.157919E1,4.201133E0],"tree_param":{"num_deleted":"0","num_feature":"4","num_nodes":"15","size_leaf_vector":"0"}},{"base_weights":[-6.629808E-1,-1.1110435E0,-2.0496443E-1,-1.1982814E0,-2.124118E-1,-9.3330866E-1,1.6941638E-1,-4.3472302E-1,-1.2627214E0,-2.5201848E-1,5.162981E-1,-1.3234736E0,-5.966288E-1,8.376933E-1,-9.1834176E-1,1.8865748E-1,1.2330195E0],"categories":[],"categories_nodes":[],"categories_segments":[],"categories_sizes":[],"default_left":[1,1,1,1,0,0,1,0,1,1,1,0,0,0,0,0,0],"id":9,"left_children":[1,3,5,7,-1,-1,9,-1,11,13,15,-1,-1,-1,-1,-1,-1],"loss_changes":[2.0213219E1,3.6748161E0,1.3923441E1,1.6884003E0,0E0,0E0,5.128197E0,0E0,8.859558E-1,1.2465173E1,4.2481637E0,0E0,0E0,0E0,0E0,0E0,0E0],"parents":[2147483647,0,0,1,1,2,2,3,3,6,6,8,8,9,9,10,10],"right_children":[2,4,6,8,-1,-1,10,-1,12,14,16,-1,-1,-1,-1,-1,-1],"split_conditions":[3.3607476E0,3.7922817E-1,2.0779493E-1,7.486095E0,-1.062059E-2,-4.6665434E-2,6.3588915E0,-2.173615E-2,1.59088E1,1.4756428E1,3.008622E-1,-6.617368E-2,-2.983144E-2,4.1884664E-2,-4.591709E-2,9.432874E-3,6.1650973E-2],"split_indices":[1,3,3,0,0,0,1,0,0,0,3,0,0,0,0,0,0],"split_type":[0,0,0,0,0,0,0,0,0,0,0,0,0,0,0,0,0],"sum_hessian":[9.8605316E1,4.91235E1,4.9481815E1,4.4472652E1,4.6508512E0,1.6292517E1,3.31893E1,4.0640535E0,4.04086E1,1.5107802E1,1.80815E1,3.6126606E1,4.2819924E0,5.6350017E0,9.472801E0,1.327588E1,4.8056183E0],"tree_param":{"num_deleted":"0","num_feature":"4","num_nodes":"17","size_leaf_vector":"0"}},{"base_weights":[-6.7273104E-1,-9.6454203E-1,-4.9877833E-3,-1.1952413E0,-6.976E-1,-6.949115E-1,5.3436476E-1,-6.398506E-1,-1.2474976E0,-7.360424E-2,-8.3018357E-1,-4.1907582E-1,-8.5931814E-1,2.6756507E-1,1.0675532E0,-1.3903524E0,-8.965154E-1,-1.1355646E0,-2.732303E-1,8.3742654E-1,-4.722138E-1],"categories":[],"categories_nodes":[],"categories_segments":[],"categories_sizes":[],"default_left":[1,1,1,1,1,1,1,1,1,0,1,1,1,1,0,1,1,0,0,0,0],"id":10,"left_children":[1,3,5,-1,9,-1,13,-1,-1,-1,17,-1,-1,19,-1,-1,-1,-1,-1,-1,-1],"loss_changes":[1.9046303E1,3.3557854E0,1.1809517E1,2.2014236E-1,2.74683E0,2.711439E-1,2.2488513E0,0E0,3.0878448E-1,0E0,4.4342365E0,0E0,0E0,5.964217E0,0E0,0E0,0E0,0E0,0E0,0E0,0E0],"parents":[2147483647,0,0,1,1,2,2,3,3,4,4,5,5,6,6,8,8,10,10,13,13],"right_children":[2,4,6,-1,10,-1,14,-1,-1,-1,18,-1,-1,20,-1,-1,-1,-1,-1,-1,-1],"split_conditions":[6.4318533E0,2.4657995E-1,2.2348015E-1,-5.9762068E-2,6.0545936E-2,-3.4745574E-2,8.912596E-1,-3.1992532E-2,-6.237488E-2,-3.6802122E-3,2.067309E-1,-2.0953791E-2,-4.2965908E-2,9.276743E0,5.3377658E-2,-6.951762E-2,-4.4825774E-2,-5.677823E-2,-1.3661516E-2,4.1871328E-2,-2.361069E-2],"split_indices":[1,3,3,3,2,3,2,2147483647,2147483647,0,2,2147483647,2147483647,1,0,2147483647,2147483647,0,0,0,0],"split_type":[0,0,0,0,0,0,0,0,0,0,0,0,0,0,0,0,0,0,0,0,0],"sum_hessian":[9.6771095E1,6.703258E1,2.9738514E1,3.4091747E1,3.294083E1,1.29214525E1,1.6817062E1,4.0708857E0,3.0020863E1,6.0451717E0,2.6895658E1,6.1509433E0,6.7705092E0,1.2209515E1,4.6075473E0,1.9231785E1,1.0789078E1,1.6699978E1,1.0195681E1,6.8222876E0,5.3872266E0],"tree_param":{"num_deleted":"6","num_feature":"4","num_nodes":"21","size_leaf_vector":"0"}},{"base_weights":[-6.245025E-1,-9.2134637E-1,-5.4402318E-2,-1.250655E0,-6.709145E-1,6.105998E-1,-1.803707E-1,1.549239E-1,-8.040554E-1,-3.659515E-1,4.633232E-1,-2.5251207E-1,-9.481342E-1,-8.66083E-1,-2.0563509E-1],"categories":[],"categories_nodes":[],"categories_segments":[],"categories_sizes":[],"default_left":[1,1,1,0,1,0,1,0,1,1,0,0,0,0,0],"id":11,"left_children":[1,3,5,-1,7,-1,9,-1,11,13,-1,-1,-1,-1,-1],"loss_changes":[1.6227165E1,4.371872E0,2.957979E0,0E0,4.308275E0,0E0,3.6761398E0,0E0,2.377224E0,1.6935556E0,0E0,0E0,0E0,0E0,0E0],"parents":[2147483647,0,0,1,1,2,2,4,4,6,6,8,8,9,9],"right_children":[2,4,6,-1,8,-1,10,-1,12,14,-1,-1,-1,-1,-1],"split_conditions":[3.234634E-1,1.9309199E0,4.8402014E0,-6.253275E-2,6.08394E-2,3.052999E-2,8.935149E-1,7.746195E-3,1.125189E1,6.4318533E0,2.3166161E-2,-1.2625604E-2,-4.740671E-2,-4.3304153E-2,-1.0281755E-2],"split_indices":[2,1,1,0,2,0,2,0,0,1,0,0,0,0,0],"split_type":[0,0,0,0,0,0,0,0,0,0,0,0,0,0,0],"sum_hessian":[9.518428E1,6.218772E1,3.299656E1,2.5137995E1,3.704973E1,4.6421986E0,2.835436E1,5.1210713E0,3.1928656E1,2.234401E1,6.010351E0,7.1833296E0,2.4745327E1,4.355067E0,1.7988943E1],"tree_param":{"num_deleted":"0","num_feature":"4","num_nodes":"15","size_leaf_vector":"0"}},{"base_weights":[-6.0308474E-1,-8.58801E-1,-2.5278132E-3,-1.26515E0,-6.3420933E-1,-4.368484E-1,6.885675E-1,-8.983252E-1,-3.456805E-1,-1.0165762E0,-1.7378844E-1,2.5832865E-1,8.933046E-1,-3.7904844E-1,-1.0134628E0,3.249342E-1,-8.223419E-1,-6.552581E-1,2.6547512E-1],"categories":[],"categories_nodes":[],"categories_segments":[],"categories_sizes":[],"default_left":[1,1,1,0,1,1,1,1,1,0,1,0,0,0,0,0,0,0,0],"id":12,"left_children":[1,3,5,-1,7,9,11,13,15,-1,17,-1,-1,-1,-1,-1,-1,-1,-1],"loss_changes":[1.434803E1,5.17836E0,8.977932E0,0E0,3.0585632E0,2.6238585E0,7.8608894E-1,9.5843315E-1,7.540992E0,0E0,3.100683E0,0E0,0E0,0E0,0E0,0E0,0E0,0E0,0E0],"parents":[2147483647,0,0,1,1,2,2,4,4,5,5,6,6,7,7,8,8,10,10],"right_children":[2,4,6,-1,8,10,12,14,16,-1,18,-1,-1,-1,-1,-1,-1,-1,-1],"split_conditions":[6.4318533E0,1.8787444E0,2.4564451E-1,-6.32575E-2,2.4657995E-1,2.0784592E1,2.675231E-1,9.827637E0,1.4711161E1,-5.082881E-2,2.0733449E-1,1.2916433E-2,4.466523E-2,-1.8952422E-2,-5.067314E-2,1.6246712E-2,-4.11171E-2,-3.2762907E-2,1.3273756E-2],"split_indices":[1,1,3,0,3,0,3,0,0,0,3,0,0,0,0,0,0,0,0],"split_type":[0,0,0,0,0,0,0,0,0,0,0,0,0,0,0,0,0,0,0],"sum_hessian":[9.2442986E1,6.453429E1,2.7908693E1,2.132254E1,4.321175E1,1.7364128E1,1.0544566E1,2.1456802E1,2.1754948E1,4.5257425E0,1.2838385E1,4.129257E0,6.415309E0,4.673162E0,1.678364E1,9.170783E0,1.2584164E1,5.8904033E0,6.9479814E0],"tree_param":{"num_deleted":"0","num_feature":"4","num_nodes":"19","size_leaf_vector":"0"}},{"base_weights":[-5.451429E-1,-7.3903686E-1,1.8212047E-1,-1.0951067E0,-5.6710476E-1,-6.5626264E-1,7.1592665E-1,-6.9504076E-1,-1.1861123E0,-7.0874697E-1,-8.109359E-2,1.1876459E0,3.872241E-1,-5.8565337E-2,-7.9502296E-1,-4.5371798E-1,5.554398E-1,-3.249836E-1,1.0023271E0],"categories":[],"categories_nodes":[],"categories_segments":[],"categories_sizes":[],"default_left":[1,1,1,1,1,0,1,1,1,1,1,0,1,0,0,0,0,0,0],"id":13,"left_children":[1,3,5,-1,9,-1,11,-1,-1,13,15,-1,17,-1,-1,-1,-1,-1,-1],"loss_changes":[1.3868572E1,4.098469E0,1.00036545E1,5.0374985E-2,3.6641865E0,0E0,1.6323605E0,0E0,0E0,2.2944431E0,3.4136539E0,0E0,4.4596806E0,0E0,0E0,0E0,0E0,0E0,0E0],"parents":[2147483647,0,0,1,1,2,2,3,3,4,4,6,6,9,9,10,10,12,12],"right_children":[2,4,6,-1,10,-1,12,-1,-1,14,16,-1,18,-1,-1,-1,-1,-1,-1],"split_conditions":[4.9603152E-1,1.9309199E0,2.193031E-1,-5.4755338E-2,3.174793E-1,-3.281313E-2,5.931835E-1,-3.4752037E-2,-5.9305616E-2,6.6724405E-2,2.651508E-1,5.9382297E-2,8.912596E-1,-2.928267E-3,-3.975115E-2,-2.2685898E-2,2.7771989E-2,-1.624918E-2,5.0116356E-2],"split_indices":[2,1,3,2,3,0,2,2147483647,2147483647,2,2,0,2,0,0,0,0,0,0],"split_type":[0,0,0,0,0,0,0,0,0,0,0,0,0,0,0,0,0,0,0],"sum_hessian":[9.639562E1,7.609263E1,2.0302996E1,2.3029343E1,5.3063286E1,7.8089504E0,1.2494046E1,5.8685837E0,1.7160759E1,4.0733574E1,1.2329714E1,4.057649E0,8.436397E0,4.9686766E0,3.5764896E1,7.9582596E0,4.3714542E0,4.128138E0,4.3082585E0],"tree_param":{"num_deleted":"2","num_feature":"4","num_nodes":"19","size_leaf_vector":"0"}},{"base_weights":[-5.369715E-1,-9.478192E-1,-8.644331E-2,-1.0104356E0,-2.812863E-1,-2.019515E-1,6.590409E-1,-3.6169213E-1,-1.0671413E0,-7.939252E-3,-8.3925766E-1,-1.2007241E0,-7.5038433E-1,-3.0796954E-1,7.2419626E-1,-1.2051667E0,-3.1075206E-1],"categories":[],"categories_nodes":[],"categories_segments":[],"categories_sizes":[],"default_left":[1,1,1,1,0,1,0,0,1,1,1,0,0,0,0,0,0],"id":14,"left_children":[1,3,5,7,-1,9,-1,-1,11,13,15,-1,-1,-1,-1,-1,-1],"loss_changes":[1.7560585E1,1.7921638E0,4.1425266E0,1.2728462E0,0E0,5.0727777E0,0E0,0E0,8.318939E-1,7.3627667E0,1.4776297E0,0E0,0E0,0E0,0E0,0E0,0E0],"parents":[2147483647,0,0,1,1,2,2,3,3,5,5,8,8,9,9,10,10],"right_children":[2,4,6,8,-1,10,-1,-1,12,14,16,-1,-1,-1,-1,-1,-1],"split_conditions":[2.3472485E-1,1.8276127E1,9.312645E-1,7.8294497E0,-1.4064315E-2,6.287662E-1,3.2952048E-2,-1.8084606E-2,1.3215809E1,4.7305644E-1,7.6074445E-1,-6.003621E-2,-3.7519217E-2,-1.5398477E-2,3.6209814E-2,-6.0258336E-2,-1.5537604E-2],"split_indices":[2,0,2,0,0,2,0,0,0,2,2,0,0,0,0,0,0],"split_type":[0,0,0,0,0,0,0,0,0,0,0,0,0,0,0,0,0],"sum_hessian":[9.431451E1,4.875224E1,4.5562267E1,4.409388E1,4.6583595E0,4.0081112E1,5.4811544E0,4.137542E0,3.9956337E1,3.1503254E1,8.577859E0,2.6141218E1,1.3815118E1,2.2756874E1,8.74638E0,4.3120213E0,4.265837E0],"tree_param":{"num_deleted":"0","num_feature":"4","num_nodes":"17","size_leaf_vector":"0"}},{"base_weights":[-5.724991E-1,-8.765928E-1,-3.961976E-2,-9.5877177E-1,-4.193667E-1,-7.1238226E-1,3.7398636E-1,-5.438931E-1,-1.0449141E0,1.1156274E-1,-7.689728E-1,-1.0305531E0,-4.5352498E-1,5.604403E-2,9.6907187E-1,-8.3882475E-1,-1.3085096E-1,-1.270991E0,-8.5151964E-1,3.761566E-1,-3.765524E-1],"categories":[],"categories_nodes":[],"categories_segments":[],"categories_sizes":[],"default_left":[1,1,1,1,1,1,1,1,1,0,0,0,0,1,0,0,0,0,0,0,0],"id":15,"left_children":[1,3,5,7,9,11,13,15,17,-1,-1,-1,-1,19,-1,-1,-1,-1,-1,-1,-1],"loss_changes":[1.4831907E1,1.7908287E0,9.833066E0,1.1718712E0,2.0662193E0,6.389551E-1,4.0980043E0,1.1641588E0,6.3311386E-1,0E0,0E0,0E0,0E0,2.2694678E0,0E0,0E0,0E0,0E0,0E0,0E0,0E0],"parents":[2147483647,0,0,1,1,2,2,3,3,4,4,5,5,6,6,7,7,8,8,13,13],"right_children":[2,4,6,8,10,12,14,16,18,-1,-1,-1,-1,20,-1,-1,-1,-1,-1,-1,-1],"split_conditions":[3.234634E-1,4.587277E0,2.193031E-1,6.0545936E-2,5.604068E0,4.7305644E-1,2.9438007E-1,1.7465286E0,1.1726723E-1,5.578137E-3,-3.8448643E-2,-5.1527657E-2,-2.267625E-2,2.5134254E-1,4.8453595E-2,-4.1941237E-2,-6.542548E-3,-6.354955E-2,-4.257598E-2,1.880783E-2,-1.882762E-2],"split_indices":[2,1,3,2,1,2,3,1,2,0,0,0,0,3,0,0,0,0,0,0,0],"split_type":[0,0,0,0,0,0,0,0,0,0,0,0,0,0,0,0,0,0,0,0,0],"sum_hessian":[9.0743996E1,5.7363655E1,3.3380337E1,4.769434E1,9.669318E0,1.2433703E1,2.0946632E1,9.457861E0,3.8236477E1,4.10937E0,5.5599484E0,4.240363E0,8.19334E0,1.4365626E1,6.581006E0,4.9163723E0,4.5414886E0,1.5059613E1,2.3176865E1,8.331252E0,6.034374E0],"tree_param":{"num_deleted":"0","num_feature":"4","num_nodes":"21","size_leaf_vector":"0"}},{"base_weights":[-5.099596E-1,-8.8461447E-1,-1.854332E-1,-9.8051405E-1,-5.2630965E-2,-6.776832E-1,-3.2149488E-3,-7.452108E-1,-1.155684E0,-1.0417985E0,-3.805309E-1,7.5697285E-1,-1.806843E-1,-1.0379841E0,-8.5713044E-2,-1.2497417E0,-6.414132E-1,-2.354556E-2,-6.575229E-1,-8.915654E-1,1.6371419E-1],"categories":[],"categories_nodes":[],"categories_segments":[],"categories_sizes":[],"default_left":[1,1,1,1,0,1,1,1,1,0,1,0,1,0,0,1,1,0,0,0,0],"id":16,"left_children":[1,3,5,7,-1,9,11,13,-1,-1,17,-1,19,-1,-1,-1,-1,-1,-1,-1,-1],"loss_changes":[1.1086111E1,3.353836E0,4.5585966E0,7.137909E-1,0E0,1.0892897E0,5.2787914E0,3.6034203E0,1.701088E-1,0E0,8.879651E-1,0E0,7.908972E0,0E0,0E0,0E0,0E0,0E0,0E0,0E0,0E0],"parents":[2147483647,0,0,1,1,2,2,3,3,5,5,6,6,7,7,8,8,10,10,12,12],"right_children":[2,4,6,8,-1,10,12,14,-1,-1,18,-1,20,-1,-1,-1,-1,-1,-1,-1,-1],"split_conditions":[3.3327231E0,3.8898653E-1,1.8825144E-1,1.1009162E1,-2.6315483E-3,1.712234E1,1.4981249E1,2.5938326E-1,-5.77842E-2,-5.2089926E-2,2.225288E1,3.7848644E-2,6.3588915E0,-5.1899206E-2,-4.285652E-3,-6.2487084E-2,-3.2070663E-2,-1.177278E-3,-3.2876145E-2,-4.457827E-2,8.18571E-3],"split_indices":[1,3,3,0,0,0,0,3,0,0,0,0,1,0,0,2147483647,2147483647,0,0,0,0],"split_type":[0,0,0,0,0,0,0,0,0,0,0,0,0,0,0,0,0,0,0,0,0],"sum_hessian":[9.152921E1,4.168233E1,4.984688E1,3.7214207E1,4.468125E0,1.2732247E1,3.7114635E1,1.8123573E1,1.9090633E1,4.5952964E0,8.1369505E0,6.40656E0,3.0708076E1,1.21540165E1,5.969556E0,1.4929819E1,4.1608143E0,4.0292573E0,4.107693E0,9.503356E0,2.120472E1],"tree_param":{"num_deleted":"2","num_feature":"4","num_nodes":"21","size_leaf_vector":"0"}},{"base_weights":[-5.1449835E-1,-5.950858E-1,9.2240155E-1,-8.457582E-1,-3.105948E-1,-1.043843E0,-6.665711E-1,-7.9485154E-1,2.421839E-1,-6.7094046E-1,-1.1844198E0,-3.5614666E-1,-9.952283E-1,-1.6389655E-1,-9.8225623E-1,-1.6753699E-1,5.774486E-1],"categories":[],"categories_nodes":[],"categories_segments":[],"categories_sizes":[],"default_left":[1,1,0,1,1,1,1,1,1,1,1,0,0,0,0,0,0],"id":17,"left_children":[1,3,-1,5,7,-1,11,13,15,-1,-1,-1,-1,-1,-1,-1,-1],"loss_changes":[1.11442585E1,5.959326E0,0E0,9.2978287E-1,1.1555343E1,2.5294495E-1,2.381177E0,2.542017E0,2.9248512E0,0E0,0E0,0E0,0E0,0E0,0E0,0E0,0E0],"parents":[2147483647,0,0,1,1,3,3,4,4,5,5,6,6,7,7,8,8],"right_children":[2,4,-1,6,8,-1,12,14,16,-1,-1,-1,-1,-1,-1,-1,-1],"split_conditions":[9.312645E-1,2.4657995E-1,4.6120077E-2,3.393117E0,2.0747523E-1,-5.219215E-2,7.586595E0,2.7547657E-1,2.9473358E-1,-3.3547025E-2,-5.922099E-2,-1.7807333E-2,-4.9761415E-2,-8.1948275E-3,-4.911281E-2,-8.37685E-3,2.887243E-2],"split_indices":[2,3,0,1,2,3,1,3,3,2147483647,2147483647,0,0,0,0,0,0],"split_type":[0,0,0,0,0,0,0,0,0,0,0,0,0,0,0,0,0],"sum_hessian":[9.050024E1,8.6248924E1,4.2513156E0,4.480075E1,4.144817E1,1.898634E1,2.5814413E1,2.1860046E1,1.9588125E1,6.7784705E0,1.2207869E1,1.4347068E1,1.1467345E1,5.4352946E0,1.6424751E1,9.040288E0,1.0547836E1],"tree_param":{"num_deleted":"2","num_feature":"4","num_nodes":"17","size_leaf_vector":"0"}},{"base_weights":[-5.1577204E-1,-7.32711E-1,-2.0815352E-2,-1.1071936E0,-6.156994E-1,-3.848499E-1,5.0484324E-1,-3.5454635E-2,-7.048553E-1,-8.0346215E-1,-1.6279362E-1,9.3000007E-1,4.7407046E-2,-9.8679864E-1,-5.2313095E-1,1.9592856E-1,-7.271162E-1],"categories":[],"categories_nodes":[],"categories_segments":[],"categories_sizes":[],"default_left":[1,1,1,0,1,1,1,0,1,0,1,0,0,0,0,0,0],"id":18,"left_children":[1,3,5,-1,7,9,11,-1,13,-1,15,-1,-1,-1,-1,-1,-1],"loss_changes":[1.0002165E1,2.1591911E0,5.831517E0,0E0,2.6470509E0,1.539829E0,2.3842158E0,0E0,1.7749519E0,0E0,2.7736645E0,0E0,0E0,0E0,0E0,0E0,0E0],"parents":[2147483647,0,0,1,1,2,2,4,4,5,5,6,6,8,8,10,10],"right_children":[2,4,6,-1,8,10,12,-1,14,-1,16,-1,-1,-1,-1,-1,-1],"split_conditions":[6.4318533E0,1.4488349E0,2.4429692E-1,-5.535968E-2,9.527996E0,2.079359E1,2.347718E1,-1.7727318E-3,1.3215809E1,-4.017311E-2,1.5126676E1,4.6500005E-2,2.3703524E-3,-4.933993E-2,-2.6156548E-2,9.7964285E-3,-3.6355812E-2],"split_indices":[1,1,3,0,0,0,0,0,0,0,1,0,0,0,0,0,0],"split_type":[0,0,0,0,0,0,0,0,0,0,0,0,0,0,0,0,0],"sum_hessian":[9.229376E1,6.3834652E1,2.8459114E1,1.3182582E1,5.065207E1,1.6972858E1,1.1486255E1,6.9324574E0,4.3719612E1,4.9752316E0,1.1997627E1,5.4176893E0,6.0685654E0,1.5398517E1,2.8321095E1,7.734052E0,4.263575E0],"tree_param":{"num_deleted":"0","num_feature":"4","num_nodes":"17","size_leaf_vector":"0"}},{"base_weights":[-5.038247E-1,-7.81895E-1,-1.4158042E-1,-1.0674417E0,-5.6618154E-1,-7.036249E-1,1.7326352E-1,2.0401713E-1,-7.149723E-1,-2.0416495E-1,-8.82288E-1,-3.5210483E-2,6.079293E-1,-1.8769698E-2,-8.827877E-1,-2.8388843E-1,5.31551E-1],"categories":[],"categories_nodes":[],"categories_segments":[],"categories_sizes":[],"default_left":[1,1,1,0,1,1,1,0,1,0,0,1,0,0,0,0,0],"id":19,"left_children":[1,3,5,-1,7,9,11,-1,13,-1,-1,15,-1,-1,-1,-1,-1],"loss_changes":[8.817606E0,2.470642E0,7.1495314E0,0E0,3.6490307E0,1.109859E0,2.4007506E0,0E0,3.0025473E0,0E0,0E0,2.7852118E0,0E0,0E0,0E0,0E0,0E0],"parents":[2147483647,0,0,1,1,2,2,4,4,5,5,6,6,8,8,11,11],"right_children":[2,4,6,-1,8,10,12,-1,14,-1,-1,16,-1,-1,-1,-1,-1],"split_conditions":[4.5841866E0,1.9309199E0,2.0779493E-1,-5.3372085E-2,6.08394E-2,6.1531286E0,2.908402E-1,1.0200857E-2,2.2743979E0,-1.0208248E-2,-4.41144E-2,7.524909E-1,3.0396465E-2,-9.384849E-4,-4.4139385E-2,-1.41944215E-2,2.657755E-2],"split_indices":[1,1,3,0,2,1,3,0,1,0,0,2,0,0,0,0,0],"split_type":[0,0,0,0,0,0,0,0,0,0,0,0,0,0,0,0,0],"sum_hessian":[8.763703E1,4.8923317E1,3.8713715E1,1.9354498E1,2.9568819E1,1.3456725E1,2.5256989E1,4.7272477E0,2.4841572E1,4.1100183E0,9.346707E0,1.769095E1,7.5660377E0,5.040906E0,1.9800667E1,1.2642842E1,5.0481076E0],"tree_param":{"num_deleted":"0","num_feature":"4","num_nodes":"17","size_leaf_vector":"0"}},{"base_weights":[-4.453309E-1,-6.633072E-1,6.559881E-2,-9.5591235E-1,-5.1000845E-1,-5.3357154E-1,5.922404E-1,-1.0707283E0,-5.407311E-1,1.1047555E-1,-6.1850315E-1,-2.4436945E-1,-7.338045E-1,1.0768201E0,8.094289E-2,-9.8085994E-1,-4.6247986E-1],"categories":[],"categories_nodes":[],"categories_segments":[],"categories_sizes":[],"default_left":[1,1,1,1,1,1,1,1,1,0,1,1,1,0,0,0,0],"id":20,"left_children":[1,3,5,-1,9,-1,13,-1,-1,-1,15,-1,-1,-1,-1,-1,-1],"loss_changes":[9.747421E0,2.2560272E0,8.825148E0,3.6881828E-1,2.914672E0,5.815687E-1,3.5860696E0,0E0,0E0,0E0,1.5895033E0,0E0,0E0,0E0,0E0,0E0,0E0],"parents":[2147483647,0,0,1,1,2,2,3,3,4,4,5,5,6,6,10,10],"right_children":[2,4,6,-1,10,-1,14,-1,-1,-1,16,-1,-1,-1,-1,-1,-1],"split_conditions":[6.4318533E0,1.9309199E0,2.2503784E-1,-4.779562E-2,9.619223E0,-2.6678577E-2,9.542E0,-5.3536415E-2,-2.7036553E-2,5.5237776E-3,1.3207577E1,-1.2218473E-2,-3.6690228E-2,5.3841006E-2,4.0471447E-3,-4.9042996E-2,-2.3123993E-2],"split_indices":[1,1,3,3,0,3,1,2147483647,2147483647,0,0,2147483647,2147483647,0,0,0,0],"split_type":[0,0,0,0,0,0,0,0,0,0,0,0,0,0,0,0,0],"sum_hessian":[8.613144E1,6.0165207E1,2.596623E1,1.888431E1,4.12809E1,1.2140497E1,1.3825733E1,1.3556326E1,5.3279834E0,6.1410933E0,3.5139805E1,5.8753047E0,6.265193E0,6.530414E0,7.2953196E0,8.985185E0,2.6154621E1],"tree_param":{"num_deleted":"4","num_feature":"4","num_nodes":"17","size_leaf_vector":"0"}},{"base_weights":[-4.0885213E-1,-8.2600456E-1,-8.285119E-2,-2.967468E-1,-9.5712066E-1,-5.5068225E-1,1.5230861E-1,-5.450007E-1,7.925595E-3,-1.0742738E0,-5.401975E-1,-4.396692E-2,-7.216102E-1,-6.1470145E-1,2.7640876E-1,-9.619208E-1,-4.806079E-1,1.357601E-1,8.3625656E-1],"categories":[],"categories_nodes":[],"categories_segments":[],"categories_sizes":[],"default_left":[1,1,1,1,1,1,1,0,0,0,0,0,1,0,1,1,1,0,0],"id":21,"left_children":[1,3,5,7,9,11,13,-1,-1,-1,-1,-1,-1,-1,17,-1,-1,-1,-1],"loss_changes":[1.1830522E1,2.3717213E0,5.60956E0,6.887122E-1,8.958149E-1,1.4422069E0,3.426046E0,0E0,0E0,0E0,0E0,0E0,2.7086258E-1,0E0,2.2592413E0,0E0,0E0,0E0,0E0],"parents":[2147483647,0,0,1,1,2,2,3,3,4,4,5,5,6,6,12,12,14,14],"right_children":[2,4,6,8,10,12,14,-1,-1,-1,-1,-1,-1,-1,18,-1,-1,-1,-1],"split_conditions":[3.3353553E0,6.0545936E-2,2.0779493E-1,4.041204E-2,3.0044425E-1,2.4667072E-1,1.6270798E-1,-2.7250035E-2,3.9627976E-4,-5.371369E-2,-2.7009875E-2,-2.198346E-3,-3.608051E-2,-3.0735074E-2,8.467006E-1,-4.8096042E-2,-2.4030395E-2,6.788005E-3,4.181283E-2],"split_indices":[1,2,3,2,3,2,2,0,0,0,0,0,2,0,2,2147483647,2147483647,0,0],"split_type":[0,0,0,0,0,0,0,0,0,0,0,0,0,0,0,0,0,0,0],"sum_hessian":[8.649776E1,3.7271305E1,4.922645E1,8.048139E0,2.9223166E1,1.6018147E1,3.3208305E1,4.0001125E0,4.048026E0,2.158196E1,7.641204E0,4.3575935E0,1.1660554E1,4.0741363E0,2.913417E1,4.3407345E0,7.3198195E0,2.427758E1,4.85659E0],"tree_param":{"num_deleted":"2","num_feature":"4","num_nodes":"19","size_leaf_vector":"0"}},{"base_weights":[-4.1279113E-1,-8.0661464E-1,-1.8882762E-1,-9.8735535E-1,-2.7903992E-1,8.9081305E-1,-2.876159E-1,1.7404284E-1,-6.6901E-1,-6.214871E-1,5.5458765E-2,-6.181168E-2,-7.1800363E-1,4.110761E-1,-3.4726873E-1],"categories":[],"categories_nodes":[],"categories_segments":[],"categories_sizes":[],"default_left":[1,1,1,0,1,0,1,0,0,1,1,0,0,0,0],"id":22,"left_children":[1,3,5,-1,7,-1,9,-1,-1,11,13,-1,-1,-1,-1],"loss_changes":[7.519375E0,2.701994E0,6.309184E0,0E0,1.7706296E0,0E0,6.076742E0,0E0,0E0,1.4041309E0,4.0002933E0,0E0,0E0,0E0,0E0],"parents":[2147483647,0,0,1,1,2,2,4,4,6,6,9,9,10,10],"right_children":[2,4,6,-1,8,-1,10,-1,-1,12,14,-1,-1,-1,-1],"split_conditions":[1.3215809E1,1.944322E-1,6.0545936E-2,-4.9367767E-2,9.3658695E0,4.4540655E-2,4.0818864E-1,8.702142E-3,-3.34505E-2,1.4136915E1,6.306261E-1,-3.0905842E-3,-3.5900183E-2,2.0553805E-2,-1.7363437E-2],"split_indices":[0,2,2,0,0,0,2,0,0,0,2,0,0,0,0],"split_type":[0,0,0,0,0,0,0,0,0,0,0,0,0,0,0],"sum_hessian":[8.597904E1,3.0226385E1,5.5752655E1,2.1864334E1,8.36205E0,4.001628E0,5.1751026E1,4.1240907E0,4.237959E0,2.5816103E1,2.5934923E1,4.038544E0,2.177756E1,1.3762088E1,1.2172835E1],"tree_param":{"num_deleted":"0","num_feature":"4","num_nodes":"15","size_leaf_vector":"0"}},{"base_weights":[-4.1482362E-1,-6.9885916E-1,-6.003477E-2,-9.6368515E-1,-3.3587685E-1,-2.6360857E-1,5.511728E-1,-4.6603712E-1,-1.0941088E0,1.3268809E-1,-5.2266675E-1,2.8224554E-4,-9.6771914E-1,1.4165299E-1,8.8272417E-1,-1.2173553E0,-6.9462997E-1,-8.3070576E-1,-1.1383222E-1,-3.92717E-1,7.7361894E-1],"categories":[],"categories_nodes":[],"categories_segments":[],"categories_sizes":[],"default_left":[1,1,1,1,1,1,1,0,1,0,1,1,0,0,0,1,1,0,0,0,0],"id":23,"left_children":[1,3,5,7,9,11,13,-1,-1,-1,17,19,-1,-1,-1,-1,-1,-1,-1,-1,-1],"loss_changes":[8.553769E0,4.2210407E0,5.0003395E0,1.2295055E0,1.9492424E0,5.5647464E0,1.2425306E0,0E0,1.6324997E-1,0E0,1.8648777E0,7.22799E0,0E0,0E0,0E0,0E0,0E0,0E0,0E0,0E0,0E0],"parents":[2147483647,0,0,1,1,2,2,3,3,4,4,5,5,6,6,8,8,10,10,11,11],"right_children":[2,4,6,8,10,12,14,-1,-1,-1,18,20,-1,-1,-1,-1,-1,-1,-1,-1,-1],"split_conditions":[2.4657995E-1,1.7124336E1,6.5690813E0,9.568701E0,7.6745033E0,1.7043087E1,3.008622E-1,-2.3301857E-2,-5.470544E-2,6.6344044E-3,2.0779493E-1,3.0096414E0,-4.838596E-2,7.0826495E-3,4.4136208E-2,-6.0867764E-2,-3.47315E-2,-4.1535288E-2,-5.691611E-3,-1.963585E-2,3.868095E-2],"split_indices":[3,0,1,0,1,0,3,0,1,0,3,1,0,0,0,2147483647,2147483647,0,0,0,0],"split_type":[0,0,0,0,0,0,0,0,0,0,0,0,0,0,0,0,0,0,0,0,0],"sum_hessian":[8.4298584E1,4.6278885E1,3.8019703E1,2.5800331E1,2.0478552E1,2.8947126E1,9.0725765E0,6.3073773E0,1.9492954E1,5.9192944E0,1.4559257E1,2.1782774E1,7.164352E0,4.697632E0,4.374945E0,1.3332236E1,6.1607184E0,7.7146177E0,6.8446393E0,1.476932E1,7.0134544E0],"tree_param":{"num_deleted":"2","num_feature":"4","num_nodes":"21","size_leaf_vector":"0"}},{"base_weights":[-3.4100115E-1,-5.410112E-1,1.8446955E-1,-9.555999E-1,-3.7240544E-1,7.0906717E-1,-1.3986252E-1,2.4104923E-1,-5.2525204E-1,8.7291783E-1,4.0730384E-1,-6.520544E-1,7.0555586E-1,-1.7954391E-1,6.257303E-1,3.9701486E-1,-6.6047645E-1,-3.0246273E-1,-8.446566E-1],"categories":[],"categories_nodes":[],"categories_segments":[],"categories_sizes":[],"default_left":[1,1,1,0,1,1,1,1,1,1,1,1,0,0,0,0,0,1,1],"id":24,"left_children":[1,3,5,-1,7,-1,11,13,15,-1,-1,-1,-1,-1,-1,-1,-1,-1,-1],"loss_changes":[8.789631E0,3.8480663E0,4.1044655E0,0E0,4.2890825E0,9.7222805E-2,7.1207447E0,1.6558769E0,4.733535E0,0E0,0E0,4.244218E-1,0E0,0E0,0E0,0E0,0E0,0E0,0E0],"parents":[2147483647,0,0,1,1,2,2,4,4,5,5,6,6,7,7,8,8,11,11],"right_children":[2,4,6,-1,8,-1,12,14,16,-1,-1,-1,-1,-1,-1,-1,-1,-1,-1],"split_conditions":[4.6818146E-1,1.9181502E0,9.276743E0,-4.7779996E-2,1.12244215E1,3.545336E-2,9.118333E-1,1.944322E-1,5.759228E-2,4.3645892E-2,2.0365192E-2,-3.2602724E-2,3.5277795E-2,-8.977196E-3,3.1286515E-2,1.9850744E-2,-3.3023823E-2,-1.5123136E-2,-4.223283E-2],"split_indices":[2,1,1,0,0,1,2,2,2,2147483647,2147483647,2,0,0,0,0,0,2147483647,2147483647],"split_type":[0,0,0,0,0,0,0,0,0,0,0,0,0,0,0,0,0,0,0],"sum_hessian":[8.1681816E1,5.9141346E1,2.2540468E1,1.5748657E1,4.339269E1,8.158404E0,1.4382064E1,8.539947E0,3.485274E1,4.060665E0,4.0977387E0,9.098543E0,5.283521E0,4.334229E0,4.2057176E0,4.209113E0,3.064363E1,4.1452227E0,4.9533205E0],"tree_param":{"num_deleted":"4","num_feature":"4","num_nodes":"19","size_leaf_vector":"0"}},{"base_weights":[-4.2656723E-1,-5.178674E-1,8.715702E-1,-9.8192555E-1,-3.5908198E-1,-6.4203024E-1,-1.2290232E-2,-8.5518575E-1,-4.9279284E-1,-4.1319E-1,3.198884E-1],"categories":[],"categories_nodes":[],"categories_segments":[],"categories_sizes":[],"default_left":[1,1,0,0,1,1,1,0,0,0,0],"id":25,"left_children":[1,3,-1,-1,5,7,9,-1,-1,-1,-1],"loss_changes":[1.0249875E1,5.385153E0,0E0,0E0,5.839665E0,6.218376E-1,3.8337374E0,0E0,0E0,0E0,0E0],"parents":[2147483647,0,0,1,1,4,4,5,5,6,6],"right_children":[2,4,-1,-1,6,8,10,-1,-1,-1,-1],"split_conditions":[8.935149E-1,1.8787444E0,4.3578513E-2,-4.909628E-2,2.4657995E-1,1.721681E-1,2.32443E-1,-4.2759288E-2,-2.4639642E-2,-2.06595E-2,1.599442E-2],"split_indices":[2,1,0,0,3,3,2,0,0,0,0],"split_type":[0,0,0,0,0,0,0,0,0,0,0],"sum_hessian":[8.1673965E1,7.686877E1,4.8052015E0,1.8274973E1,5.8593796E1,3.1798132E1,2.6795662E1,1.1146667E1,2.0651466E1,1.2031436E1,1.4764227E1],"tree_param":{"num_deleted":"0","num_feature":"4","num_nodes":"11","size_leaf_vector":"0"}},{"base_weights":[-3.9263344E-1,-5.609491E-1,7.47221E-2,-6.442567E-1,8.163094E-2,-3.6995536E-1,6.340998E-1,-7.3123866E-1,-2.6384133E-1,1.1017873E-1,-6.921276E-1,9.432319E-1,2.5196853E-1,-9.885374E-1,-4.5448187E-1,2.3404337E-1,-8.055082E-1],"categories":[],"categories_nodes":[],"categories_segments":[],"categories_sizes":[],"default_left":[1,1,1,1,0,1,1,1,1,0,0,0,0,0,0,0,0],"id":26,"left_children":[1,3,5,7,-1,9,11,13,15,-1,-1,-1,-1,-1,-1,-1,-1],"loss_changes":[6.299651E0,3.1898232E0,5.6935363E0,1.5273743E0,0E0,2.0652492E0,9.5396614E-1,2.523716E0,3.2198632E0,0E0,0E0,0E0,0E0,0E0,0E0,0E0,0E0],"parents":[2147483647,0,0,1,1,2,2,3,3,5,5,6,6,7,7,8,8],"right_children":[2,4,6,8,-1,10,12,14,16,-1,-1,-1,-1,-1,-1,-1,-1],"split_conditions":[4.6806282E-1,3.8110048E-1,2.4564451E-1,1.8414917E1,4.081547E-3,2.3254375E1,6.310681E-1,1.4223742E-1,2.9876006E-1,5.5089365E-3,-3.460638E-2,4.7161594E-2,1.2598427E-2,-4.942687E-2,-2.2724094E-2,1.1702169E-2,-4.027541E-2],"split_indices":[2,3,3,0,0,0,2,2,2,0,0,0,0,0,0,0,0],"split_type":[0,0,0,0,0,0,0,0,0,0,0,0,0,0,0,0,0],"sum_hessian":[7.855063E1,5.760451E1,2.0946115E1,5.0991196E1,6.6133146E0,1.1858075E1,9.088039E0,4.0751114E1,1.024008E1,5.0258684E0,6.832207E0,4.212104E0,4.8759356E0,1.9785055E1,2.096606E1,5.631549E0,4.608531E0],"tree_param":{"num_deleted":"0","num_feature":"4","num_nodes":"17","size_leaf_vector":"0"}},{"base_weights":[-3.2438254E-1,-5.75622E-1,9.282956E-2,-2.3656202E-2,-6.8408847E-1,9.099692E-1,-8.851707E-2,-6.67122E-1,6.070105E-1,-8.27835E-1,-3.288392E-1,-2.6364434E-1,4.6901688E-1,-6.241377E-1,-9.8851335E-1,-2.1895315E-3,-6.613512E-1,-6.741886E-4,-5.760112E-1],"categories":[],"categories_nodes":[],"categories_segments":[],"categories_sizes":[],"default_left":[1,1,1,1,1,0,1,0,0,1,1,1,0,1,1,0,0,0,0],"id":27,"left_children":[1,3,5,7,9,-1,11,-1,-1,-1,15,17,-1,-1,-1,-1,-1,-1,-1],"loss_changes":[8.443124E0,2.9829483E0,4.666015E0,4.1640954E0,1.8638821E0,0E0,2.685218E0,0E0,0E0,3.3610725E-1,1.4875861E0,1.6920879E0,0E0,0E0,0E0,0E0,0E0,0E0,0E0],"parents":[2147483647,0,0,1,1,2,2,3,3,4,4,6,6,9,9,10,10,11,11],"right_children":[2,4,6,8,10,-1,12,-1,-1,-1,16,18,-1,-1,-1,-1,-1,-1,-1],"split_conditions":[3.3789527E-1,6.0545936E-2,1.6255352E1,1.3549122E1,3.8676748E0,4.549846E-2,9.312645E-1,-3.33561E-2,3.0350525E-2,-4.1391753E-2,2.4667072E-1,9.742636E0,2.3450844E-2,-3.1206885E-2,-4.942567E-2,-1.09476576E-4,-3.306756E-2,-3.370943E-5,-2.880056E-2],"split_indices":[2,2,0,0,1,0,2,0,0,0,2,1,0,2147483647,2147483647,0,0,0,0],"split_type":[0,0,0,0,0,0,0,0,0,0,0,0,0,0,0,0,0,0,0],"sum_hessian":[7.9038666E1,4.9094845E1,2.9943817E1,8.263249E0,4.0831596E1,4.7087655E0,2.5235052E1,4.061548E0,4.201701E0,2.8121998E1,1.27096E1,1.9604338E1,5.6307144E0,1.4554932E1,1.3567065E1,6.9191613E0,5.7904387E0,1.1187941E1,8.416398E0],"tree_param":{"num_deleted":"2","num_feature":"4","num_nodes":"19","size_leaf_vector":"0"}},{"base_weights":[-3.0056393E-1,-6.670452E-1,-1.10097975E-1,-9.335367E-1,-1.2747386E-1,5.212873E-1,-1.8094218E-1,-4.1774893E-1,-1.0516835E0,-6.824252E-1,3.7897125E-1,-2.678632E-1,4.9482298E-1,-1.6173774E-1,-6.82191E-1],"categories":[],"categories_nodes":[],"categories_segments":[],"categories_sizes":[],"default_left":[1,1,1,1,1,0,1,0,0,0,0,1,0,0,0],"id":28,"left_children":[1,3,5,7,9,-1,11,-1,-1,-1,-1,13,-1,-1,-1],"loss_changes":[5.713087E0,3.9290028E0,2.587873E0,6.993332E-1,3.2000237E0,0E0,3.1202798E0,0E0,0E0,0E0,0E0,1.8998473E0,0E0,0E0,0E0],"parents":[2147483647,0,0,1,1,2,2,3,3,4,4,6,6,11,11],"right_children":[2,4,6,8,10,-1,12,-1,-1,-1,-1,14,-1,-1,-1],"split_conditions":[1.3215809E1,2.6808485E-1,6.0814448E-2,8.191094E0,1.1726723E-1,2.6064366E-2,9.312645E-1,-2.0887448E-2,-5.258418E-2,-3.412126E-2,1.8948562E-2,6.306261E-1,2.4741149E-2,-8.086887E-3,-3.410955E-2],"split_indices":[0,3,2,0,2,0,2,0,0,0,0,2,0,0,0],"split_type":[0,0,0,0,0,0,0,0,0,0,0,0,0,0,0],"sum_hessian":[8.189946E1,2.7152357E1,5.47471E1,1.7686733E1,9.465625E0,4.881625E0,4.9865475E1,4.1417165E0,1.3545016E1,4.3507676E0,5.114857E0,4.4717346E1,5.1481285E0,3.6705994E1,8.011352E0],"tree_param":{"num_deleted":"0","num_feature":"4","num_nodes":"15","size_leaf_vector":"0"}},{"base_weights":[-3.8703838E-1,-7.464828E-1,-1.8813215E-1,-1.0102855E0,-2.4208905E-1,5.5015045E-1,-2.632358E-1,-7.509122E-1,4.3465522E-1,-7.792913E-1,-1.7312506E-1,1.4191476E-1,-3.36553E-1],"categories":[],"categories_nodes":[],"categories_segments":[],"categories_sizes":[],"default_left":[1,1,1,0,1,0,1,0,0,0,1,0,0],"id":29,"left_children":[1,3,5,-1,7,-1,9,-1,-1,-1,11,-1,-1],"loss_changes":[5.502928E0,3.4520674E0,3.036481E0,0E0,4.0645065E0,0E0,2.097719E0,0E0,0E0,0E0,2.2184734E0,0E0,0E0],"parents":[2147483647,0,0,1,1,2,2,4,4,6,6,10,10],"right_children":[2,4,6,-1,8,-1,10,-1,-1,-1,12,-1,-1],"split_conditions":[1.3211254E1,2.5938326E-1,1.4138553E1,-5.0514277E-2,1.8787444E0,2.7507523E-2,1.5353394E1,-3.754561E-2,2.173276E-2,-3.8964566E-2,1.8963303E1,7.095738E-3,-1.682765E-2],"split_indices":[0,3,0,0,1,0,0,0,0,0,0,0,0],"split_type":[0,0,0,0,0,0,0,0,0,0,0,0,0],"sum_hessian":[7.7933556E1,2.6782171E1,5.1151386E1,1.6926422E1,9.855749E0,4.1389437E0,4.7012444E1,5.5633307E0,4.2924185E0,5.851689E0,4.1160755E1,1.4103941E1,2.7056812E1],"tree_param":{"num_deleted":"0","num_feature":"4","num_nodes":"13","size_leaf_vector":"0"}},{"base_weights":[-1.9703431E-1,-7.91007E-1,-3.6804285E-2,-4.319882E-1,-8.724631E-1,-1.0891809E-1,6.4688015E-1,-2.6689522E-2,-6.2869704E-1,-1.4880799E-1,5.556943E-1],"categories":[],"categories_nodes":[],"categories_segments":[],"categories_sizes":[],"default_left":[1,1,1,1,1,1,0,1,0,0,0],"id":30,"left_children":[1,-1,5,-1,-1,7,-1,9,-1,-1,-1],"loss_changes":[7.4692354E0,1.1111355E-1,3.1813579E0,0E0,0E0,2.4593067E0,0E0,3.7143896E0,0E0,0E0,0E0],"parents":[2147483647,0,0,1,1,2,2,5,5,7,7],"right_children":[2,-1,6,-1,-1,8,-1,10,-1,-1,-1],"split_conditions":[1.9309199E0,-3.955035E-2,9.3204814E-1,-2.159941E-2,-4.3623157E-2,1.0161029E1,3.234401E-2,4.9603152E-1,-3.1434853E-2,-7.4403994E-3,2.7784714E-2],"split_indices":[1,2,2,2147483647,2147483647,1,0,2,0,0,0],"split_type":[0,0,0,0,0,0,0,0,0,0,0],"sum_hessian":[7.7787544E1,1.5689514E1,6.209803E1,4.0672026E0,1.1622312E1,5.6933544E1,5.1644855E0,5.0064785E1,6.868761E0,4.2002056E1,8.062726E0],"tree_param":{"num_deleted":"2","num_feature":"4","num_nodes":"11","size_leaf_vector":"0"}},{"base_weights":[-2.5476873E-1,-4.098151E-1,2.043665E-1,-4.9899858E-1,3.9896855E-1,6.73228E-1,-2.1343464E-1,-4.175716E-1,-1.1007487E0,3.339151E-1,8.7167144E-1,-5.7327324E-1,2.9222363E-1,-8.563522E-1,-2.999717E-1],"categories":[],"categories_nodes":[],"categories_segments":[],"categories_sizes":[],"default_left":[1,1,1,1,0,1,1,1,0,1,1,0,0,0,0],"id":31,"left_children":[1,3,5,7,-1,-1,11,13,-1,-1,-1,-1,-1,-1,-1],"loss_changes":[5.3980727E0,4.248458E0,3.9660826E0,2.0396318E0,0E0,3.441968E-1,2.183138E0,2.144559E0,0E0,0E0,0E0,0E0,0E0,0E0,0E0],"parents":[2147483647,0,0,1,1,2,2,3,3,5,5,6,6,7,7],"right_children":[2,4,6,8,-1,-1,12,14,-1,-1,-1,-1,-1,-1,-1],"split_conditions":[4.7305644E-1,2.1551289E1,1.0161029E1,1.9111786E1,1.9948428E-2,3.3661403E-2,9.312645E-1,1.4471579E0,-5.5037435E-2,1.6695756E-2,4.3583572E-2,-2.8663663E-2,1.4611182E-2,-4.281761E-2,-1.4998585E-2],"split_indices":[2,0,1,0,0,0,2,1,0,2147483647,2147483647,0,0,0,0],"split_type":[0,0,0,0,0,0,0,0,0,0,0,0,0,0,0],"sum_hessian":[7.365253E1,5.5139782E1,1.8512747E1,5.0008503E1,5.131281E0,8.435305E0,1.0077442E1,4.5540157E1,4.468343E0,4.10286E0,4.3324447E0,5.809584E0,4.267858E0,8.297767E0,3.7242393E1],"tree_param":{"num_deleted":"2","num_feature":"4","num_nodes":"15","size_leaf_vector":"0"}},{"base_weights":[-2.556524E-1,-5.584738E-1,-9.930375E-2,-8.439465E-1,-1.3340962E-1,8.839586E-1,-2.0243515E-1,-3.2347164E-1,-1.0280952E0,-4.6390808E-1,3.6015055E-1,-4.8332167E-1,2.7148543E-2,1.2752865E-1,-6.2146753E-1,-4.4671375E-1,2.1398734E-1],"categories":[],"categories_nodes":[],"categories_segments":[],"categories_sizes":[],"default_left":[1,1,1,1,1,0,1,0,0,0,0,1,1,0,0,0,0],"id":32,"left_children":[1,3,5,7,9,-1,11,-1,-1,-1,-1,13,15,-1,-1,-1,-1],"loss_changes":[3.8079515E0,3.2326832E0,5.7594204E0,1.230092E0,2.1676264E0,0E0,3.27756E0,0E0,0E0,0E0,0E0,2.0049949E0,2.6455123E0,0E0,0E0,0E0,0E0],"parents":[2147483647,0,0,1,1,2,2,3,3,4,4,6,6,11,11,12,12],"right_children":[2,4,6,8,10,-1,12,-1,-1,-1,-1,14,16,-1,-1,-1,-1],"split_conditions":[1.3215809E1,2.5750142E-1,6.0545936E-2,8.72448E0,1.660356E-1,4.419793E-2,3.935691E-1,-1.6173583E-2,-5.1404763E-2,-2.3195405E-2,1.8007528E-2,1.6238767E-1,2.0733449E-1,6.3764327E-3,-3.1073377E-2,-2.2335688E-2,1.0699367E-2],"split_indices":[0,3,2,0,2,0,2,0,0,0,0,3,3,0,0,0,0],"split_type":[0,0,0,0,0,0,0,0,0,0,0,0,0,0,0,0,0],"sum_hessian":[8.0600655E1,2.6568865E1,5.4031788E1,1.5304683E1,1.1264183E1,4.410461E0,4.962133E1,4.720263E0,1.0584419E1,6.782593E0,4.4815903E0,2.1820196E1,2.7801132E1,4.0386543E0,1.7781542E1,7.468438E0,2.0332693E1],"tree_param":{"num_deleted":"0","num_feature":"4","num_nodes":"17","size_leaf_vector":"0"}},{"base_weights":[-2.9575428E-1,-6.710456E-1,-6.4723074E-2,-7.874882E-1,1.7463954E-2,-2.89032E-1,2.3427173E-1,-4.1366088E-1,-1.0858314E0,-1.5366696E-1,-7.167343E-1,8.4703714E-1,-3.8201932E-2,-6.940944E-1,1.3310055E-1,-4.3644142E-1,5.320053E-1,-8.166709E-1,4.965627E-1],"categories":[],"categories_nodes":[],"categories_segments":[],"categories_sizes":[],"default_left":[1,1,1,1,0,1,1,1,0,1,0,0,1,0,0,0,0,0,0],"id":33,"left_children":[1,3,5,7,-1,9,11,13,-1,15,-1,-1,17,-1,-1,-1,-1,-1,-1],"loss_changes":[6.4655366E0,2.298544E0,3.2583275E0,2.271782E0,0E0,1.4894416E0,3.5292726E0,2.0005016E0,0E0,4.548195E0,0E0,0E0,6.839153E0,0E0,0E0,0E0,0E0,0E0,0E0],"parents":[2147483647,0,0,1,1,2,2,3,3,5,5,6,6,7,7,9,9,12,12],"right_children":[2,4,6,8,-1,10,12,14,-1,16,-1,-1,18,-1,-1,-1,-1,-1,-1],"split_conditions":[3.3538108E0,3.7736863E-1,2.4738543E-1,1.1009162E1,8.7319774E-4,1.2951906E1,1.625879E1,2.509495E-1,-5.4291572E-2,2.1562677E1,-3.5836715E-2,4.2351857E-2,6.2989426E0,-3.4704722E-2,6.6550276E-3,-2.182207E-2,2.6600266E-2,-4.0833544E-2,2.4828134E-2],"split_indices":[1,3,3,0,0,1,0,3,0,0,0,0,1,0,0,0,0,0,0],"split_type":[0,0,0,0,0,0,0,0,0,0,0,0,0,0,0,0,0,0,0],"sum_hessian":[7.407156E1,2.74982E1,4.6573368E1,2.339747E1,4.1007285E0,2.6629292E1,1.9944077E1,1.1444314E1,1.1953156E1,2.1260029E1,5.369262E0,5.4897285E0,1.4454348E1,7.3864403E0,4.0578737E0,1.5309767E1,5.950263E0,5.671358E0,8.7829895E0],"tree_param":{"num_deleted":"0","num_feature":"4","num_nodes":"19","size_leaf_vector":"0"}},{"base_weights":[-2.4865668E-1,-8.352587E-1,-1.1256793E-1,-3.0176067E-1,1.0375437E-1,-5.722043E-1,-1.5774836E-1,-2.2168916E-1,3.808157E-1,-2.1885613E-1,-7.335495E-1,3.4910274E-1,-3.278542E-1,3.3569846E-1,-6.542551E-1,1.3215956E-2,7.189664E-1],"categories":[],"categories_nodes":[],"categories_segments":[],"categories_sizes":[],"default_left":[1,0,1,1,1,1,1,1,1,1,1,0,0,0,0,0,0],"id":34,"left_children":[1,-1,3,5,7,-1,11,13,15,-1,-1,-1,-1,-1,-1,-1,-1],"loss_changes":[6.153383E0,0E0,2.6783879E0,1.2634552E0,2.8723927E0,5.062678E-1,2.1890173E0,3.8001738E0,2.112249E0,0E0,0E0,0E0,0E0,0E0,0E0,0E0,0E0],"parents":[2147483647,0,0,2,2,3,3,4,4,5,5,6,6,7,7,8,8],"right_children":[2,-1,4,6,8,-1,12,14,16,-1,-1,-1,-1,-1,-1,-1,-1],"split_conditions":[1.8787444E0,-4.1762937E-2,2.4689214E-1,4.5785046E0,2.651508E-1,-2.8610215E-2,2.9876006E-1,8.397596E-2,2.9981202E-1,-1.09428065E-2,-3.6677476E-2,1.7455136E-2,-1.639271E-2,1.6784923E-2,-3.2712754E-2,6.607978E-4,3.594832E-2],"split_indices":[1,0,3,1,2,1,2,2,3,2147483647,2147483647,0,0,0,0,0,0],"split_type":[0,0,0,0,0,0,0,0,0,0,0,0,0,0,0,0,0],"sum_hessian":[7.725953E1,1.3581096E1,6.3678436E1,3.375874E1,2.9919695E1,1.0696993E1,2.3061749E1,1.3850366E1,1.6069328E1,4.092066E0,6.604927E0,5.530471E0,1.7531277E1,6.1497974E0,7.700568E0,8.197332E0,7.8719964E0],"tree_param":{"num_deleted":"2","num_feature":"4","num_nodes":"17","size_leaf_vector":"0"}},{"base_weights":[-2.4684316E-1,-7.2939575E-1,-1.2307529E-1,-1.9314253E-1,-9.007775E-1,5.4071754E-1,-1.8058407E-1,-3.3373958E-1,1.7396995E-1,3.3245987E-1,-4.34983E-1,8.361375E-1,-1.41225E-1],"categories":[],"categories_nodes":[],"categories_segments":[],"categories_sizes":[],"default_left":[1,1,1,0,0,0,1,1,1,0,0,0,0],"id":35,"left_children":[1,3,5,-1,-1,-1,7,9,11,-1,-1,-1,-1],"loss_changes":[4.4774227E0,1.2419386E0,2.466878E0,0E0,0E0,0E0,3.2003036E0,2.8933344E0,3.8985353E0,0E0,0E0,0E0,0E0],"parents":[2147483647,0,0,1,1,2,2,6,6,7,7,8,8],"right_children":[2,4,6,-1,-1,-1,8,10,12,-1,-1,-1,-1],"split_conditions":[1.9669019E0,6.298585E-2,9.694597E0,-9.657127E-3,-4.5038875E-2,2.7035877E-2,4.9603152E-1,6.6724405E-2,8.565868E0,1.6622994E-2,-2.174915E-2,4.1806873E-2,-7.06125E-3],"split_indices":[1,2,0,0,0,0,2,2,1,0,0,0,0],"split_type":[0,0,0,0,0,0,0,0,0,0,0,0,0],"sum_hessian":[7.5471725E1,1.44070635E1,6.106466E1,4.004441E0,1.0402622E1,4.198653E0,5.686601E1,3.975292E1,1.7113089E1,4.94298E0,3.480994E1,4.9859357E0,1.2127152E1],"tree_param":{"num_deleted":"0","num_feature":"4","num_nodes":"13","size_leaf_vector":"0"}},{"base_weights":[-2.4371591E-1,-5.046405E-1,4.3760937E-2,-6.576163E-1,8.723543E-2,-3.8807115E-1,4.2296788E-1,-7.4723935E-1,-4.349584E-2,3.6571652E-1,-2.011921E-1,-6.751115E-1,3.3397102E-1,1.088016E0,1.08032554E-1,-2.7663428E-1,-8.256482E-1,-2.616838E-1,-1.081054E0,-4.8374102E-1,3.768934E-1],"categories":[],"categories_nodes":[],"categories_segments":[],"categories_sizes":[],"default_left":[1,1,1,1,1,1,1,1,0,0,0,1,0,0,1,0,0,0,0,0,0],"id":36,"left_children":[1,3,5,7,9,11,13,15,-1,-1,-1,17,-1,-1,19,-1,-1,-1,-1,-1,-1],"loss_changes":[5.7764673E0,3.7057648E0,6.291864E0,1.7362051E0,8.09204E-1,3.9597251E0,4.155697E0,8.040533E-1,0E0,0E0,0E0,1.9362907E0,0E0,0E0,2.5619233E0,0E0,0E0,0E0,0E0,0E0,0E0],"parents":[2147483647,0,0,1,1,2,2,3,3,4,4,5,5,6,6,7,7,11,11,14,14],"right_children":[2,4,6,8,10,12,14,16,-1,-1,-1,18,-1,-1,20,-1,-1,-1,-1,-1,-1],"split_conditions":[2.467797E-1,2.5587265E1,2.0747523E-1,5.354519E-1,7.577189E-1,3.7934107E-1,1.502886E1,9.212217E0,-2.174792E-3,1.8285826E-2,-1.0059605E-2,3.0201226E-1,1.6698552E-2,5.44008E-2,4.0312058E-1,-1.3831714E-2,-4.128241E-2,-1.308419E-2,-5.40527E-2,-2.418705E-2,1.884467E-2],"split_indices":[3,0,2,2,2,3,0,0,0,0,0,3,0,0,2,0,0,0,0,0,0],"split_type":[0,0,0,0,0,0,0,0,0,0,0,0,0,0,0,0,0,0,0,0,0],"sum_hessian":[7.57148E1,3.9294456E1,3.642034E1,3.1136066E1,8.158389E0,1.7017593E1,1.9402748E1,2.6981602E1,4.1544657E0,4.0145183E0,4.143871E0,1.2223382E1,4.7942114E0,5.4465E0,1.3956248E1,4.5002294E0,2.248137E1,6.8707237E0,5.352658E0,4.1101756E0,9.846073E0],"tree_param":{"num_deleted":"0","num_feature":"4","num_nodes":"21","size_leaf_vector":"0"}},{"base_weights":[-2.2001465E-1,-2.8976876E-1,6.2253237E-1,-5.08165E-1,-4.7653086E-2,-7.242195E-1,-3.0278695E-1,4.6649715E-1,-1.701545E-1,-4.729269E-1,-9.001308E-1,2.3686518E-1,-4.9156046E-1,-4.9853203E-1,2.516926E-1],"categories":[],"categories_nodes":[],"categories_segments":[],"categories_sizes":[],"default_left":[1,1,0,1,1,1,1,0,1,1,1,0,0,0,0],"id":37,"left_children":[1,3,-1,5,7,-1,11,-1,13,-1,-1,-1,-1,-1,-1],"loss_changes":[4.42994E0,3.5428982E0,0E0,1.3498755E0,2.163929E0,3.0430984E-1,2.1384687E0,0E0,3.9295576E0,0E0,0E0,0E0,0E0,0E0,0E0],"parents":[2147483647,0,0,1,1,3,3,4,4,5,5,6,6,8,8],"right_children":[2,4,-1,6,8,-1,12,-1,14,-1,-1,-1,-1,-1,-1],"split_conditions":[9.312645E-1,2.4636182E-1,3.1126618E-2,4.5069323E0,6.0545936E-2,-3.6210977E-2,2.997446E-1,2.3324858E-2,3.077012E-1,-2.3646345E-2,-4.500654E-2,1.1843259E-2,-2.4578024E-2,-2.4926601E-2,1.25846295E-2],"split_indices":[2,3,0,1,2,1,2,0,2,2147483647,2147483647,0,0,0,0],"split_type":[0,0,0,0,0,0,0,0,0,0,0,0,0,0,0],"sum_hessian":[7.130706E1,6.646093E1,4.846132E0,3.436422E1,3.209671E1,1.5515567E1,1.8848652E1,5.635494E0,2.6461218E1,7.90782E0,7.6077466E0,4.81859E0,1.4030062E1,1.4776844E1,1.1684373E1],"tree_param":{"num_deleted":"2","num_feature":"4","num_nodes":"15","size_leaf_vector":"0"}},{"base_weights":[-1.6649345E-1,-3.9137566E-1,2.069631E-1,-4.94278E-1,3.315748E-1,-2.8584817E-1,4.8470423E-1,-7.172481E-1,-2.5913867E-1,7.756961E-2,-6.760474E-1,9.200635E-1,2.849357E-1,-4.5390877E-1,-9.260936E-1,4.1015E-3,-9.6075445E-1,2.1821368E-2,5.2140075E-1],"categories":[],"categories_nodes":[],"categories_segments":[],"categories_sizes":[],"default_left":[1,1,1,1,0,1,1,1,1,0,0,0,1,0,0,0,0,0,0],"id":38,"left_children":[1,3,5,7,-1,9,11,13,15,-1,-1,-1,17,-1,-1,-1,-1,-1,-1],"loss_changes":[6.256324E0,3.603849E0,4.010699E0,1.957386E0,0E0,1.587636E0,1.3436098E0,7.024584E-1,3.968033E0,0E0,0E0,0E0,8.661791E-1,0E0,0E0,0E0,0E0,0E0,0E0],"parents":[2147483647,0,0,1,1,2,2,3,3,5,5,6,6,7,7,8,8,12,12],"right_children":[2,4,6,8,-1,10,12,14,16,-1,-1,-1,18,-1,-1,-1,-1,-1,-1],"split_conditions":[6.4318533E0,3.7922817E-1,2.193031E-1,2.8603134E0,1.657874E-2,1.8382227E-1,7.2466407E0,1.0950197E1,1.8003323E1,3.8784805E-3,-3.380237E-2,4.6003174E-2,1.184781E1,-2.2695439E-2,-4.630468E-2,2.05075E-4,-4.8037723E-2,1.0910685E-3,2.6070038E-2],"split_indices":[1,3,3,1,0,3,1,0,0,0,0,0,1,0,0,0,0,0,0],"split_type":[0,0,0,0,0,0,0,0,0,0,0,0,0,0,0,0,0,0,0],"sum_hessian":[7.252987E1,4.5240067E1,2.7289803E1,3.9880047E1,5.3600187E0,9.825864E0,1.746394E1,1.9417217E1,2.0462831E1,5.5022964E0,4.323568E0,4.358808E0,1.310513E1,9.991856E0,9.425361E0,1.5602858E1,4.859974E0,6.7201366E0,6.3849936E0],"tree_param":{"num_deleted":"0","num_feature":"4","num_nodes":"19","size_leaf_vector":"0"}},{"base_weights":[-1.896786E-1,-7.775834E-1,-8.230032E-2,-2.602692E-1,1.14207804E-1,-5.3748316E-1,-1.5223333E-2,6.240102E-1,-1.1678419E-1,-8.8104576E-1,-2.752752E-1,5.066209E-1,-2.9131338E-1,5.0534595E-2,1.0729034E0,-5.250338E-1,3.6649066E-1],"categories":[],"categories_nodes":[],"categories_segments":[],"categories_sizes":[],"default_left":[1,0,1,1,1,1,1,1,1,0,0,0,0,0,0,0,0],"id":39,"left_children":[1,-1,3,5,7,9,11,13,15,-1,-1,-1,-1,-1,-1,-1,-1],"loss_changes":[4.396353E0,0E0,2.1582363E0,2.1820567E0,3.56091E0,1.1176252E0,2.761646E0,2.3639112E0,4.380247E0,0E0,0E0,0E0,0E0,0E0,0E0,0E0,0E0],"parents":[2147483647,0,0,2,2,3,3,4,4,5,5,6,6,7,7,8,8],"right_children":[2,-1,4,6,8,10,12,14,16,-1,-1,-1,-1,-1,-1,-1,-1],"split_conditions":[1.7575835E0,-3.887917E-2,2.4657995E-1,1.712234E1,1.4961598E1,1.721681E-1,1.840938E-1,3.0137234E0,6.363122E0,-4.4052288E-2,-1.376376E-2,2.5331045E-2,-1.4565669E-2,2.5267298E-3,5.364517E-2,-2.6251689E-2,1.8324533E-2],"split_indices":[1,0,3,0,0,3,3,1,1,0,0,0,0,0,0,0,0],"split_type":[0,0,0,0,0,0,0,0,0,0,0,0,0,0,0,0,0],"sum_hessian":[6.9656075E1,9.793557E0,5.986252E1,3.1242935E1,2.8619583E1,1.40992365E1,1.7143698E1,8.393593E0,2.022599E1,5.0812044E0,9.018032E0,5.6428504E0,1.1500848E1,4.1739383E0,4.2196546E0,1.0917259E1,9.308731E0],"tree_param":{"num_deleted":"0","num_feature":"4","num_nodes":"17","size_leaf_vector":"0"}},{"base_weights":[-2.613751E-1,-3.2887188E-1,5.0771534E-1,-4.6558478E-1,4.5114636E-2,-6.856215E-1,-1.5307784E-1,-3.3783916E-1,5.2205324E-1,-2.328433E-1,-8.4962225E-1,6.439231E-1,-4.3415308E-1,-6.5367335E-1,1.4596891E-1],"categories":[],"categories_nodes":[],"categories_segments":[],"categories_sizes":[],"default_left":[1,1,0,1,1,1,1,1,0,0,0,0,0,0,0],"id":40,"left_children":[1,3,-1,5,7,9,11,13,-1,-1,-1,-1,-1,-1,-1],"loss_changes":[3.900064E0,3.4322453E0,0E0,3.2607012E0,3.6049712E0,1.9135923E0,5.0984325E0,1.7791551E0,0E0,0E0,0E0,0E0,0E0,0E0,0E0],"parents":[2147483647,0,0,1,1,3,3,4,4,5,5,6,6,7,7],"right_children":[2,4,-1,6,8,10,12,14,-1,-1,-1,-1,-1,-1,-1],"split_conditions":[9.035778E-1,2.9880044E-1,2.5385767E-2,1.7124336E1,2.0747523E-1,9.885477E0,2.9876006E-1,3.7934107E-1,2.6102662E-2,-1.1642165E-2,-4.2481113E-2,3.2196157E-2,-2.1707654E-2,-3.2683667E-2,7.298446E-3],"split_indices":[2,3,0,0,2,0,2,3,0,0,0,0,0,0,0],"split_type":[0,0,0,0,0,0,0,0,0,0,0,0,0,0,0],"sum_hessian":[7.091326E1,6.571817E1,5.195094E0,4.7946323E1,1.7771845E1,2.7435112E1,2.0511211E1,1.0018845E1,7.753E0,7.938456E0,1.9496656E1,5.0110517E0,1.5500159E1,5.849344E0,4.1695004E0],"tree_param":{"num_deleted":"0","num_feature":"4","num_nodes":"15","size_leaf_vector":"0"}}]},"name":"gbtree"},"learner_model_param":{"base_score":"5E-1","boost_from_average":"1","num_class":"0","num_feature":"4","num_target":"1"},"objective":{"name":"binary:logistic","reg_loss_param":{"scale_pos_weight":"1"}}},"version":[1,7,1]}