{"learner":{"attributes":{"best_iteration":"38","best_ntree_limit":"39","best_score":"0.47371765552805023","scikit_learn":"{\"use_label_encoder\": false, \"n_estimators\": 39, \"objective\": \"binary:logistic\", \"max_depth\": 4, \"max_leaves\": null, \"max_bin\": null, \"grow_policy\": null, \"learning_rate\": 0.05, \"verbosity\": null, \"booster\": null, \"tree_method\": null, \"gamma\": 0.6, \"min_child_weight\": 4, \"max_delta_step\": null, \"subsample\": 0.8, \"sampling_method\": null, \"colsample_bytree\": 0.8, \"colsample_bylevel\": null, \"colsample_bynode\": null, \"reg_alpha\": 5e-05, \"reg_lambda\": null, \"scale_pos_weight\": 1, \"base_score\": null, \"missing\": NaN, \"num_parallel_tree\": null, \"random_state\": null, \"n_jobs\": null, \"monotone_constraints\": null, \"interaction_constraints\": null, \"importance_type\": null, \"gpu_id\": null, \"validate_parameters\": null, \"predictor\": null, \"enable_categorical\": false, \"feature_types\": null, \"max_cat_to_onehot\": null, \"max_cat_threshold\": null, \"eval_metric\": null, \"early_stopping_rounds\": null, \"callbacks\": null, \"kwargs\": {\"nthread\": 20, \"seed\": 92}, \"classes_\": [0, 1], \"n_classes_\": 2, \"evals_result_\": {\"validation_0\": {\"auc\": [0.7999702587488847, 0.822672747100228, 0.8339050262714385, 0.8384950926935659, 0.8471696242688609, 0.8584118171904431, 0.8583721621889561, 0.8696639238623971, 0.8693466838505006, 0.8743035590363835, 0.8771884603945672, 0.8798354317438287, 0.8808565480321205, 0.8812035292951323, 0.8832259343709725, 0.8867453157529493, 0.8860315257261823, 0.8868444532566669, 0.8856052344601963, 0.8877466045404977, 0.8885397045702389, 0.8888569445821354, 0.8895608208585308, 0.8904728858927332, 0.8908099534053733, 0.891285813423218, 0.8911866759195003, 0.8909190046594627, 0.8932883909983147, 0.8934370972538912, 0.8932487359968276, 0.8943491622880936, 0.8945970060473877, 0.8955883810845643, 0.895390106077129, 0.8953306235748983, 0.8971349261425597, 0.8988202637057598, 0.898433627441261], \"error\": [0.1937984496124031, 0.17829457364341086, 0.18023255813953487, 0.18410852713178294, 0.18604651162790697, 0.18023255813953487, 0.17829457364341086, 0.17635658914728683, 0.17829457364341086, 0.18023255813953487, 0.1821705426356589, 0.1821705426356589, 0.17635658914728683, 0.18023255813953487, 0.17248062015503876, 0.17829457364341086, 0.17635658914728683, 0.17635658914728683, 0.17635658914728683, 0.17635658914728683, 0.17829457364341086, 0.17635658914728683, 0.17635658914728683, 0.17829457364341086, 0.18023255813953487, 0.18023255813953487, 0.18023255813953487, 0.18023255813953487, 0.18023255813953487, 0.17829457364341086, 0.1744186046511628, 0.17248062015503876, 0.17635658914728683, 0.17248062015503876, 0.17054263565891473, 0.17054263565891473, 0.16666666666666666, 0.1686046511627907, 0.1686046511627907], \"logloss\": [0.6721223173446433, 0.6527051239512688, 0.6354807179796603, 0.619335495917372, 0.6048996453137361, 0.5901298315026039, 0.5766437071584916, 0.5634333596442097, 0.552591148503991, 0.5409071166501489, 0.530874224018681, 0.5211051823210346, 0.5123715112491172, 0.5039139072331347, 0.49558971700973287, 0.4877370303684427, 0.48184289425149446, 0.475303889129513, 0.4698446320817452, 0.4634966498832832, 0.458248208544051, 0.45306536832521127, 0.4480386560912742, 0.44311434919981996, 0.4384228285373181, 0.4339733287807583, 0.43124136135213137, 0.4275976813925329, 0.42432672362919, 0.4208941964447036, 0.4180735349366369, 0.41496485015449597, 0.4130567811256231, 0.41020289358011514, 0.4070532386328361, 0.4049512645763944, 0.40099685047139494, 0.3984179369412189, 0.39603466969416584]}, \"validation_1\": {\"auc\": [0.654482974070603, 0.6782255545142143, 0.7216494845360825, 0.7129022180568573, 0.732114964073727, 0.7567947516401125, 0.7627303967510153, 0.7555451421430803, 0.7653858169322086, 0.7680412371134021, 0.7633552014995314, 0.7708528584817245, 0.7736644798500468, 0.7735082786629178, 0.7789753202124337, 0.7717900656044986, 0.7714776632302406, 0.7702280537332084, 0.7689784442361762, 0.7658544204935958, 0.7596063730084348, 0.7671040299906279, 0.761168384879725, 0.761168384879725, 0.7627303967510153, 0.7602311777569509, 0.7624179943767573, 0.7633552014995314, 0.7642924086223055, 0.7621055920024992, 0.7627303967510153, 0.760855982505467, 0.7617931896282412, 0.7602311777569509, 0.7596063730084348, 0.7583567635114027, 0.760543580131209, 0.7583567635114027, 0.7600749765698219], \"error\": [0.23846153846153847, 0.23076923076923078, 0.23076923076923078, 0.2076923076923077, 0.2076923076923077, 0.19230769230769232, 0.19230769230769232, 0.2076923076923077, 0.18461538461538463, 0.18461538461538463, 0.18461538461538463, 0.18461538461538463, 0.19230769230769232, 0.19230769230769232, 0.19230769230769232, 0.19230769230769232, 0.19230769230769232, 0.2076923076923077, 0.2076923076923077, 0.2076923076923077, 0.2076923076923077, 0.2076923076923077, 0.2076923076923077, 0.2076923076923077, 0.2076923076923077, 0.2076923076923077, 0.2076923076923077, 0.2076923076923077, 0.2076923076923077, 0.2076923076923077, 0.2076923076923077, 0.2076923076923077, 0.2076923076923077, 0.2076923076923077, 0.2076923076923077, 0.2076923076923077, 0.2076923076923077, 0.2076923076923077, 0.2076923076923077], \"logloss\": [0.6761616908586943, 0.6596571995661809, 0.6436272387321179, 0.6307243548906767, 0.616998959504641, 0.6030546497840148, 0.5918168913859587, 0.5832849555290662, 0.5728246301412583, 0.5620582076219413, 0.5553300355489438, 0.546725191290562, 0.5397152641644845, 0.5333644192952376, 0.5270908832550049, 0.5230903217425713, 0.5185501749698932, 0.5138950783472794, 0.5096648003046329, 0.5070129872514652, 0.5042214959859848, 0.4996507471570602, 0.49750829957998716, 0.4950854505483921, 0.49305716443520325, 0.48954917616569077, 0.48596672048935524, 0.4846476159416712, 0.48353943744531047, 0.48316460928091637, 0.48126556827471806, 0.47945705090577784, 0.47824056629951184, 0.47825862581913287, 0.4772935597369304, 0.47689271552058365, 0.47580373883247373, 0.4745342925764047, 0.47371765552805023]}}, \"_estimator_type\": \"classifier\"}"},"feature_names":["area_ta_dl","area_cu_dl","area_ac_dl","area_cc_dl","sigmoid_prob"],"feature_types":["float","float","float","float","float"],"gradient_booster":{"model":{"gbtree_model_param":{"num_parallel_tree":"1","num_trees":"39","size_leaf_vector":"0"},"tree_info":[0,0,0,0,0,0,0,0,0,0,0,0,0,0,0,0,0,0,0,0,0,0,0,0,0,0,0,0,0,0,0,0,0,0,0,0,0,0,0],"trees":[{"base_weights":[-9.261079E-1,-1.3925918E0,-0E0,-3.6362728E-1,-1.4603167E0,-1.1578913E0,7.586184E-1,-1.579999E0,-9.285679E-1,4.2856786E-1,1.1999943E0,-1.6502721E0,-6.6665715E-1,-1.31428E0,-2.39992E-1,8.235235E-1,-1.5383846E-1],"categories":[],"categories_nodes":[],"categories_segments":[],"categories_sizes":[],"default_left":[1,1,1,0,1,0,1,1,1,1,0,0,0,0,0,0,0],"id":0,"left_children":[1,3,5,-1,7,-1,9,11,13,15,-1,-1,-1,-1,-1,-1,-1],"loss_changes":[4.3849472E1,4.1727295E0,3.1622314E1,0E0,2.5421295E0,0E0,2.6540995E0,2.1088867E0,3.4027948E0,3.3470683E0,0E0,0E0,0E0,0E0,0E0,0E0,0E0],"parents":[2147483647,0,0,1,1,2,2,4,4,6,6,7,7,8,8,9,9],"right_children":[2,4,6,-1,8,-1,10,12,14,16,-1,-1,-1,-1,-1,-1,-1],"split_conditions":[3.234634E-1,3.4411106E-2,2.1991096E-1,-1.8181365E-2,2.0778431E-1,-5.7894565E-2,2.9438007E-1,3.7934107E-1,2.6723048E-1,2.5463963E-1,5.9999716E-2,-8.251361E-2,-3.333286E-2,-6.5714E-2,-1.19996E-2,4.1176178E-2,-7.691923E-3],"split_indices":[3,3,4,0,3,0,4,4,4,4,0,0,0,0,0,0,0],"split_type":[0,0,0,0,0,0,0,0,0,0,0,0,0,0,0,0,0],"sum_hessian":[1.005E2,6.65E1,3.4E1,4.5E0,6.2E1,1.325E1,2.075E1,4.9E1,1.3E1,1.3E1,7.75E0,4.475E1,4.25E0,7.75E0,5.25E0,7.5E0,5.5E0],"tree_param":{"num_deleted":"0","num_feature":"5","num_nodes":"17","size_leaf_vector":"0"}},{"base_weights":[-9.4902265E-1,-1.2267883E0,1.1163505E-1,-1.3429867E0,-1.4976858E-1,-6.6469085E-1,1.1677245E0,-1.4934471E0,-8.834899E-1,-1.0010934E0,-1.3541968E-1,6.3718706E-1,1.4489392E0,-1.5686833E0,-6.5230644E-1,-1.2747185E0,-9.652802E-3],"categories":[],"categories_nodes":[],"categories_segments":[],"categories_sizes":[],"default_left":[1,1,1,1,0,1,1,1,1,0,0,1,1,0,0,0,0],"id":1,"left_children":[1,3,5,7,-1,9,-1,13,15,-1,-1,-1,-1,-1,-1,-1,-1],"loss_changes":[3.1112175E1,1.0236382E1,1.9416805E1,3.8763275E0,0E0,2.3109121E0,5.6788063E-1,2.4678574E0,7.1625195E0,0E0,0E0,0E0,0E0,0E0,0E0,0E0,0E0],"parents":[2147483647,0,0,1,1,2,2,3,3,5,5,6,6,7,7,8,8],"right_children":[2,4,6,8,-1,10,-1,14,16,-1,-1,-1,-1,-1,-1,-1,-1],"split_conditions":[4.6818146E-1,3.7934107E-1,2.4429692E-1,2.409634E-1,-7.488429E-3,7.7049124E-1,5.8386225E-2,1.8960749E1,2.714668E-1,-5.005467E-2,-6.7709843E-3,3.1859353E-2,7.2446965E-2,-7.843416E-2,-3.2615323E-2,-6.3735925E-2,-4.8264008E-4],"split_indices":[3,4,4,3,0,3,0,1,4,0,0,2147483647,2147483647,0,0,0,0],"split_type":[0,0,0,0,0,0,0,0,0,0,0,0,0,0,0,0,0],"sum_hessian":[1.0413805E2,8.2401985E1,2.1736061E1,7.415454E1,8.24744E0,1.2740874E1,8.995187E0,5.416737E1,1.9987175E1,7.2446527E0,5.4962215E0,4.24764E0,4.747547E0,4.892614E1,5.241229E0,1.3489103E1,6.498071E0],"tree_param":{"num_deleted":"2","num_feature":"5","num_nodes":"17","size_leaf_vector":"0"}},{"base_weights":[-8.0850226E-1,-1.1419713E0,3.1165567E-1,-1.2443624E0,-1.4931168E-1,-4.7193927E-1,1.2361053E0,-1.4900856E0,-8.183667E-1,-8.5588723E-1,-3.9829314E-2,8.321217E-1,1.5440222E0,-1.5727434E0,-5.525348E-1,-1.9434856E-1,-9.8809433E-1],"categories":[],"categories_nodes":[],"categories_segments":[],"categories_sizes":[],"default_left":[1,1,1,1,0,1,1,1,1,0,0,1,1,0,0,0,0],"id":2,"left_children":[1,3,5,7,-1,9,-1,13,15,-1,-1,-1,-1,-1,-1,-1,-1],"loss_changes":[3.9708824E1,8.087379E0,1.8659763E1,6.4899673E0,0E0,2.326643E0,1.7349243E-1,2.656166E0,2.896408E0,0E0,0E0,0E0,0E0,0E0,0E0,0E0,0E0],"parents":[2147483647,0,0,1,1,2,2,3,3,5,5,6,6,7,7,8,8],"right_children":[2,4,6,8,-1,10,-1,14,16,-1,-1,-1,-1,-1,-1,-1,-1],"split_conditions":[4.6818146E-1,3.7934107E-1,2.4429692E-1,3.3353553E0,-7.4655837E-3,2.0451033E-1,6.1805267E-2,1.59088E1,3.9578152E0,-4.279436E-2,-1.9914657E-3,4.1606084E-2,7.720111E-2,-7.8637175E-2,-2.7626742E-2,-9.717428E-3,-4.9404718E-2],"split_indices":[3,4,4,2,0,4,4,1,2,0,0,2147483647,2147483647,0,0,0,0],"split_type":[0,0,0,0,0,0,0,0,0,0,0,0,0,0,0,0,0],"sum_hessian":[1.0435172E2,8.039796E1,2.3953762E1,7.265057E1,7.7473826E0,1.3229459E1,1.0724302E1,4.4489872E1,2.8160704E1,6.485758E0,6.7437015E0,6.2400327E0,4.4842696E0,4.026262E1,4.227255E0,6.480381E0,2.1680323E1],"tree_param":{"num_deleted":"2","num_feature":"5","num_nodes":"17","size_leaf_vector":"0"}},{"base_weights":[-8.7640613E-1,-1.1813827E0,-2.33309E-1,-1.2409097E0,-2.6396346E-1,-1.197768E0,3.572992E-1,-1.3586168E0,-7.9472893E-1,-1.4544941E0,-7.84122E-1,5.316572E-2,1.2084985E0,-5.580562E-1,-1.4207766E0,-1.1392275E0,6.5631434E-2,-4.6348003E-1,4.5187148E-1],"categories":[],"categories_nodes":[],"categories_segments":[],"categories_sizes":[],"default_left":[1,1,1,1,0,1,1,1,1,1,1,1,0,0,0,0,0,0,0],"id":3,"left_children":[1,3,5,7,-1,-1,11,13,15,-1,-1,17,-1,-1,-1,-1,-1,-1,-1],"loss_changes":[1.9765907E1,3.444275E0,1.9861763E1,2.3123245E0,0E0,2.5980186E-1,5.6128435E0,1.6801071E0,4.7851086E0,0E0,0E0,3.753076E0,0E0,0E0,0E0,0E0,0E0,0E0,0E0],"parents":[2147483647,0,0,1,1,2,2,3,3,5,5,6,6,7,7,8,8,11,11],"right_children":[2,4,6,8,-1,-1,12,14,16,-1,-1,18,-1,-1,-1,-1,-1,-1,-1],"split_conditions":[3.3789527E-1,2.1547916E1,2.193031E-1,1.9189282E-1,-1.3198174E-2,-5.98884E-2,3.1683233E-1,3.4411106E-2,2.6723048E-1,-7.272471E-2,-3.92061E-2,4.9603152E-1,6.0424924E-2,-2.790281E-2,-7.1038835E-2,-5.6961376E-2,3.2815717E-3,-2.3174E-2,2.2593575E-2],"split_indices":[3,1,4,3,0,0,4,3,4,2147483647,2147483647,3,0,0,0,0,0,0,0],"split_type":[0,0,0,0,0,0,0,0,0,0,0,0,0,0,0,0,0,0,0],"sum_hessian":[1.01185555E2,6.8068344E1,3.3117214E1,6.358964E1,4.4787E0,1.2187376E1,2.0929838E1,4.8697613E1,1.4892031E1,5.9673734E0,6.220003E0,1.6203018E1,4.7268195E0,4.2276716E0,4.446994E1,1.0402625E1,4.489405E0,6.986838E0,9.216181E0],"tree_param":{"num_deleted":"2","num_feature":"5","num_nodes":"19","size_leaf_vector":"0"}},{"base_weights":[-8.3881426E-1,-1.3083884E0,-3.2607833E-1,-1.419162E0,-5.6703407E-1,-8.7791264E-1,3.8360886E-2,-6.2854123E-1,-1.4825251E0,-1.1371758E0,-6.7615855E-1,-3.668419E-1,6.143506E-1,-1.128499E-1,-9.0931845E-1,3.242361E-1,-7.4463737E-1,1.1607616E0,2.1201082E-1],"categories":[],"categories_nodes":[],"categories_segments":[],"categories_sizes":[],"default_left":[1,1,1,1,0,1,1,0,0,0,1,1,1,0,0,0,0,0,0],"id":4,"left_children":[1,3,5,7,-1,9,11,-1,-1,-1,13,15,17,-1,-1,-1,-1,-1,-1],"loss_changes":[2.451332E1,3.6081772E0,1.0259981E1,1.37677E0,0E0,2.9109478E-1,7.596485E0,0E0,0E0,0E0,1.7182665E0,5.2454114E0,2.7033596E0,0E0,0E0,0E0,0E0,0E0,0E0],"parents":[2147483647,0,0,1,1,2,2,3,3,5,5,6,6,10,10,11,11,12,12],"right_children":[2,4,6,8,-1,10,12,-1,-1,-1,14,16,18,-1,-1,-1,-1,-1,-1],"split_conditions":[3.5014737E0,1.5289576E1,2.193031E-1,7.4248843E0,-2.8351704E-2,1.7124336E1,4.9603152E-1,-3.1427063E-2,-7.412626E-2,-5.685879E-2,1.6326044E-1,1.6292831E1,6.306261E-1,-5.642495E-3,-4.5465924E-2,1.6211806E-2,-3.723187E-2,5.8038082E-2,1.0600541E-2],"split_indices":[2,1,4,1,0,1,3,0,0,0,4,1,3,0,0,0,0,0,0],"split_type":[0,0,0,0,0,0,0,0,0,0,0,0,0,0,0,0,0,0,0],"sum_hessian":[1.0258561E2,5.2736534E1,4.984908E1,4.508548E1,7.6510534E0,1.9266665E1,3.0582413E1,4.1554766E0,4.0930004E1,6.402489E0,1.2864177E1,1.8165907E1,1.2416505E1,4.2003794E0,8.663797E0,6.4708376E0,1.169507E1,4.4660645E0,7.9504404E0],"tree_param":{"num_deleted":"0","num_feature":"5","num_nodes":"19","size_leaf_vector":"0"}},{"base_weights":[-7.7565134E-1,-1.0859268E0,-2.4786185E-2,-1.5523635E0,-8.276172E-1,-5.943712E-1,9.3423384E-1,4.483566E-2,-9.526955E-1,-1.0013131E0,-5.298031E-2,1.2830081E0,4.5405063E-1,-1.2187849E-1,-1.0734788E0,-5.9412897E-1,4.9747598E-1],"categories":[],"categories_nodes":[],"categories_segments":[],"categories_sizes":[],"default_left":[1,1,1,0,1,1,1,0,1,0,1,0,0,0,0,0,0],"id":5,"left_children":[1,3,5,-1,7,9,11,-1,13,-1,15,-1,-1,-1,-1,-1,-1],"loss_changes":[2.3219692E1,7.2192383E0,1.7051489E1,0E0,5.233597E0,4.255762E0,1.3670502E0,0E0,4.048477E0,0E0,3.110051E0,0E0,0E0,0E0,0E0,0E0,0E0],"parents":[2147483647,0,0,1,1,2,2,4,4,5,5,6,6,8,8,10,10],"right_children":[2,4,6,-1,8,10,12,-1,14,-1,16,-1,-1,-1,-1,-1,-1],"split_conditions":[6.436084E0,1.8787444E0,2.4564451E-1,-7.7618174E-2,6.08394E-2,2.0779493E-1,6.310681E-1,2.241783E-3,6.5861465E1,-5.0065655E-2,9.534146E1,6.415041E-2,2.2702532E-2,-6.0939244E-3,-5.367394E-2,-2.9706448E-2,2.4873799E-2],"split_indices":[2,2,4,0,3,4,3,0,0,0,0,0,0,0,0,0,0],"split_type":[0,0,0,0,0,0,0,0,0,0,0,0,0,0,0,0,0],"sum_hessian":[9.878178E1,6.9582375E1,2.91994E1,2.3014519E1,4.6567856E1,1.8557775E1,1.0641624E1,5.919435E0,4.0648422E1,1.010936E1,8.448415E0,5.195749E0,5.445876E0,5.414417E0,3.5234005E1,4.2202635E0,4.228152E0],"tree_param":{"num_deleted":"0","num_feature":"5","num_nodes":"17","size_leaf_vector":"0"}},{"base_weights":[-7.422709E-1,-1.1116319E0,2.7044045E-2,-1.5112588E0,-8.5639936E-1,-8.714039E-1,5.781386E-1,1.9619596E-1,-9.938575E-1,-1.1913743E0,-4.567693E-1,-8.705451E-2,8.690671E-1,-1.0951397E0,-1.2054343E-1,1.3970406E0,4.031237E-1],"categories":[],"categories_nodes":[],"categories_segments":[],"categories_sizes":[],"default_left":[1,1,1,0,1,1,1,0,1,0,0,0,1,0,0,0,0],"id":6,"left_children":[1,3,5,-1,7,9,11,-1,13,-1,-1,-1,15,-1,-1,-1,-1],"loss_changes":[2.879409E1,5.683777E0,1.724499E1,0E0,6.569645E0,1.2140923E0,4.2477217E0,0E0,3.3293533E0,0E0,0E0,0E0,3.148857E0,0E0,0E0,0E0,0E0],"parents":[2147483647,0,0,1,1,2,2,4,4,5,5,6,6,8,8,12,12],"right_children":[2,4,6,-1,8,10,12,-1,14,-1,-1,-1,16,-1,-1,-1,-1],"split_conditions":[3.3789527E-1,1.8725014E0,2.2033995E-1,-7.556295E-2,6.0814448E-2,5.703816E-1,6.3588915E0,9.809799E-3,3.683109E-1,-5.9568714E-2,-2.2838464E-2,-4.3527256E-3,9.41238E0,-5.4756988E-2,-6.0271714E-3,6.985203E-2,2.0156186E-2],"split_indices":[3,2,4,0,3,3,2,0,4,0,0,0,2,0,0,0,0],"split_type":[0,0,0,0,0,0,0,0,0,0,0,0,0,0,0,0,0],"sum_hessian":[1.0022635E2,6.741457E1,3.2811768E1,2.4356853E1,4.3057724E1,1.2253541E1,2.0558228E1,4.9240217E0,3.81337E1,5.8588653E0,6.3946757E0,6.4686303E0,1.4089597E1,3.3943104E1,4.190599E0,5.6682878E0,8.4213085E0],"tree_param":{"num_deleted":"0","num_feature":"5","num_nodes":"17","size_leaf_vector":"0"}},{"base_weights":[-7.2487247E-1,-1.0913638E0,-7.5517066E-2,-1.3185087E0,-7.4073094E-1,-8.4084857E-1,3.964813E-1,-1.5122663E0,-7.99182E-1,4.317035E-1,-1.0046301E0,-1.2036617E0,-5.485224E-1,2.8345628E-2,1.0290804E0,-1.2900685E-1,-1.1130457E0,-5.7227296E-1,-1.2338269E0,6.491299E-2,-1.0591702E0,-3.9386234E-1,2.5652742E-1],"categories":[],"categories_nodes":[],"categories_segments":[],"categories_sizes":[],"default_left":[1,1,1,1,1,1,1,0,1,0,1,0,1,1,0,0,0,0,0,0,0,0,0],"id":7,"left_children":[1,3,5,7,9,11,13,-1,15,-1,17,-1,19,21,-1,-1,-1,-1,-1,-1,-1,-1,-1],"loss_changes":[2.3529526E1,4.068535E0,1.3651917E1,2.5306168E0,8.845311E0,8.653307E-1,5.4399033E0,0E0,2.4263697E0,0E0,1.522665E0,0E0,3.1397772E0,1.630309E0,0E0,0E0,0E0,0E0,0E0,0E0,0E0,0E0,0E0],"parents":[2147483647,0,0,1,1,2,2,3,3,4,4,5,5,6,6,8,8,10,10,12,12,13,13],"right_children":[2,4,6,8,10,12,14,-1,16,-1,18,-1,20,22,-1,-1,-1,-1,-1,-1,-1,-1,-1],"split_conditions":[3.231038E-1,1.3215809E1,2.193031E-1,2.6808485E-1,6.0545936E-2,4.7305644E-1,2.9438007E-1,-7.561331E-2,3.1108892E-1,2.1585176E-2,2.3257917E-1,-6.0183086E-2,2.3835678E1,6.2641892E0,5.145402E-2,-6.4503425E-3,-5.5652287E-2,-2.8613647E-2,-6.1691344E-2,3.2456496E-3,-5.2958515E-2,-1.9693118E-2,1.2826371E-2],"split_indices":[3,1,4,4,3,3,4,0,4,0,4,0,1,2,0,0,0,0,0,0,0,0,0],"split_type":[0,0,0,0,0,0,0,0,0,0,0,0,0,0,0,0,0,0,0,0,0,0,0],"sum_hessian":[9.82171E1,6.2347733E1,3.5869366E1,3.6161373E1,2.6186361E1,1.3384856E1,2.248451E1,2.4943167E1,1.1218206E1,4.694386E0,2.1491976E1,4.581252E0,8.803604E0,1.4873746E1,7.610764E0,4.028203E0,7.190004E0,8.657512E0,1.2834463E1,4.3957834E0,4.407821E0,4.9634666E0,9.91028E0],"tree_param":{"num_deleted":"0","num_feature":"5","num_nodes":"23","size_leaf_vector":"0"}},{"base_weights":[-6.333399E-1,-9.3546975E-1,1.2434488E-1,-1.2894262E0,-7.201292E-1,-6.8385863E-1,6.677302E-1,-1.3890804E-1,-8.4915495E-1,-9.669885E-1,-1.7035069E-1,1.3107951E0,3.8441482E-1,8.219369E-2,-3.2000396E-1,-9.4533426E-1,-5.520123E-2,-9.359723E-3,9.651326E-1],"categories":[],"categories_nodes":[],"categories_segments":[],"categories_sizes":[],"default_left":[1,1,1,0,1,1,1,1,1,0,0,0,1,1,1,0,0,0,0],"id":8,"left_children":[1,3,5,-1,7,9,11,-1,15,-1,-1,-1,17,-1,-1,-1,-1,-1,-1],"loss_changes":[2.3172611E1,4.568634E0,1.3453781E1,0E0,3.4146576E0,1.6369166E0,2.8124046E0,4.1683972E-1,2.876524E0,0E0,0E0,0E0,3.2221205E0,0E0,0E0,0E0,0E0,0E0,0E0],"parents":[2147483647,0,0,1,1,2,2,4,4,5,5,6,6,7,7,8,8,12,12],"right_children":[2,4,6,-1,8,10,12,-1,16,-1,-1,-1,18,-1,-1,-1,-1,-1,-1],"split_conditions":[6.4318533E0,1.9309199E0,2.1904363E-1,-6.447131E-2,8.397596E-2,9.991028E1,7.217158E0,-6.9454024E-3,4.0312058E-1,-4.8349425E-2,-8.5175345E-3,6.5539755E-2,9.0132254E-1,4.1096844E-3,-1.6000198E-2,-4.7266714E-2,-2.7600615E-3,-4.6798616E-4,4.8256632E-2],"split_indices":[2,2,4,0,3,0,2,3,3,0,0,0,3,2147483647,2147483647,0,0,0,0],"split_type":[0,0,0,0,0,0,0,0,0,0,0,0,0,0,0,0,0,0,0],"sum_hessian":[9.971786E1,7.112278E1,2.8595076E1,2.5015911E1,4.610687E1,1.1392238E1,1.7202837E1,8.753235E0,3.7353634E1,6.7740617E0,4.6181755E0,4.151965E0,1.3050873E1,4.187064E0,4.5661707E0,3.3147434E1,4.2062E0,8.363515E0,4.687357E0],"tree_param":{"num_deleted":"2","num_feature":"5","num_nodes":"19","size_leaf_vector":"0"}},{"base_weights":[-6.6023725E-1,-1.1069559E0,-2.042145E-1,-1.1985799E0,-1.662345E-1,-9.3343E-1,1.6992055E-1,-4.6033195E-1,-1.2607248E0,-1.0685203E0,-4.3059027E-1,-2.710298E-1,5.337247E-1,-1.3196273E0,-6.1263686E-1,-1.238081E0,-5.6371903E-1,8.353449E-1,-9.4549906E-1,9.004756E-2,1.1890442E0],"categories":[],"categories_nodes":[],"categories_segments":[],"categories_sizes":[],"default_left":[1,1,1,1,0,1,1,0,1,1,0,1,1,0,0,1,1,0,0,0,0],"id":9,"left_children":[1,3,5,7,-1,9,11,-1,13,-1,-1,17,19,-1,-1,-1,-1,-1,-1,-1,-1],"loss_changes":[2.0063625E1,4.11779E0,1.3939761E1,1.5061188E0,0E0,7.1380234E-1,5.635873E0,0E0,7.7085114E-1,4.1021538E-1,0E0,1.2831937E1,5.4440694E0,0E0,0E0,0E0,0E0,0E0,0E0,0E0,0E0],"parents":[2147483647,0,0,1,1,2,2,3,3,5,5,6,6,8,8,9,9,11,11,12,12],"right_children":[2,4,6,8,-1,10,12,-1,14,-1,-1,18,20,-1,-1,-1,-1,-1,-1,-1,-1],"split_conditions":[3.3607476E0,3.7922817E-1,2.0779493E-1,7.486095E0,-8.311725E-3,1.1880468E2,6.3588915E0,-2.3016598E-2,1.59088E1,-5.3426016E-2,-2.1529514E-2,1.4756428E1,1.0916361E2,-6.5981366E-2,-3.0631844E-2,-6.190405E-2,-2.8185952E-2,4.1767247E-2,-4.7274955E-2,4.502378E-3,5.9452213E-2],"split_indices":[2,4,4,1,0,0,2,0,1,2,0,1,0,0,0,2147483647,2147483647,0,0,0,0],"split_type":[0,0,0,0,0,0,0,0,0,0,0,0,0,0,0,0,0,0,0,0,0],"sum_hessian":[9.8599266E1,4.9086628E1,4.9512638E1,4.44802E1,4.606426E0,1.6282375E1,3.3230263E1,4.1064134E0,4.0373787E1,1.1947539E1,4.334835E0,1.5137575E1,1.8092688E1,3.606014E1,4.3136506E0,7.8560243E0,4.0915155E0,5.642776E0,9.4948E0,1.146674E1,6.6259484E0],"tree_param":{"num_deleted":"2","num_feature":"5","num_nodes":"21","size_leaf_vector":"0"}},{"base_weights":[-6.7090416E-1,-9.650117E-1,1.3335199E-3,-1.1939126E0,-6.999518E-1,-7.0182043E-1,5.504464E-1,-6.1648774E-1,-1.2490078E0,-4.3283988E-2,-8.3939195E-1,-4.0799534E-1,-9.165745E-1,2.898861E-1,1.0648055E0,-1.3268688E0,-7.2269E-1,-1.6308068E-1,-1.1183041E0,8.408106E-1,-4.2552364E-1],"categories":[],"categories_nodes":[],"categories_segments":[],"categories_sizes":[],"default_left":[1,1,1,1,1,1,1,1,1,0,1,1,1,1,0,1,1,0,0,0,0],"id":10,"left_children":[1,3,5,-1,9,-1,13,-1,-1,-1,17,-1,-1,19,-1,-1,-1,-1,-1,-1,-1],"loss_changes":[1.9336224E1,3.291893E0,1.2263946E1,3.4619904E-1,3.0716457E0,5.048728E-1,2.0813518E0,0E0,3.137169E-1,0E0,5.088564E0,0E0,0E0,5.564893E0,0E0,0E0,0E0,0E0,0E0,0E0,0E0],"parents":[2147483647,0,0,1,1,2,2,3,3,4,4,5,5,6,6,8,8,10,10,13,13],"right_children":[2,4,6,-1,10,-1,14,-1,-1,-1,18,-1,-1,20,-1,-1,-1,-1,-1,-1,-1],"split_conditions":[6.4318533E0,2.4657995E-1,2.2348015E-1,-5.969563E-2,6.0545936E-2,-3.5091024E-2,8.912596E-1,-3.0824387E-2,-6.245039E-2,-2.1641995E-3,1.1185147E1,-2.0399768E-2,-4.5828726E-2,9.276743E0,5.3240277E-2,-6.634344E-2,-3.61345E-2,-8.154034E-3,-5.5915207E-2,4.204053E-2,-2.1276182E-2],"split_indices":[2,4,4,1,3,1,3,2147483647,2147483647,0,1,2147483647,2147483647,2,0,2147483647,2147483647,0,0,0,0],"split_type":[0,0,0,0,0,0,0,0,0,0,0,0,0,0,0,0,0,0,0,0,0],"sum_hessian":[9.679413E1,6.703188E1,2.9762249E1,3.4088856E1,3.2943024E1,1.2928615E1,1.6833633E1,4.03112E0,3.0057737E1,5.99963E0,2.6943392E1,6.6838603E0,6.244755E0,1.2211371E1,4.622262E0,2.4859068E1,5.198669E0,8.329865E0,1.8613527E1,6.7997713E0,5.4116E0],"tree_param":{"num_deleted":"6","num_feature":"5","num_nodes":"21","size_leaf_vector":"0"}},{"base_weights":[-6.227046E-1,-1.0228366E0,-2.4505563E-1,-1.2486773E0,-6.926126E-1,-8.2143533E-1,5.2838303E-2,-1.1345396E0,-3.0803415E-1,-1.0276326E0,-1.0931659E-1,-3.3102697E-1,4.2110562E-1,1.0248511E-1,-6.5340674E-1,-1.3258045E0,-6.823771E-1,4.2479986E-1,-1.1468714E0,-2.5127164E-1,7.297805E-1],"categories":[],"categories_nodes":[],"categories_segments":[],"categories_sizes":[],"default_left":[1,1,1,0,1,1,1,0,1,1,0,1,1,0,0,1,1,0,0,0,0],"id":11,"left_children":[1,3,5,-1,7,9,11,-1,13,-1,-1,17,19,-1,-1,-1,-1,-1,-1,-1,-1],"loss_changes":[1.4297119E1,2.5977173E0,8.773245E0,0E0,3.2369967E0,2.4402924E0,5.010678E0,0E0,1.8614295E0,4.7075176E-1,0E0,1.1236403E1,3.9248114E0,0E0,0E0,0E0,0E0,0E0,0E0,0E0,0E0],"parents":[2147483647,0,0,1,1,2,2,4,4,5,5,6,6,8,8,9,9,11,11,12,12],"right_children":[2,4,6,-1,8,10,12,-1,14,-1,-1,18,20,-1,-1,-1,-1,-1,-1,-1,-1],"split_conditions":[3.3353553E0,1.9309199E0,2.0779493E-1,-6.2433865E-2,2.3560202E-1,1.1397784E2,6.3588915E0,-5.672698E-2,1.07619225E2,-5.138163E-2,-5.4658293E-3,1.636304E1,2.3829904E-1,5.1242555E-3,-3.2670338E-2,-6.629022E-2,-3.4118857E-2,2.1239994E-2,-5.7343572E-2,-1.2563582E-2,3.6489025E-2],"split_indices":[2,2,4,0,4,0,2,0,0,0,0,1,4,0,0,2147483647,2147483647,0,0,0,0],"split_type":[0,0,0,0,0,0,0,0,0,0,0,0,0,0,0,0,0,0,0,0,0],"sum_hessian":[9.5273506E1,4.5430153E1,4.9843353E1,2.5327314E1,2.010284E1,1.6384506E1,3.3458847E1,8.446535E0,1.1656305E1,1.2361921E1,4.0225844E0,1.643193E1,1.7026918E1,5.6471114E0,6.0091934E0,5.1092353E0,7.252686E0,8.778485E0,7.6534443E0,5.415752E0,1.1611166E1],"tree_param":{"num_deleted":"2","num_feature":"5","num_nodes":"21","size_leaf_vector":"0"}},{"base_weights":[-6.04496E-1,-8.28238E-1,1.3126169E-1,-1.2604785E0,-6.209047E-1,-3.139908E-1,7.1782875E-1,-8.775599E-1,-3.0932027E-1,1.9503376E-1,-5.740822E-1,9.9496835E-1,3.410206E-1,-1.0357225E0,-2.8662288E-1,5.92825E-2,-8.1237996E-1,-8.69588E-1,-1.663791E-1],"categories":[],"categories_nodes":[],"categories_segments":[],"categories_sizes":[],"default_left":[1,1,1,0,1,1,1,1,1,0,1,0,0,0,0,0,0,0,0],"id":12,"left_children":[1,3,5,-1,7,9,11,13,15,-1,17,-1,-1,-1,-1,-1,-1,-1,-1],"loss_changes":[1.5472919E1,5.6432724E0,6.134832E0,0E0,3.7614212E0,1.9070232E0,7.120409E-1,2.2367268E0,4.558263E0,0E0,9.6692634E-1,0E0,0E0,0E0,0E0,0E0,0E0,0E0,0E0],"parents":[2147483647,0,0,1,1,2,2,4,4,5,5,6,6,7,7,8,8,10,10],"right_children":[2,4,6,-1,8,10,12,14,16,-1,18,-1,-1,-1,-1,-1,-1,-1,-1],"split_conditions":[4.6818146E-1,1.8787444E0,2.4564451E-1,-6.3023925E-2,2.4657995E-1,9.542E0,6.310681E-1,1.838509E1,1.7043087E1,9.751688E-3,8.03577E-1,4.9748417E-2,1.7051032E-2,-5.1786125E-2,-1.4331144E-2,2.964125E-3,-4.0618997E-2,-4.34794E-2,-8.318955E-3],"split_indices":[3,2,4,0,4,2,3,1,1,0,3,0,0,0,0,0,0,0,0],"split_type":[0,0,0,0,0,0,0,0,0,0,0,0,0,0,0,0,0,0,0],"sum_hessian":[9.233118E1,7.07045E1,2.162668E1,2.1273863E1,4.9430634E1,1.2558421E1,9.068258E0,2.6108332E1,2.3322304E1,4.331395E0,8.227026E0,4.2798276E0,4.788431E0,2.0002071E1,6.1062613E0,1.3968983E1,9.35332E0,4.1129303E0,4.1140957E0],"tree_param":{"num_deleted":"0","num_feature":"5","num_nodes":"19","size_leaf_vector":"0"}},{"base_weights":[-5.471787E-1,-7.615471E-1,-3.5999417E-2,-1.0901155E0,-5.7197636E-1,-7.901215E-1,5.116172E-1,-1.2386729E0,-8.020563E-1,-6.478428E-2,-7.019652E-1,-1.0821116E0,-3.5669622E-1,4.3423986E-3,9.941414E-1,-3.7491828E-1,-9.979733E-1,-6.323315E-1,3.9489633E-1,-2.2336079E-1,-7.907083E-1,-7.700292E-1,8.038702E-1],"categories":[],"categories_nodes":[],"categories_segments":[],"categories_sizes":[],"default_left":[1,1,1,1,1,1,1,1,1,1,1,0,0,1,0,1,1,0,0,0,0,0,0],"id":13,"left_children":[1,3,5,-1,9,11,13,-1,-1,17,19,-1,-1,21,-1,-1,-1,-1,-1,-1,-1,-1,-1],"loss_changes":[1.0647776E1,3.6484146E0,1.2724302E1,3.299904E-2,2.960639E0,1.251977E0,4.3745265E0,0E0,5.462451E-1,2.9639537E0,1.360548E0,0E0,0E0,6.640427E0,0E0,0E0,0E0,0E0,0E0,0E0,0E0,0E0,0E0],"parents":[2147483647,0,0,1,1,2,2,3,3,4,4,5,5,6,6,8,8,9,9,10,10,13,13],"right_children":[2,4,6,-1,10,12,14,-1,-1,18,20,-1,-1,22,-1,-1,-1,-1,-1,-1,-1,-1,-1],"split_conditions":[6.4318533E0,1.9309199E0,2.193031E-1,-5.4505777E-2,7.558764E1,9.7288666E1,9.623013E1,-6.1933644E-2,-4.0102817E-2,2.2064593E-1,1.1239201E1,-5.410558E-2,-1.783481E-2,2.682514E-1,4.970707E-2,-1.8745914E-2,-4.9898665E-2,-3.1616576E-2,1.9744817E-2,-1.1168039E-2,-3.9535414E-2,-3.850146E-2,4.019351E-2],"split_indices":[2,2,4,4,0,0,0,2147483647,2147483647,4,1,0,0,4,0,2147483647,2147483647,0,0,0,0,0,0],"split_type":[0,0,0,0,0,0,0,0,0,0,0,0,0,0,0,0,0,0,0,0,0,0,0],"sum_hessian":[9.6418884E1,6.758607E1,2.8832811E1,2.298947E1,4.45966E1,1.1943159E1,1.6889654E1,1.2990039E1,9.999432E0,9.40374E0,3.519286E1,6.2415695E0,5.701589E0,8.725594E0,8.16406E0,4.060546E0,5.938885E0,4.0401125E0,5.3636274E0,6.0549765E0,2.9137884E1,4.451239E0,4.274354E0],"tree_param":{"num_deleted":"4","num_feature":"5","num_nodes":"23","size_leaf_vector":"0"}},{"base_weights":[-5.414632E-1,-9.5211875E-1,-8.94926E-2,-1.0154343E0,-2.789585E-1,-5.212943E-1,4.6673715E-1,-3.864548E-1,-1.0703351E0,-7.6237965E-1,-5.937066E-2,1.017983E0,2.5593504E-1,-1.2056006E0,-7.4948645E-1,-1.1197155E0,-5.22149E-1,-4.7538832E-1,4.1001314E-1,-3.8188973E-1,6.8688464E-1],"categories":[],"categories_nodes":[],"categories_segments":[],"categories_sizes":[],"default_left":[1,1,1,1,0,1,1,0,1,1,1,0,1,0,0,0,0,0,0,0,0],"id":14,"left_children":[1,3,5,7,-1,9,11,-1,13,15,17,-1,19,-1,-1,-1,-1,-1,-1,-1,-1],"loss_changes":[1.7615892E1,1.8420105E0,1.1412963E1,1.1470909E0,0E0,2.922893E0,2.1624584E0,0E0,8.759651E-1,9.1137505E-1,2.191545E0,0E0,4.7755857E0,0E0,0E0,0E0,0E0,0E0,0E0,0E0,0E0],"parents":[2147483647,0,0,1,1,2,2,3,3,5,5,6,6,8,8,9,9,10,10,12,12],"right_children":[2,4,6,8,-1,10,12,-1,14,16,18,-1,20,-1,-1,-1,-1,-1,-1,-1,-1],"split_conditions":[2.3472485E-1,1.8276127E1,2.4682063E-1,7.8294497E0,-1.39479255E-2,1.0673013E2,1.502886E1,-1.932274E-2,1.3215809E1,1.7492664E1,2.0779493E-1,5.0899148E-2,4.6818146E-1,-6.0280032E-2,-3.7474323E-2,-5.5985775E-2,-2.6107451E-2,-2.3769416E-2,2.0500658E-2,-1.9094488E-2,3.4344234E-2],"split_indices":[3,1,4,1,0,0,1,0,1,1,4,0,3,0,0,0,0,0,0,0,0],"split_type":[0,0,0,0,0,0,0,0,0,0,0,0,0,0,0,0,0,0,0,0,0],"sum_hessian":[9.437043E1,4.8865273E1,4.550516E1,4.4199463E1,4.665809E0,2.5653343E1,1.9851818E1,4.193709E0,4.0005756E1,1.6428493E1,9.224849E0,4.432234E0,1.5419583E1,2.6201754E1,1.3804001E1,5.132639E0,1.12958555E1,4.8837056E0,4.3411436E0,6.2633176E0,9.156266E0],"tree_param":{"num_deleted":"0","num_feature":"5","num_nodes":"21","size_leaf_vector":"0"}},{"base_weights":[-5.731519E-1,-8.7633514E-1,-3.9544445E-2,-1.0434167E0,-6.364927E-1,-3.1472328E-1,9.6753216E-1,-3.7151027E-1,-1.1278509E0,3.0945587E-1,-8.34739E-1,-6.9550174E-1,3.75608E-2,-1.241625E0,-6.406731E-1,-3.8057736E-1,-1.0809036E0,-3.7169248E-1,-9.331712E-1,3.657472E-1,-4.0363628E-1],"categories":[],"categories_nodes":[],"categories_segments":[],"categories_sizes":[],"default_left":[1,1,1,1,1,1,0,0,1,0,1,1,1,0,0,0,0,0,0,0,0],"id":15,"left_children":[1,3,5,7,9,11,-1,-1,13,-1,15,17,19,-1,-1,-1,-1,-1,-1,-1,-1],"loss_changes":[1.4786671E1,1.6749954E0,9.793426E0,1.4440536E0,5.233939E0,3.7347782E0,0E0,0E0,7.9431534E-1,0E0,2.0711164E0,6.795263E-1,2.3643625E0,0E0,0E0,0E0,0E0,0E0,0E0,0E0,0E0],"parents":[2147483647,0,0,1,1,2,2,3,3,4,4,5,5,8,8,10,10,11,11,12,12],"right_children":[2,4,6,8,10,12,-1,-1,14,-1,16,18,20,-1,-1,-1,-1,-1,-1,-1,-1],"split_conditions":[3.234634E-1,1.3215809E1,2.9438007E-1,7.617688E0,6.0545936E-2,2.193031E-1,4.837661E-2,-1.8575514E-2,3.0018204E-1,1.5472794E-2,2.3187418E-1,2.3835678E1,2.5134254E-1,-6.2081248E-2,-3.2033656E-2,-1.9028869E-2,-5.404518E-2,-1.8584624E-2,-4.665856E-2,1.828736E-2,-2.0181814E-2],"split_indices":[3,1,4,1,3,4,0,0,4,0,4,1,4,0,0,0,0,0,0,0,0],"split_type":[0,0,0,0,0,0,0,0,0,0,0,0,0,0,0,0,0,0,0,0,0],"sum_hessian":[9.061388E1,5.7373318E1,3.3240555E1,3.1841158E1,2.5532162E1,2.6646942E1,6.5936112E0,4.157488E0,2.768367E1,4.326534E0,2.120563E1,1.2337455E1,1.4309487E1,2.118701E1,6.4966593E0,8.348776E0,1.2856853E1,6.307716E0,6.029739E0,8.303797E0,6.005691E0],"tree_param":{"num_deleted":"0","num_feature":"5","num_nodes":"21","size_leaf_vector":"0"}},{"base_weights":[-5.1207536E-1,-8.5152286E-1,-9.9274136E-2,-1.1064188E-1,-9.1418236E-1,-2.3591992E-1,7.500447E-1,-1.002286E0,-1.2893443E-1,1.9606252E-1,-5.7393557E-1,-7.1099126E-1,-1.1113836E0,5.9977573E-1,9.344846E-3,-1.0250999E0,-3.9798504E-1],"categories":[],"categories_nodes":[],"categories_segments":[],"categories_sizes":[],"default_left":[1,1,1,0,1,1,0,1,0,1,1,1,1,0,0,0,0],"id":16,"left_children":[1,3,5,-1,7,9,-1,-1,-1,13,15,-1,-1,-1,-1,-1,-1],"loss_changes":[1.2862547E1,2.246502E0,5.1471086E0,0E0,3.0870628E0,5.610269E0,0E0,5.334282E-1,0E0,1.296453E0,1.2889748E0,0E0,0E0,0E0,0E0,0E0,0E0],"parents":[2147483647,0,0,1,1,2,2,4,4,5,5,7,7,9,9,10,10],"right_children":[2,4,6,-1,8,10,-1,-1,-1,14,16,-1,-1,-1,-1,-1,-1],"split_conditions":[2.4455166E-1,3.763572E-2,9.312645E-1,-5.5320943E-3,1.8276127E1,1.8963028E1,3.7502237E-2,-5.01143E-2,-6.4467215E-3,3.9562867E0,7.051488E0,-3.5549562E-2,-5.556918E-2,2.9988786E-2,4.672423E-4,-5.1254995E-2,-1.9899253E-2],"split_indices":[3,3,3,0,1,1,0,0,0,2,2,2147483647,2147483647,0,0,0,0],"split_type":[0,0,0,0,0,0,0,0,0,0,0,0,0,0,0,0,0],"sum_hessian":[9.1397446E1,4.9571644E1,4.1825798E1,4.0812955E0,4.549035E1,3.6651302E1,5.1744957E0,4.065272E1,4.8376284E0,1.627357E1,2.0377733E1,1.3125265E1,2.7527456E1,4.446676E0,1.1826893E1,4.3632727E0,1.6014462E1],"tree_param":{"num_deleted":"2","num_feature":"5","num_nodes":"17","size_leaf_vector":"0"}},{"base_weights":[-5.163973E-1,-6.013978E-1,8.137913E-1,-8.377645E-1,-3.0337304E-1,-7.497315E-2,-9.0656704E-1,-6.298769E-1,6.730636E-1,-3.3776045E-1,-9.5804244E-1,-7.952113E-1,-1.4617044E-1,1.232079E0,1.0838558E-1],"categories":[],"categories_nodes":[],"categories_segments":[],"categories_sizes":[],"default_left":[1,1,0,1,1,0,1,1,1,0,0,0,0,0,0],"id":17,"left_children":[1,3,-1,5,7,-1,9,11,13,-1,-1,-1,-1,-1,-1],"loss_changes":[1.0828587E1,5.840946E0,0E0,2.4346848E0,1.312506E1,0E0,9.5443726E-1,2.3127012E0,3.1703405E0,0E0,0E0,0E0,0E0,0E0,0E0],"parents":[2147483647,0,0,1,1,3,3,4,4,6,6,7,7,8,8],"right_children":[2,4,-1,6,8,-1,10,12,14,-1,-1,-1,-1,-1,-1],"split_conditions":[8.935149E-1,2.3472485E-1,4.0689565E-2,3.4411106E-2,2.9449493E-1,-3.7486576E-3,7.9570975E0,1.1356012E2,1.7143742E1,-1.6888022E-2,-4.7902122E-2,-3.9760567E-2,-7.308522E-3,6.1603952E-2,5.419279E-3],"split_indices":[3,3,0,3,4,0,1,0,1,0,0,0,0,0,0],"split_type":[0,0,0,0,0,0,0,0,0,0,0,0,0,0,0],"sum_hessian":[9.044323E1,8.552595E1,4.9172792E0,4.6686863E1,3.883909E1,4.035626E0,4.2651237E1,2.9372421E1,9.466666E0,4.1670976E0,3.848414E1,2.141017E1,7.9622507E0,4.163206E0,5.3034606E0],"tree_param":{"num_deleted":"0","num_feature":"5","num_nodes":"15","size_leaf_vector":"0"}},{"base_weights":[-5.1558805E-1,-7.7330816E-1,-3.956602E-2,-8.210574E-1,-9.153335E-2,-2.4975403E-1,7.6056E-1,-2.0805359E-1,-8.7020737E-1,-6.0385203E-1,-6.629529E-2,-9.633011E-1,-5.645575E-1,-2.594894E-1,3.7862426E-1],"categories":[],"categories_nodes":[],"categories_segments":[],"categories_sizes":[],"default_left":[1,1,1,1,0,1,0,0,1,0,1,0,0,0,0],"id":18,"left_children":[1,3,5,7,-1,9,-1,-1,11,-1,13,-1,-1,-1,-1],"loss_changes":[1.1408499E1,1.8923302E0,5.8751235E0,1.5168877E0,0E0,1.7480146E0,0E0,0E0,9.317055E-1,0E0,1.7532822E0,0E0,0E0,0E0,0E0],"parents":[2147483647,0,0,1,1,2,2,3,3,5,5,8,8,10,10],"right_children":[2,4,6,8,-1,10,-1,-1,12,-1,14,-1,-1,-1,-1],"split_conditions":[3.3789527E-1,6.5580516E0,3.008622E-1,3.4411106E-2,-4.5766677E-3,2.0779493E-1,3.8027998E-2,-1.0402679E-2,2.9925346E-1,-3.0192602E-2,7.557111E-1,-4.8165057E-2,-2.8227875E-2,-1.297447E-2,1.8931214E-2],"split_indices":[3,2,4,3,0,4,0,0,4,0,3,0,0,0,0],"split_type":[0,0,0,0,0,0,0,0,0,0,0,0,0,0,0],"sum_hessian":[9.224336E1,5.9438507E1,3.280486E1,5.535711E1,4.081396E0,2.6524864E1,6.279994E0,4.497529E0,5.085958E1,8.270336E0,1.8254528E1,3.733608E1,1.3523501E1,1.3018491E1,5.236038E0],"tree_param":{"num_deleted":"0","num_feature":"5","num_nodes":"15","size_leaf_vector":"0"}},{"base_weights":[-5.0350904E-1,-9.3145734E-1,-2.3659708E-1,-7.2379726E-1,-1.2578574E0,-5.081225E-1,3.5205368E-2,-1.0467297E0,-8.7285906E-2,-7.312067E-1,-3.3556628E-1,-3.6375922E-1,7.1759444E-1,-3.67119E-1,-9.610687E-1,-1.1520843E-1,-8.6121106E-1,5.630753E-1,-6.696383E-1,1.0101925E0,2.6030448E-1],"categories":[],"categories_nodes":[],"categories_segments":[],"categories_sizes":[],"default_left":[1,1,1,1,0,1,1,0,0,1,1,1,1,1,1,0,0,0,0,0,0],"id":19,"left_children":[1,3,5,7,-1,9,11,-1,-1,-1,15,17,19,-1,-1,-1,-1,-1,-1,-1,-1],"loss_changes":[9.891396E0,1.3712425E0,4.1405725E0,4.6218243E0,0E0,8.3280945E-1,8.115896E0,0E0,0E0,5.9850216E-1,1.9441881E0,5.72682E0,1.2062936E0,0E0,0E0,0E0,0E0,0E0,0E0,0E0,0E0],"parents":[2147483647,0,0,1,1,2,2,3,3,5,5,6,6,9,9,10,10,11,11,12,12],"right_children":[2,4,6,8,-1,10,12,-1,-1,-1,16,18,20,-1,-1,-1,-1,-1,-1,-1,-1],"split_conditions":[1.3215809E1,1.1156222E1,2.4571264E-1,1.9669019E0,-6.289288E-2,1.887894E-1,4.0818864E-1,-5.2336484E-2,-4.3642954E-3,-3.6560338E-2,2.317316E-1,6.1286744E-2,5.9120536E-1,-1.835595E-2,-4.8053436E-2,-5.7604215E-3,-4.3060552E-2,2.8153766E-2,-3.3481915E-2,5.0509628E-2,1.3015225E-2],"split_indices":[1,1,4,2,0,4,3,0,0,1,4,3,3,2147483647,2147483647,0,0,0,0,0,0],"split_type":[0,0,0,0,0,0,0,0,0,0,0,0,0,0,0,0,0,0,0,0,0],"sum_hessian":[8.7525955E1,3.266431E1,5.486164E1,2.1929892E1,1.0734419E1,2.7009949E1,2.7851694E1,1.4121052E1,7.80884E0,1.0368087E1,1.6641861E1,1.7870445E1,9.981248E0,5.017698E0,5.350389E0,1.2585224E1,4.056637E0,4.2255955E0,1.364485E1,5.349295E0,4.631953E0],"tree_param":{"num_deleted":"2","num_feature":"5","num_nodes":"21","size_leaf_vector":"0"}},{"base_weights":[-4.4756222E-1,-6.683916E-1,7.059334E-2,-9.653448E-1,-5.111089E-1,-4.1691342E-1,7.526741E-1,-1.0782593E0,-5.5354166E-1,1.2685129E-1,-6.2243235E-1,-6.9146353E-1,-2.500093E-2,1.1654282E0,3.1246138E-1,-2.1335934E-1,-7.5149006E-1,-1.9508651E-1,-1.0273427E0],"categories":[],"categories_nodes":[],"categories_segments":[],"categories_sizes":[],"default_left":[1,1,1,1,1,1,1,1,1,0,1,1,0,0,0,0,0,0,0],"id":20,"left_children":[1,3,5,-1,9,11,13,-1,-1,-1,15,17,-1,-1,-1,-1,-1,-1,-1],"loss_changes":[1.0006617E1,2.3614235E0,9.263313E0,3.34877E-1,3.0678902E0,1.7407854E0,1.7389264E0,0E0,0E0,0E0,1.7403069E0,1.3951797E0,0E0,0E0,0E0,0E0,0E0,0E0,0E0],"parents":[2147483647,0,0,1,1,2,2,3,3,4,4,5,5,6,6,10,10,11,11],"right_children":[2,4,6,-1,10,12,14,-1,-1,-1,16,18,-1,-1,-1,-1,-1,-1,-1],"split_conditions":[6.4318533E0,1.9309199E0,2.4429692E-1,-4.826724E-2,9.619223E0,9.991028E1,2.347718E1,-5.3912967E-2,-2.7677083E-2,6.3425647E-3,8.455387E1,1.9617964E-1,-1.2500465E-3,5.8271408E-2,1.5623069E-2,-1.0667968E-2,-3.7574504E-2,-9.754325E-3,-5.1367134E-2],"split_indices":[2,2,4,4,1,0,1,2147483647,2147483647,0,0,4,0,0,0,0,0,0,0],"split_type":[0,0,0,0,0,0,0,0,0,0,0,0,0,0,0,0,0,0,0],"sum_hessian":[8.60395E1,6.012526E1,2.5914242E1,1.9039782E1,4.1085476E1,1.5339359E1,1.05748825E1,1.3672372E1,5.3674097E0,6.083412E0,3.5002064E1,8.570752E0,6.768607E0,4.607369E0,5.967514E0,9.030802E0,2.5971262E1,4.096999E0,4.473753E0],"tree_param":{"num_deleted":"2","num_feature":"5","num_nodes":"19","size_leaf_vector":"0"}},{"base_weights":[-4.0800294E-1,-8.335409E-1,-7.282539E-2,-9.2354816E-1,-1.0683119E-1,-5.421942E-1,1.6222905E-1,-4.3315786E-1,-1.0233545E0,-7.014984E-3,-7.225213E-1,1.0044565E0,-2.5679037E-2,-9.633793E-1,-4.8084164E-1,-7.1391165E-1,3.2548743E-1],"categories":[],"categories_nodes":[],"categories_segments":[],"categories_sizes":[],"default_left":[1,1,1,1,0,1,1,0,0,0,1,0,1,1,1,0,0],"id":21,"left_children":[1,3,5,7,-1,9,11,-1,-1,-1,-1,-1,15,-1,-1,-1,-1],"loss_changes":[1.2408378E1,2.4145164E0,5.604247E0,1.2235832E0,0E0,1.6272459E0,5.4201646E0,0E0,0E0,0E0,2.7256536E-1,0E0,7.2031555E0,0E0,0E0,0E0,0E0],"parents":[2147483647,0,0,1,1,2,2,3,3,5,5,6,6,10,10,12,12],"right_children":[2,4,6,8,-1,10,12,-1,-1,-1,-1,-1,16,-1,-1,-1,-1],"split_conditions":[3.3353553E0,3.7922817E-1,2.0779493E-1,6.0545936E-2,-5.3415596E-3,2.4667072E-1,1.4779229E1,-2.1657893E-2,-5.1167727E-2,-3.507492E-4,-3.6126066E-2,5.0222825E-2,3.7407318E-1,-4.816897E-2,-2.4042083E-2,-3.5695583E-2,1.6274372E-2],"split_indices":[2,4,4,3,0,3,1,0,0,0,3,0,3,2147483647,2147483647,0,0],"split_type":[0,0,0,0,0,0,0,0,0,0,0,0,0,0,0,0,0],"sum_hessian":[8.64224E1,3.7423237E1,4.8999165E1,3.305789E1,4.365346E0,1.591427E1,3.3084896E1,6.4934316E0,2.656446E1,4.2727327E0,1.1641539E1,5.242437E0,2.7842459E1,4.334944E0,7.3065944E0,9.0577755E0,1.8784683E1],"tree_param":{"num_deleted":"2","num_feature":"5","num_nodes":"17","size_leaf_vector":"0"}},{"base_weights":[-4.120703E-1,-8.130469E-1,-1.8298352E-1,-9.860243E-1,-3.0481547E-1,8.5323185E-1,-2.7861196E-1,-1.1172022E0,-5.2324665E-1,-7.589095E-1,2.2968878E-1,-5.963357E-1,4.5126487E-2,-9.7124144E-2,-7.4133754E-1,-3.5635892E-1,5.027011E-1],"categories":[],"categories_nodes":[],"categories_segments":[],"categories_sizes":[],"default_left":[1,1,1,1,1,0,1,0,0,0,0,1,1,0,0,0,0],"id":22,"left_children":[1,3,5,7,9,-1,11,-1,-1,-1,-1,13,15,-1,-1,-1,-1],"loss_changes":[7.8222017E0,2.4475574E0,5.8378334E0,8.0399704E-1,2.4523156E0,0E0,5.4264154E0,0E0,0E0,0E0,0E0,1.8507929E0,5.1265116E0,0E0,0E0,0E0,0E0],"parents":[2147483647,0,0,1,1,2,2,3,3,4,4,6,6,11,11,12,12],"right_children":[2,4,6,8,10,-1,12,-1,-1,-1,-1,14,16,-1,-1,-1,-1],"split_conditions":[1.3215809E1,1.944322E-1,6.0545936E-2,1.16833855E2,2.3574443E-1,4.2661592E-2,4.0818864E-1,-5.586011E-2,-2.6162332E-2,-3.7945475E-2,1.14844395E-2,7.691129E1,2.3829904E-1,-4.8562074E-3,-3.7066877E-2,-1.7817946E-2,2.5135055E-2],"split_indices":[1,3,3,0,4,0,3,0,0,0,0,0,4,0,0,0,0],"split_type":[0,0,0,0,0,0,0,0,0,0,0,0,0,0,0,0,0],"sum_hessian":[8.577511E1,3.0260345E1,5.5514767E1,2.1874958E1,8.385387E0,4.0209937E0,5.1493774E1,1.5941879E1,5.933078E0,4.3067746E0,4.078613E0,2.556342E1,2.5930355E1,6.12983E0,1.9433588E1,1.3929455E1,1.20009E1],"tree_param":{"num_deleted":"0","num_feature":"5","num_nodes":"17","size_leaf_vector":"0"}},{"base_weights":[-4.1090602E-1,-7.0652294E-1,-8.893375E-2,-7.963467E-1,1.3029465E-1,-3.4760028E-1,7.88683E-1,-8.925509E-1,-1.035736E-1,-7.6258934E-1,-4.0744554E-2,3.547163E-1,1.0821172E0,-2.6565602E-1,-9.6673775E-1,-2.543079E-1,-9.8546535E-1,-2.8591776E-1,4.9772906E-1],"categories":[],"categories_nodes":[],"categories_segments":[],"categories_sizes":[],"default_left":[1,1,1,1,0,1,1,1,0,1,1,0,0,0,0,0,0,0,0],"id":23,"left_children":[1,3,5,7,-1,9,11,13,-1,15,17,-1,-1,-1,-1,-1,-1,-1,-1],"loss_changes":[8.028382E0,3.4242268E0,9.771096E0,2.5756245E0,0E0,4.171895E0,8.67753E-1,1.3718262E0,0E0,1.3323765E0,2.786847E0,0E0,0E0,0E0,0E0,0E0,0E0,0E0,0E0],"parents":[2147483647,0,0,1,1,2,2,3,3,5,5,6,6,7,7,9,9,10,10],"right_children":[2,4,6,8,-1,10,12,14,-1,16,18,-1,-1,-1,-1,-1,-1,-1,-1],"split_conditions":[2.5550577E-1,3.7912062E-1,2.9880044E-1,1.7830929E1,6.5147327E-3,2.0779493E-1,6.199339E0,8.021702E0,-5.17868E-3,1.9113014E1,7.557111E-1,1.7735815E-2,5.410586E-2,-1.3282801E-2,-4.833689E-2,-1.2715395E-2,-4.9273267E-2,-1.4295888E-2,2.4886454E-2],"split_indices":[3,4,4,1,0,4,2,1,0,1,3,0,0,0,0,0,0,0,0],"split_type":[0,0,0,0,0,0,0,0,0,0,0,0,0,0,0,0,0,0,0],"sum_hessian":[8.400963E1,4.3174603E1,4.0835026E1,3.903321E1,4.141392E0,3.2005722E1,8.829302E0,3.4020412E1,5.0127983E0,1.2974196E1,1.9031527E1,4.452867E0,4.3764343E0,4.084774E0,2.9935638E1,4.6075864E0,8.36661E0,1.3399633E1,5.631892E0],"tree_param":{"num_deleted":"0","num_feature":"5","num_nodes":"19","size_leaf_vector":"0"}},{"base_weights":[-3.4320167E-1,-5.3613615E-1,1.8013759E-1,-9.5820296E-1,-3.654462E-1,-3.2360393E-1,6.159286E-1,2.3328865E-1,-5.125029E-1,1.7477743E-1,-8.723738E-1,1.1606988E0,1.5441656E-1,-1.6425356E-1,5.932211E-1,3.8083306E-1,-6.4222807E-1],"categories":[],"categories_nodes":[],"categories_segments":[],"categories_sizes":[],"default_left":[1,1,1,0,1,1,1,1,1,0,0,0,0,0,0,0,0],"id":24,"left_children":[1,3,5,-1,7,9,11,13,15,-1,-1,-1,-1,-1,-1,-1,-1],"loss_changes":[8.406468E0,3.9999466E0,5.2301483E0,0E0,4.047583E0,3.2389612E0,2.9965043E0,1.4544866E0,4.4314365E0,0E0,0E0,0E0,0E0,0E0,0E0,0E0,0E0],"parents":[2147483647,0,0,1,1,2,2,4,4,5,5,6,6,7,7,8,8],"right_children":[2,4,6,-1,8,10,12,14,16,-1,-1,-1,-1,-1,-1,-1,-1],"split_conditions":[4.7305644E-1,1.9181502E0,9.984146E1,-4.791015E-2,1.12244215E1,6.2349975E-1,9.79641E0,1.944322E-1,5.759228E-2,8.738872E-3,-4.361869E-2,5.8034938E-2,7.720828E-3,-8.212678E-3,2.9661058E-2,1.9041654E-2,-3.2111403E-2],"split_indices":[3,2,0,0,1,3,2,3,3,0,0,0,0,0,0,0,0],"split_type":[0,0,0,0,0,0,0,0,0,0,0,0,0,0,0,0,0],"sum_hessian":[8.130026E1,5.938354E1,2.1916721E1,1.577141E1,4.3612133E1,1.0285165E1,1.16315565E1,8.483838E0,3.5128296E1,5.747146E0,4.5380187E0,4.6397185E0,6.991838E0,4.289566E0,4.194272E0,4.208805E0,3.0919489E1],"tree_param":{"num_deleted":"0","num_feature":"5","num_nodes":"17","size_leaf_vector":"0"}},{"base_weights":[-4.279343E-1,-5.200681E-1,8.8280493E-1,-9.8626244E-1,-3.5883784E-1,-1.0983007E0,-5.8619404E-1,-6.263343E-1,-3.3467073E-2,-8.5741395E-1,4.1373964E-2,2.4688177E-1,-8.0587465E-1],"categories":[],"categories_nodes":[],"categories_segments":[],"categories_sizes":[],"default_left":[1,1,0,1,1,1,1,1,1,0,0,0,0],"id":25,"left_children":[1,3,-1,-1,7,-1,-1,9,11,-1,-1,-1,-1],"loss_changes":[1.040214E1,5.4755535E0,0E0,2.2377586E-1,5.131418E0,0E0,0E0,5.039629E0,6.211657E0,0E0,0E0,0E0,0E0],"parents":[2147483647,0,0,1,1,3,3,4,4,7,7,8,8],"right_children":[2,4,-1,-1,8,-1,-1,10,12,-1,-1,-1,-1],"split_conditions":[8.935149E-1,1.8787444E0,4.4140246E-2,-4.9313124E-2,2.4657995E-1,-5.4915037E-2,-2.9309703E-2,1.14750946E2,1.3261285E2,-4.2870697E-2,2.0686982E-3,1.2344088E-2,-4.0293735E-2],"split_indices":[3,2,0,0,4,2147483647,2147483647,0,0,0,0,0,0],"split_type":[0,0,0,0,0,0,0,0,0,0,0,0,0],"sum_hessian":[8.133487E1,7.655684E1,4.778031E0,1.8357897E1,5.819894E1,1.2978024E1,5.379873E0,3.1432365E1,2.6766575E1,2.3140047E1,8.292318E0,2.0137783E1,6.6287913E0],"tree_param":{"num_deleted":"2","num_feature":"5","num_nodes":"13","size_leaf_vector":"0"}},{"base_weights":[-3.914706E-1,-9.676819E-1,-2.1396606E-1,-2.8973943E-1,5.1784277E-1,3.4234953E-1,-3.4658974E-1,1.5668994E-1,-4.1856563E-1],"categories":[],"categories_nodes":[],"categories_segments":[],"categories_sizes":[],"default_left":[1,0,1,1,0,0,1,0,0],"id":26,"left_children":[1,-1,3,5,-1,-1,7,-1,-1],"loss_changes":[7.892213E0,0E0,3.5781834E0,2.1548133E0,0E0,0E0,1.9667897E0,0E0,0E0],"parents":[2147483647,0,0,2,2,3,3,6,6],"right_children":[2,-1,4,6,-1,-1,8,-1,-1],"split_conditions":[1.9822137E0,-4.8384096E-2,9.312645E-1,9.212217E0,2.5892138E-2,1.7117476E-2,8.397596E-2,7.834497E-3,-2.0928282E-2],"split_indices":[2,0,3,1,0,0,3,0,0],"split_type":[0,0,0,0,0,0,0,0,0],"sum_hessian":[7.818767E1,1.736522E1,6.082245E1,5.5663094E1,5.159354E0,4.178766E0,5.1484325E1,6.2943587E0,4.518997E1],"tree_param":{"num_deleted":"0","num_feature":"5","num_nodes":"9","size_leaf_vector":"0"}},{"base_weights":[-3.2410574E-1,-5.766177E-1,9.602476E-2,-6.782423E-1,5.30283E-2,-3.6739463E-1,3.7485847E-1,-5.5905093E-2,-7.7339274E-1,-6.1491406E-1,-1.3889247E-1,-1.0195941E-1,6.0085994E-1,-9.258947E-1,-2.3721154E-1,7.710673E-1,1.6313186E-1],"categories":[],"categories_nodes":[],"categories_segments":[],"categories_sizes":[],"default_left":[1,1,1,1,0,1,1,0,1,1,1,0,1,0,0,0,0],"id":27,"left_children":[1,3,5,7,-1,-1,11,-1,13,-1,-1,-1,15,-1,-1,-1,-1],"loss_changes":[8.529683E0,3.23765E0,4.1233263E0,2.5121536E0,0E0,5.984566E-1,2.1898382E0,0E0,2.834669E0,0E0,0E0,0E0,8.8339806E-1,0E0,0E0,0E0,0E0],"parents":[2147483647,0,0,1,1,2,2,3,3,5,5,6,6,8,8,12,12],"right_children":[2,4,6,8,-1,-1,12,-1,14,-1,-1,-1,16,-1,-1,-1,-1],"split_conditions":[3.3789527E-1,3.7934107E-1,2.193031E-1,6.0545936E-2,2.651415E-3,-1.8369732E-2,9.111329E1,-2.7952546E-3,4.587277E0,-3.0745704E-2,-6.944624E-3,-5.0979704E-3,1.3248195E2,-4.6294734E-2,-1.1860577E-2,3.855337E-2,8.156593E-3],"split_indices":[3,4,4,3,0,3,0,0,2,2147483647,2147483647,0,0,0,0,0,0],"split_type":[0,0,0,0,0,0,0,0,0,0,0,0,0,0,0,0,0],"sum_hessian":[7.887982E1,4.9035534E1,2.9844288E1,4.2154682E1,6.880851E0,1.109188E1,1.8752409E1,5.800992E0,3.635369E1,4.5125194E0,6.579361E0,6.206523E0,1.2545886E1,2.773758E1,8.616113E0,8.484942E0,4.060943E0],"tree_param":{"num_deleted":"2","num_feature":"5","num_nodes":"17","size_leaf_vector":"0"}},{"base_weights":[-3.039987E-1,-6.8548787E-1,-1.0408453E-1,-9.3838596E-1,-1.688825E-1,5.534988E-1,-1.6740514E-1,-4.2550033E-1,-1.0533559E0,-7.0175713E-1,3.2888165E-1,-8.241993E-1,-7.261253E-2,5.3825605E-1,-1.5091412E-1],"categories":[],"categories_nodes":[],"categories_segments":[],"categories_sizes":[],"default_left":[1,1,1,1,1,0,1,0,0,0,0,0,1,0,0],"id":28,"left_children":[1,3,5,7,9,-1,11,-1,-1,-1,-1,-1,13,-1,-1],"loss_changes":[6.2485695E0,3.5407743E0,2.4058013E0,6.596832E-1,3.0226E0,0E0,3.1428263E0,0E0,0E0,0E0,0E0,0E0,2.28389E0,0E0,0E0],"parents":[2147483647,0,0,1,1,2,2,3,3,4,4,6,6,12,12],"right_children":[2,4,6,8,10,-1,12,-1,-1,-1,-1,-1,14,-1,-1],"split_conditions":[1.3215809E1,2.6808485E-1,1.397798E1,8.172798E0,1.1726723E-1,2.7674941E-2,6.8953186E1,-2.1275017E-2,-5.2667797E-2,-3.5087857E-2,1.6444083E-2,-4.1209966E-2,6.6724405E-2,2.6912803E-2,-7.545706E-3],"split_indices":[1,4,1,1,3,0,0,0,0,0,0,0,3,0,0],"split_type":[0,0,0,0,0,0,0,0,0,0,0,0,0,0,0],"sum_hessian":[8.1868286E1,2.731496E1,5.4553326E1,1.7789684E1,9.525276E0,4.1116743E0,5.0441654E1,4.1184616E0,1.3671223E1,4.4025106E0,5.1227655E0,5.3913126E0,4.505034E1,4.451018E0,4.0599323E1],"tree_param":{"num_deleted":"0","num_feature":"5","num_nodes":"15","size_leaf_vector":"0"}},{"base_weights":[-3.8706532E-1,-7.5871277E-1,-1.8089062E-1,-1.011374E0,-2.7013728E-1,5.6494224E-1,-2.6651847E-1,-7.444593E-1,3.5659823E-1,-7.434174E-1,-1.2134454E-1,-1.056613E0,-3.140651E-1,5.039097E-1,-2.5232205E-1],"categories":[],"categories_nodes":[],"categories_segments":[],"categories_sizes":[],"default_left":[1,1,1,0,1,0,1,0,0,1,1,0,0,0,0],"id":29,"left_children":[1,3,5,-1,7,-1,9,-1,-1,11,13,-1,-1,-1,-1],"loss_changes":[5.9020863E0,3.159727E0,3.4719846E0,0E0,3.4891393E0,0E0,3.1866505E0,0E0,0E0,1.1271834E0,3.196589E0,0E0,0E0,0E0,0E0],"parents":[2147483647,0,0,1,1,2,2,4,4,6,6,9,9,10,10],"right_children":[2,4,6,-1,8,-1,10,-1,-1,12,14,-1,-1,-1,-1],"split_conditions":[1.3211254E1,2.5938326E-1,6.0814448E-2,-5.05687E-2,1.8787444E0,2.8247112E-2,1.9059625E-1,-3.7222963E-2,1.7829912E-2,1.6381744E1,1.6242298E1,-5.2830648E-2,-1.5703255E-2,2.5195485E-2,-1.2616103E-2],"split_indices":[1,4,3,0,2,0,3,0,0,1,1,0,0,0,0],"split_type":[0,0,0,0,0,0,0,0,0,0,0,0,0,0,0],"sum_hessian":[7.7818016E1,2.6810183E1,5.100783E1,1.6966173E1,9.84401E0,4.6765013E0,4.633133E1,5.4964585E0,4.3475513E0,9.85063E0,3.64807E1,4.850973E0,4.9996567E0,5.825158E0,3.0655542E1],"tree_param":{"num_deleted":"0","num_feature":"5","num_nodes":"15","size_leaf_vector":"0"}},{"base_weights":[-1.9592464E-1,-8.5172033E-1,-4.8403412E-2,-9.8244876E-1,-4.9976924E-1,-4.5040098E-1,1.3226254E-1,1.088272E-1,-5.9815425E-1,8.3287257E-1,4.5068923E-2,-7.759851E-1,-1.3686779E-1,-4.3425506E-1,2.8777492E-1],"categories":[],"categories_nodes":[],"categories_segments":[],"categories_sizes":[],"default_left":[1,1,1,1,1,1,1,0,1,0,1,0,0,0,0],"id":30,"left_children":[1,-1,5,-1,-1,7,9,-1,11,-1,13,-1,-1,-1,-1],"loss_changes":[7.5533085E0,1.6943836E-1,4.790977E0,0E0,0E0,1.7529502E0,2.755352E0,0E0,1.2318234E0,0E0,4.9780273E0,0E0,0E0,0E0,0E0],"parents":[2147483647,0,0,1,1,2,2,5,5,6,6,8,8,10,10],"right_children":[2,-1,6,-1,-1,8,10,-1,12,-1,14,-1,-1,-1,-1],"split_conditions":[1.7575835E0,-4.2586017E-2,2.0779493E-1,-4.9122438E-2,-2.4988463E-2,1.5310988E-1,6.0814448E-2,5.44136E-3,2.18328E1,4.164363E-2,2.5550577E-1,-3.8799256E-2,-6.8433895E-3,-2.1712754E-2,1.4388747E-2],"split_indices":[2,3,4,2147483647,2147483647,3,3,0,1,0,3,0,0,0,0],"split_type":[0,0,0,0,0,0,0,0,0,0,0,0,0,0,0],"sum_hessian":[7.750199E1,1.33558E1,6.414619E1,8.432179E0,4.92362E0,1.9426903E1,4.4719288E1,4.115051E0,1.53118515E1,4.0029106E0,4.0716377E1,1.055894E1,4.7529116E0,1.3421201E1,2.7295176E1],"tree_param":{"num_deleted":"2","num_feature":"5","num_nodes":"15","size_leaf_vector":"0"}},{"base_weights":[-2.6069707E-1,-5.564511E-1,-5.5522114E-2,-7.3701054E-1,-1.6259515E-1,-5.74723E-1,8.197779E-2,-2.774964E-1,-8.8319933E-1,7.7947505E-2,-3.232434E-1,-1.392755E-1,-8.992716E-1,8.212466E-1,-1.2526006E-1,-1.0152463E0,-4.2717648E-1,-7.088406E-1,1.7009817E-1],"categories":[],"categories_nodes":[],"categories_segments":[],"categories_sizes":[],"default_left":[1,1,1,1,1,1,1,0,1,1,1,0,0,0,1,1,1,0,0],"id":31,"left_children":[1,3,5,7,-1,11,13,-1,-1,-1,-1,-1,-1,-1,17,-1,-1,-1,-1],"loss_changes":[4.4824076E0,2.0386782E0,3.2614288E0,1.1339121E0,4.4348878E-1,1.2246411E0,5.6906137E0,0E0,4.7647285E-1,0E0,0E0,0E0,0E0,0E0,5.1802516E0,0E0,0E0,0E0,0E0],"parents":[2147483647,0,0,1,1,2,2,3,3,4,4,5,5,6,6,8,8,14,14],"right_children":[2,4,6,8,-1,12,14,-1,-1,-1,-1,-1,-1,-1,18,-1,-1,-1,-1],"split_conditions":[3.3353553E0,2.9925346E-1,1.7821214E-1,9.1333885E0,-8.129758E-3,1.4967549E-1,1.4973228E1,-1.387482E-2,-4.4159967E-2,3.8973752E-3,-1.616217E-2,-6.9637755E-3,-4.496358E-2,4.1062333E-2,6.436084E0,-5.0762314E-2,-2.1358823E-2,-3.5442032E-2,8.5049085E-3],"split_indices":[2,4,4,1,1,4,1,0,0,2147483647,2147483647,0,0,0,2,2147483647,2147483647,0,0],"split_type":[0,0,0,0,0,0,0,0,0,0,0,0,0,0,0,0,0,0,0],"sum_hessian":[7.337765E1,2.9353321E1,4.4024323E1,1.952903E1,9.824292E0,8.552094E0,3.547223E1,5.412986E0,1.4116044E1,4.1399393E0,5.6843524E0,4.2624483E0,4.2896457E0,7.117995E0,2.8354235E1,9.995353E0,4.120691E0,9.057769E0,1.9296465E1],"tree_param":{"num_deleted":"4","num_feature":"5","num_nodes":"19","size_leaf_vector":"0"}},{"base_weights":[-2.5638604E-1,-7.567112E-1,-1.3274786E-1,-8.949587E-1,-3.5783523E-1,4.7632682E-1,-1.8865383E-1,-7.3496866E-1,-1.10019125E-1,-2.1330992E-2,-6.8181103E-1],"categories":[],"categories_nodes":[],"categories_segments":[],"categories_sizes":[],"default_left":[1,1,1,1,1,0,1,0,1,0,0],"id":32,"left_children":[1,-1,5,-1,-1,-1,7,-1,9,-1,-1],"loss_changes":[4.917811E0,5.543766E-1,2.346147E0,0E0,0E0,0E0,2.5571485E0,0E0,2.7673109E0,0E0,0E0],"parents":[2147483647,0,0,1,1,2,2,6,6,8,8],"right_children":[2,-1,6,-1,-1,-1,8,-1,10,-1,-1],"split_conditions":[1.8787444E0,-3.783556E-2,6.0814448E-2,-4.4747934E-2,-1.7891763E-2,2.3816342E-2,1.1037846E-1,-3.6748435E-2,1.572885E2,-1.0665496E-3,-3.4090552E-2],"split_indices":[2,4,3,2147483647,2147483647,0,3,0,0,0,0],"split_type":[0,0,0,0,0,0,0,0,0,0,0],"sum_hessian":[8.012455E1,1.48619795E1,6.526257E1,1.0113046E1,4.748934E0,4.8544216E0,6.040815E1,6.5505967E0,5.385755E1,4.7523743E1,6.333807E0],"tree_param":{"num_deleted":"2","num_feature":"5","num_nodes":"11","size_leaf_vector":"0"}},{"base_weights":[-3.061726E-1,-6.8727136E-1,-6.896264E-2,-4.3812406E-1,-8.9315605E-1,4.5897582E-1,-1.5320355E-1,-8.880635E-1,-1.126877E-1,-1.0429953E0,-4.5837066E-1,-5.337777E-1,7.421983E-2,-4.5974395E-1,3.0597657E-1,-1.3197991E-1,-7.0082307E-1,6.026673E-1,-1.7795311E-1],"categories":[],"categories_nodes":[],"categories_segments":[],"categories_sizes":[],"default_left":[1,1,1,1,1,0,1,0,1,1,1,1,1,0,0,0,0,0,0],"id":33,"left_children":[1,3,5,7,-1,-1,11,-1,13,-1,-1,15,17,-1,-1,-1,-1,-1,-1],"loss_changes":[6.7287927E0,1.0780067E0,2.1744742E0,2.0851383E0,4.8092365E-1,0E0,3.6359968E0,0E0,1.5654246E0,0E0,0E0,9.5885277E-1,3.6902301E0,0E0,0E0,0E0,0E0,0E0,0E0],"parents":[2147483647,0,0,1,1,2,2,3,3,4,4,6,6,8,8,11,11,12,12],"right_children":[2,4,6,8,-1,-1,12,-1,14,-1,-1,16,18,-1,-1,-1,-1,-1,-1],"split_conditions":[3.3538108E0,1.1156222E1,3.9562867E0,8.355084E1,-4.4657804E-2,2.2948792E-2,6.4318533E0,-4.4403177E-2,1.8542641E0,-5.214977E-2,-2.2918534E-2,1.3976027E1,8.5605E0,-2.2987198E-2,1.52988285E-2,-6.5989955E-3,-3.5041153E-2,3.0133365E-2,-8.897656E-3],"split_indices":[2,1,2,0,1,0,2,0,2,2147483647,2147483647,1,2,0,0,0,0,0,0],"split_type":[0,0,0,0,0,0,0,0,0,0,0,0,0,0,0,0,0,0,0],"sum_hessian":[7.3957886E1,2.764547E1,4.6312416E1,1.3923937E1,1.3721534E1,5.760754E0,4.055166E1,5.118393E0,8.805544E0,9.164276E0,4.5572577E0,1.4664682E1,2.5886978E1,4.760924E0,4.0446205E0,4.8321614E0,9.832521E0,7.913643E0,1.7973335E1],"tree_param":{"num_deleted":"2","num_feature":"5","num_nodes":"19","size_leaf_vector":"0"}},{"base_weights":[-2.536591E-1,-4.7013775E-1,1.3680919E-2,-5.6104803E-1,2.2995662E-2,-1.8781674E-1,6.696263E-1,-6.466411E-1,4.5953974E-2,7.844875E-2,-5.3214586E-1,-3.9135296E-2,-7.5727904E-1,-3.528683E-1,5.9885854E-1,-9.785224E-1,3.02813E-1],"categories":[],"categories_nodes":[],"categories_segments":[],"categories_sizes":[],"default_left":[1,1,1,1,0,1,0,1,0,1,1,0,0,0,0,0,0],"id":34,"left_children":[1,3,5,7,-1,9,-1,11,-1,13,15,-1,-1,-1,-1,-1,-1],"loss_changes":[4.541771E0,1.9554768E0,4.8886666E0,1.93262E0,0E0,2.6408143E0,0E0,2.1322699E0,0E0,3.9952297E0,4.951634E0,0E0,0E0,0E0,0E0,0E0,0E0],"parents":[2147483647,0,0,1,1,2,2,3,3,5,5,7,7,9,9,10,10],"right_children":[2,4,6,8,-1,10,-1,12,-1,14,16,-1,-1,-1,-1,-1,-1],"split_conditions":[2.8638858E-1,1.8303822E1,2.9981202E-1,3.7922817E-1,1.1497831E-3,2.3612492E1,3.3481315E-2,5.275911E-2,2.2976988E-3,4.7305644E-1,8.935149E-1,-1.9567648E-3,-3.786395E-2,-1.7643414E-2,2.9942928E-2,-4.8926122E-2,1.514065E-2],"split_indices":[3,1,4,4,0,1,0,3,0,3,3,0,0,0,0,0,0],"split_type":[0,0,0,0,0,0,0,0,0,0,0,0,0,0,0,0,0],"sum_hessian":[7.7366165E1,4.2330574E1,3.5035587E1,3.5625343E1,6.705233E0,2.7348183E1,7.6874022E0,3.1165491E1,4.4598513E0,1.5857668E1,1.1490516E1,5.010012E0,2.615548E1,8.847052E0,7.0106153E0,7.3755817E0,4.114934E0],"tree_param":{"num_deleted":"0","num_feature":"5","num_nodes":"17","size_leaf_vector":"0"}},{"base_weights":[-2.4956504E-1,-7.3654145E-1,-1.2361168E-1,-2.2789316E-1,-8.985781E-1,-7.0037967E-1,-7.879151E-3,-2.7824762E-1,-9.376486E-1,-9.7318254E-2,4.7229356E-1,9.974792E-3,-9.506586E-1],"categories":[],"categories_nodes":[],"categories_segments":[],"categories_sizes":[],"default_left":[1,1,1,0,0,1,1,0,0,1,0,0,0],"id":35,"left_children":[1,3,5,-1,-1,7,9,-1,-1,11,-1,-1,-1],"loss_changes":[4.5965085E0,1.0729179E0,4.1277566E0,0E0,0E0,7.7438545E-1,2.3042474E0,0E0,0E0,4.1439915E0,0E0,0E0,0E0],"parents":[2147483647,0,0,1,1,2,2,5,5,6,6,9,9],"right_children":[2,4,6,-1,-1,8,10,-1,-1,12,-1,-1,-1],"split_conditions":[1.9669019E0,6.222917E-2,1.7189524E-1,-1.1394658E-2,-4.4928905E-2,1.3491422E-1,1.2083681E1,-1.3912382E-2,-4.6882432E-2,9.542E0,2.3614679E-2,4.987396E-4,-4.753293E-2],"split_indices":[2,3,4,0,0,4,2,0,0,2,0,0,0],"split_type":[0,0,0,0,0,0,0,0,0,0,0,0,0],"sum_hessian":[7.54245E1,1.4503017E1,6.0921486E1,4.085376E0,1.0417642E1,9.337033E0,5.1584454E1,4.1415687E0,5.195465E0,4.4157E1,7.427449E0,4.0102985E1,4.0540166E0],"tree_param":{"num_deleted":"0","num_feature":"5","num_nodes":"13","size_leaf_vector":"0"}},{"base_weights":[-2.5353828E-1,-5.008452E-1,1.8149465E-2,-8.9523E-1,-2.7291596E-1,-4.0246335E-1,3.8848203E-1,-5.116149E-1,2.8276807E-1,-6.768783E-1,2.8048542E-1,6.613577E-1,-5.0284976E-1,-1.0776588E-1,-6.125869E-1,-2.3725921E-1,-1.0961508E0,9.906132E-1,-1.225324E-1],"categories":[],"categories_nodes":[],"categories_segments":[],"categories_sizes":[],"default_left":[1,1,1,0,1,1,1,1,0,1,0,1,0,0,0,0,0,0,0],"id":36,"left_children":[1,3,5,-1,7,9,11,13,-1,15,-1,17,-1,-1,-1,-1,-1,-1,-1],"loss_changes":[5.163811E0,3.3689127E0,6.001011E0,0E0,3.714375E0,3.5744152E0,5.3095145E0,7.161288E-1,0E0,2.168459E0,0E0,4.2764E0,0E0,0E0,0E0,0E0,0E0,0E0,0E0],"parents":[2147483647,0,0,1,1,2,2,4,4,5,5,6,6,7,7,9,9,11,11],"right_children":[2,4,6,-1,8,10,12,14,-1,16,-1,18,-1,-1,-1,-1,-1,-1,-1],"split_conditions":[2.467797E-1,3.4272585E0,2.0747523E-1,-4.47615E-2,1.1392215E2,3.7934107E-1,1.3087451E2,5.0564356E0,1.4138403E-2,3.0201226E-1,1.4024272E-2,5.9120536E-1,-2.5142489E-2,-5.3882943E-3,-3.0629346E-2,-1.1862961E-2,-5.480754E-2,4.9530663E-2,-6.12662E-3],"split_indices":[4,2,3,0,0,4,0,2,0,4,0,3,0,0,0,0,0,0,0],"split_type":[0,0,0,0,0,0,0,0,0,0,0,0,0,0,0,0,0,0,0],"sum_hessian":[7.5717926E1,3.919602E1,3.652191E1,1.3283598E1,2.5912418E1,1.7059423E1,1.9462486E1,1.8181704E1,7.7307153E0,1.2175971E1,4.8834524E0,1.5098304E1,4.364183E0,4.050209E0,1.4131495E1,6.7082167E0,5.467754E0,1.0446735E1,4.6515684E0],"tree_param":{"num_deleted":"0","num_feature":"5","num_nodes":"19","size_leaf_vector":"0"}},{"base_weights":[-2.2305147E-1,-2.947103E-1,6.3290906E-1,-5.0916356E-1,-5.787738E-2,-6.962744E-1,-3.898079E-2,9.244986E-2,-7.833806E-1,-5.329139E-1,-8.379439E-1,-5.7735366E-1,5.551393E-1,-5.1221615E-1,3.089562E-1],"categories":[],"categories_nodes":[],"categories_segments":[],"categories_sizes":[],"default_left":[1,1,0,1,1,1,1,1,0,1,1,0,0,0,0],"id":37,"left_children":[1,3,-1,5,7,-1,11,13,-1,-1,-1,-1,-1,-1,-1],"loss_changes":[4.614005E0,3.388091E0,0E0,3.0682392E0,3.6829276E0,1.3448906E-1,3.8630545E0,3.8653104E0,0E0,0E0,0E0,0E0,0E0,0E0,0E0],"parents":[2147483647,0,0,1,1,3,3,4,4,5,5,6,6,7,7],"right_children":[2,4,-1,6,8,-1,12,14,-1,-1,-1,-1,-1,-1,-1],"split_conditions":[9.312645E-1,2.4636182E-1,3.1645454E-2,1.1396447E2,1.5409793E2,-3.481372E-2,4.500539E0,6.902515E1,-3.9169032E-2,-2.6645696E-2,-4.1897196E-2,-2.8867682E-2,2.7756965E-2,-2.5610808E-2,1.544781E-2],"split_indices":[3,4,0,0,0,3,2,0,0,2147483647,2147483647,0,0,0,0],"split_type":[0,0,0,0,0,0,0,0,0,0,0,0,0,0,0],"sum_hessian":[7.118295E1,6.628915E1,4.893804E0,3.4184677E1,3.210447E1,2.4109325E1,1.0075353E1,2.7316816E1,4.787654E0,1.3409142E1,1.0700183E1,5.3005066E0,4.7748466E0,6.842053E0,2.0474764E1],"tree_param":{"num_deleted":"2","num_feature":"5","num_nodes":"15","size_leaf_vector":"0"}},{"base_weights":[-1.7652477E-1,-4.1122854E-1,2.1391296E-1,-5.129446E-1,3.0053806E-1,-2.9146147E-1,4.982571E-1,6.3433056E-3,-5.953038E-1,6.753212E-2,-6.797963E-1,7.2603667E-1,1.7862122E-1,-9.693692E-1,-3.2555628E-1,3.4706378E-1,9.989682E-1],"categories":[],"categories_nodes":[],"categories_segments":[],"categories_sizes":[],"default_left":[1,1,1,1,0,1,1,0,1,0,0,1,0,0,0,0,0],"id":38,"left_children":[1,3,5,7,-1,9,11,-1,13,-1,-1,15,-1,-1,-1,-1,-1],"loss_changes":[6.830594E0,3.5059824E0,4.2094336E0,1.7520657E0,0E0,1.5535421E0,1.2148819E0,0E0,3.2454796E0,0E0,0E0,7.348585E-1,0E0,0E0,0E0,0E0,0E0],"parents":[2147483647,0,0,1,1,2,2,3,3,5,5,6,6,8,8,11,11],"right_children":[2,4,6,8,-1,10,12,-1,14,-1,-1,16,-1,-1,-1,-1,-1],"split_conditions":[6.4318533E0,3.7922817E-1,2.193031E-1,6.0545936E-2,1.5026904E-2,1.8382227E-1,6.306261E-1,3.1716528E-4,1.4800906E-1,3.3766062E-3,-3.3989813E-2,4.6818146E-1,8.931061E-3,-4.846846E-2,-1.6277814E-2,1.735319E-2,4.994841E-2],"split_indices":[2,4,4,3,0,4,3,0,3,0,0,3,0,0,0,0,0],"split_type":[0,0,0,0,0,0,0,0,0,0,0,0,0,0,0,0,0],"sum_hessian":[7.257947E1,4.529698E1,2.7282488E1,3.987762E1,5.419362E0,9.814191E0,1.7468298E1,5.585094E0,3.4292526E1,5.5289545E0,4.285236E0,9.457249E0,8.011048E0,1.3281267E1,2.1011261E1,4.9105763E0,4.5466723E0],"tree_param":{"num_deleted":"0","num_feature":"5","num_nodes":"17","size_leaf_vector":"0"}}]},"name":"gbtree"},"learner_model_param":{"base_score":"5E-1","boost_from_average":"1","num_class":"0","num_feature":"5","num_target":"1"},"objective":{"name":"binary:logistic","reg_loss_param":{"scale_pos_weight":"1"}}},"version":[1,7,1]}